~o
<STREAMINFO> 1 39
<VECSIZE> 39<NULLD><MFCC_D_A_0><DIAGC>
~s "silst"
<MEAN> 39
 -1.152339e+01 -2.241556e+00 -8.096504e-01 -1.607183e+00 2.465405e+00 -1.488506e+00 4.588234e-01 1.069682e+00 2.841600e+00 -8.476974e-01 2.453820e-01 -1.593960e-01 4.786081e+01 -8.014067e-02 3.050891e-02 3.206298e-02 4.172228e-02 -3.806232e-02 3.031358e-02 3.004690e-02 3.522696e-02 2.111220e-02 5.797077e-02 8.357225e-02 8.525576e-02 -1.856970e-01 5.683810e-02 2.542188e-02 5.011472e-02 -2.982881e-02 -7.099824e-02 -5.895039e-02 -8.069718e-02 -4.672964e-02 -4.617485e-02 -2.223608e-02 -1.244195e-02 -1.923893e-02 1.202533e-01
<VARIANCE> 39
 2.716417e+01 3.236875e+01 2.823823e+01 2.660266e+01 3.292892e+01 4.627067e+01 3.508828e+01 3.649315e+01 3.814488e+01 3.196448e+01 2.884342e+01 2.589586e+01 6.358802e+01 1.634681e+00 2.220584e+00 2.014450e+00 2.045135e+00 2.453675e+00 2.809942e+00 3.000928e+00 2.553426e+00 2.775929e+00 2.480849e+00 2.230533e+00 1.893124e+00 2.550170e+00 2.824994e-01 3.897731e-01 3.619159e-01 4.001625e-01 4.685469e-01 5.190845e-01 5.653381e-01 4.919474e-01 5.213791e-01 4.821377e-01 4.321079e-01 3.596895e-01 3.660645e-01
<GCONST> 1.173353e+02
~h "@"
<BEGINHMM>
<NUMSTATES> 5
<STATE> 2
<MEAN> 39
 -4.822887e+00 -2.439334e+00 7.189290e+00 -3.248149e+00 -5.820145e+00 -1.314059e+01 -1.287466e+01 -5.850709e+00 4.278164e-01 -1.988549e+00 -2.322842e+00 -2.858869e+00 6.901247e+01 2.858447e+00 -1.137397e+00 5.242441e-01 -7.384675e-01 -1.990806e+00 -1.092962e+00 -3.016532e+00 -2.447392e-01 -1.118428e-01 7.991799e-01 -4.962489e-02 -5.471756e-01 1.862518e+00 -2.455808e-01 1.073724e-01 -2.861055e-01 -6.481057e-02 2.748415e-01 5.717931e-01 2.822575e-01 2.176343e-01 -2.995835e-02 1.933178e-01 1.507691e-01 -4.043497e-02 -5.675203e-01
<VARIANCE> 39
 5.565309e+01 3.276223e+01 3.832870e+01 6.199640e+01 6.697701e+01 1.044983e+02 8.057010e+01 4.150890e+01 4.654394e+01 3.362004e+01 4.152204e+01 2.896626e+01 2.655472e+01 7.525124e+00 4.533328e+00 4.924625e+00 5.231997e+00 3.988986e+00 5.700238e+00 6.015455e+00 5.684265e+00 5.578705e+00 5.063818e+00 4.268571e+00 3.545040e+00 1.941017e+00 9.900429e-01 6.799231e-01 5.081614e-01 5.805924e-01 5.979997e-01 7.787595e-01 9.388026e-01 7.070631e-01 7.142290e-01 5.226002e-01 4.668360e-01 4.610254e-01 4.166348e-01
<GCONST> 1.356229e+02
<STATE> 3
<MEAN> 39
 -5.237226e-01 -6.327527e+00 6.921381e+00 -6.876198e+00 -9.833606e+00 -1.412446e+01 -1.859309e+01 -3.417264e+00 -1.937429e-02 4.841694e-01 -3.047242e+00 -3.133539e+00 7.211018e+01 8.039498e-01 -5.607327e-01 -2.189188e-01 -4.780516e-01 -3.469147e-01 1.811682e-01 -1.085462e+00 4.067432e-01 3.472422e-02 8.869056e-01 2.047661e-01 -3.104167e-01 2.213317e-01 -6.539832e-01 8.324664e-01 -9.782060e-02 4.545782e-01 8.640942e-01 4.611192e-01 1.008209e+00 -2.923966e-01 -1.853679e-01 -2.753747e-01 1.852294e-02 6.111202e-03 -8.713844e-01
<VARIANCE> 39
 1.825271e+01 2.480564e+01 4.027301e+01 5.913105e+01 5.972391e+01 1.198316e+02 7.107733e+01 4.906619e+01 4.077660e+01 5.106586e+01 6.922575e+01 3.438701e+01 1.419778e+01 1.590048e+00 2.037710e+00 2.224512e+00 3.664810e+00 3.365585e+00 3.851264e+00 3.658283e+00 3.286057e+00 3.043698e+00 3.089229e+00 2.595412e+00 2.078587e+00 1.120271e+00 6.302803e-01 5.004027e-01 4.748688e-01 6.290526e-01 6.051891e-01 8.453276e-01 9.732245e-01 7.965115e-01 7.930591e-01 6.308060e-01 5.541362e-01 5.651720e-01 3.260690e-01
<GCONST> 1.267714e+02
<STATE> 4
<MEAN> 39
 5.762804e-01 -4.510927e+00 6.655386e+00 -6.377587e+00 -6.652277e+00 -1.116083e+01 -1.952141e+01 -4.334395e+00 -7.608743e-01 2.574518e+00 -1.742242e+00 -4.457161e+00 7.020609e+01 -4.340245e-01 2.039042e+00 -2.209061e-02 1.081056e+00 1.487860e+00 1.012901e+00 1.782180e+00 -1.012554e+00 -4.925773e-01 -5.425541e-01 1.814084e-01 -6.277852e-02 -2.015485e+00 -5.523734e-01 6.477903e-01 4.589222e-02 4.661172e-01 4.133165e-01 3.830403e-01 1.002148e+00 -1.688503e-01 -1.124642e-01 -5.006060e-01 -1.080882e-01 9.861335e-02 -7.019987e-01
<VARIANCE> 39
 2.033790e+01 2.597637e+01 4.435540e+01 5.099649e+01 5.813611e+01 1.277262e+02 6.868243e+01 5.341973e+01 4.167494e+01 5.209800e+01 7.216827e+01 3.142814e+01 1.779055e+01 1.709202e+00 2.948768e+00 2.065844e+00 4.204108e+00 3.161688e+00 4.700057e+00 4.266329e+00 3.394925e+00 4.063544e+00 3.192433e+00 2.747489e+00 2.687940e+00 3.200386e+00 4.697759e-01 4.754856e-01 4.359199e-01 5.297226e-01 5.458937e-01 8.898355e-01 7.530102e-01 7.527049e-01 7.392724e-01 5.916182e-01 6.447123e-01 4.652053e-01 3.971736e-01
<GCONST> 1.287469e+02
<TRANSP> 5
 0.000000e+00 1.000000e+00 0.000000e+00 0.000000e+00 0.000000e+00
 0.000000e+00 3.231964e-01 6.768035e-01 0.000000e+00 0.000000e+00
 0.000000e+00 0.000000e+00 5.462731e-01 4.537270e-01 0.000000e+00
 0.000000e+00 0.000000e+00 0.000000e+00 5.396068e-01 4.603932e-01
 0.000000e+00 0.000000e+00 0.000000e+00 0.000000e+00 0.000000e+00
<ENDHMM>
~h "E"
<BEGINHMM>
<NUMSTATES> 5
<STATE> 2
<MEAN> 39
 -2.515036e+00 -6.626812e+00 8.531767e+00 -7.492947e+00 -1.178580e+01 -1.501090e+01 -1.065890e+01 1.308887e+00 -1.716707e+00 -1.418419e+00 -2.158282e+00 -2.445870e+00 7.193859e+01 8.498109e-01 -1.407106e+00 4.377244e-01 -1.066274e+00 -1.885559e+00 -6.538995e-01 -5.842942e-02 1.319361e+00 -5.312299e-01 5.274633e-01 1.130899e-02 -6.256755e-02 1.385463e+00 -4.924562e-01 4.511387e-01 -2.107999e-01 3.451952e-01 6.846621e-01 4.877689e-01 2.221658e-01 -3.713844e-01 1.097426e-01 -5.613596e-02 -2.333369e-02 -4.737037e-02 -5.985681e-01
<VARIANCE> 39
 2.505292e+01 3.550022e+01 5.851982e+01 4.387975e+01 6.954645e+01 4.915072e+01 6.761760e+01 4.426984e+01 5.152203e+01 4.291278e+01 5.503788e+01 2.656620e+01 3.527837e+01 2.818914e+00 2.312097e+00 3.068591e+00 2.922696e+00 3.512129e+00 3.266475e+00 5.456984e+00 3.533178e+00 3.884346e+00 3.344384e+00 3.382883e+00 2.381714e+00 1.799213e+00 4.961585e-01 5.094453e-01 4.540959e-01 4.548097e-01 6.294864e-01 5.579411e-01 8.248652e-01 7.117119e-01 6.211033e-01 5.416075e-01 5.532028e-01 3.790992e-01 3.488601e-01
<GCONST> 1.274810e+02
<STATE> 3
<MEAN> 39
 -2.772494e+00 -7.087216e+00 8.176553e+00 -9.102249e+00 -1.360409e+01 -1.480158e+01 -8.285551e+00 2.854090e+00 -2.829515e+00 -6.177379e-01 -3.810967e+00 -2.624753e+00 7.259682e+01 -6.017289e-02 5.953453e-01 -1.872220e-02 3.994425e-01 2.730491e-01 -8.117027e-02 1.894635e-03 -4.933359e-01 -1.863578e-01 -1.241824e-01 -1.672837e-01 -3.315060e-02 -4.434932e-01 -1.257511e-01 4.638948e-01 -4.506575e-02 3.857958e-01 5.185109e-01 1.194876e-01 -2.891184e-02 -4.338062e-01 8.001547e-02 -1.574853e-01 -3.497993e-02 1.121602e-02 -4.401466e-01
<VARIANCE> 39
 2.352936e+01 3.496092e+01 4.846635e+01 5.130259e+01 5.830069e+01 4.381784e+01 7.614389e+01 4.313503e+01 5.598434e+01 4.365378e+01 5.859408e+01 2.928664e+01 2.424203e+01 4.079652e-01 1.212394e+00 1.486062e+00 1.440161e+00 1.716880e+00 1.588399e+00 2.265682e+00 1.911833e+00 1.898269e+00 1.473066e+00 1.498630e+00 1.197540e+00 5.574081e-01 1.670209e-01 3.022638e-01 2.691475e-01 3.443599e-01 4.303349e-01 3.671344e-01 5.542290e-01 4.536997e-01 4.111727e-01 3.522267e-01 3.681634e-01 2.868904e-01 1.987920e-01
<GCONST> 1.097569e+02
<STATE> 4
<MEAN> 39
 -3.201119e+00 -2.721442e+00 9.036854e+00 -4.669909e+00 -1.041599e+01 -1.590152e+01 -9.811555e+00 -1.715539e+00 -3.101080e+00 -2.023444e+00 -2.982152e+00 -2.396707e+00 6.891461e+01 -8.753116e-01 2.439592e+00 -3.134407e-01 1.826499e+00 2.333250e+00 9.992386e-01 7.806121e-01 -1.722998e+00 1.886635e-01 -5.932584e-01 -2.506680e-01 -2.002425e-01 -2.298862e+00 -5.043102e-01 2.757759e-01 -2.675984e-01 1.216830e-01 5.272843e-01 6.578074e-01 4.555679e-01 -4.407487e-02 1.010522e-01 -1.038754e-01 5.363375e-02 -1.061192e-01 -4.177829e-01
<VARIANCE> 39
 2.614273e+01 3.931762e+01 5.869941e+01 5.129956e+01 7.267060e+01 5.908126e+01 6.830646e+01 5.052948e+01 5.870804e+01 4.503437e+01 6.190198e+01 3.307509e+01 3.698177e+01 2.131888e+00 3.256077e+00 2.854872e+00 3.249159e+00 3.559357e+00 4.069099e+00 4.993777e+00 3.979952e+00 3.931059e+00 3.113042e+00 3.346364e+00 2.555930e+00 2.981627e+00 4.085651e-01 5.859241e-01 4.313413e-01 5.575905e-01 6.293638e-01 6.990142e-01 6.745960e-01 6.995040e-01 6.163471e-01 5.233201e-01 5.965179e-01 4.230539e-01 4.854262e-01
<GCONST> 1.301615e+02
<TRANSP> 5
 0.000000e+00 1.000000e+00 0.000000e+00 0.000000e+00 0.000000e+00
 0.000000e+00 5.535752e-01 4.464248e-01 0.000000e+00 0.000000e+00
 0.000000e+00 0.000000e+00 7.367867e-01 2.632133e-01 0.000000e+00
 0.000000e+00 0.000000e+00 0.000000e+00 4.188061e-01 5.811939e-01
 0.000000e+00 0.000000e+00 0.000000e+00 0.000000e+00 0.000000e+00
<ENDHMM>
~h "H"
<BEGINHMM>
<NUMSTATES> 5
<STATE> 2
<MEAN> 39
 -1.415034e+01 -6.686975e+00 1.140652e+01 1.523116e+00 -8.690985e+00 -8.673695e+00 -6.973731e+00 -2.802158e+00 -8.148624e-01 -2.659472e+00 4.959283e-02 -3.258723e-01 6.417518e+01 1.942938e+00 1.109210e+00 3.271741e+00 1.697190e+00 -9.454051e-01 -1.342788e+00 -9.878390e-01 -4.615388e-01 -1.459539e+00 -1.656135e+00 -8.515273e-01 -6.015381e-01 1.992086e-01 4.613393e-01 5.776930e-01 1.779904e-01 -6.539658e-01 -2.067549e-01 3.271514e-01 -2.829972e-01 -3.523365e-01 -5.383767e-01 -1.949462e-01 8.678835e-02 -4.246027e-03 9.472163e-02
<VARIANCE> 39
 1.260552e+02 2.796671e+01 3.306148e+01 6.516481e+01 4.330605e+01 9.934677e+01 1.264685e+02 3.363015e+01 2.967469e+01 3.598722e+01 3.079233e+01 2.525757e+01 2.628272e+01 8.210051e+00 3.971998e+00 2.007560e+00 4.301239e+00 4.620404e+00 3.587233e+00 5.872149e+00 7.293431e+00 4.140919e+00 2.956009e+00 2.701922e+00 2.562342e+00 8.186028e-01 5.732447e-01 6.048856e-01 4.681754e-01 7.435242e-01 5.847769e-01 1.042995e+00 1.046975e+00 7.251961e-01 4.985254e-01 5.510325e-01 4.823268e-01 5.762135e-01 2.273835e-01
<GCONST> 1.306485e+02
<STATE> 3
<MEAN> 39
 -3.881485e+00 -2.884723e+00 1.945908e+01 4.656676e+00 -1.310525e+01 -1.150995e+01 -1.315816e+01 -5.693477e+00 -7.909341e+00 -7.469374e+00 -7.551216e-01 -1.761784e+00 6.599696e+01 1.265922e+00 7.305505e-01 2.398347e+00 -7.808633e-01 -1.889788e+00 9.767018e-02 -1.329149e+00 -8.143167e-01 -1.907568e+00 -5.522754e-01 5.145188e-02 -4.564641e-01 6.418391e-01 -7.679663e-01 -3.508836e-02 -7.408371e-01 -8.409600e-01 4.053157e-01 5.123139e-01 2.495440e-01 1.732872e-01 4.620674e-01 5.265411e-01 1.560352e-01 1.340479e-01 -8.001874e-02
<VARIANCE> 39
 4.335706e+01 3.608003e+01 2.704715e+01 6.007514e+01 5.661193e+01 6.747479e+01 6.797390e+01 5.606359e+01 4.126089e+01 3.177420e+01 2.864003e+01 2.555962e+01 2.384540e+01 6.890329e+00 2.842256e+00 2.362531e+00 3.779267e+00 2.991462e+00 4.968153e+00 6.866463e+00 3.704213e+00 2.847456e+00 3.036212e+00 1.909030e+00 2.431203e+00 9.479299e-01 6.379010e-01 5.214894e-01 3.114167e-01 3.735733e-01 7.215648e-01 6.025592e-01 7.255929e-01 9.726239e-01 4.739136e-01 3.538216e-01 4.548268e-01 4.546651e-01 1.330385e-01
<GCONST> 1.247904e+02
<STATE> 4
<MEAN> 39
 -5.980241e+00 6.952504e-01 2.146491e+01 -4.445216e+00 -1.554161e+01 -9.338894e+00 -1.545769e+01 -6.372693e+00 -9.012630e+00 -5.769603e+00 -2.710927e+00 -3.436780e+00 6.629784e+01 -3.067574e-01 1.042191e+00 2.710353e-01 -1.313048e+00 3.616304e-01 3.313192e-01 -4.281464e-01 2.733134e-02 -3.486758e-01 -1.813132e-01 -3.048808e-02 -2.024564e-01 -1.265083e-01 -7.691156e-02 3.715946e-02 -5.985154e-01 1.895459e-01 5.036880e-01 -1.175293e-01 2.691390e-01 1.518606e-01 2.822555e-01 6.501424e-02 9.849347e-02 9.267095e-02 -2.306332e-01
<VARIANCE> 39
 3.123181e+01 3.824951e+01 5.794680e+01 9.375440e+01 4.149579e+01 7.194452e+01 3.468526e+01 4.091358e+01 5.862717e+01 3.681184e+01 5.594680e+01 3.424402e+01 2.095806e+01 1.831733e+00 1.446434e+00 2.258406e+00 2.692421e+00 1.886713e+00 3.119043e+00 2.369126e+00 1.787462e+00 2.148977e+00 1.543938e+00 1.693016e+00 1.494519e+00 7.293841e-01 3.530999e-01 2.460289e-01 4.278821e-01 3.791227e-01 5.645048e-01 5.567359e-01 5.997478e-01 4.195217e-01 5.700630e-01 3.898018e-01 3.966784e-01 3.239918e-01 1.377557e-01
<GCONST> 1.163694e+02
<TRANSP> 5
 0.000000e+00 1.000000e+00 0.000000e+00 0.000000e+00 0.000000e+00
 0.000000e+00 5.426821e-01 4.573179e-01 0.000000e+00 0.000000e+00
 0.000000e+00 0.000000e+00 4.923576e-01 5.076424e-01 0.000000e+00
 0.000000e+00 0.000000e+00 0.000000e+00 6.567450e-01 3.432551e-01
 0.000000e+00 0.000000e+00 0.000000e+00 0.000000e+00 0.000000e+00
<ENDHMM>
~h "O"
<BEGINHMM>
<NUMSTATES> 5
<STATE> 2
<MEAN> 39
 7.745056e-02 -2.383574e+00 -2.207088e+00 -1.179858e+01 -3.812498e+00 -6.434643e+00 -1.362596e+01 -7.334882e+00 -8.848980e-01 2.745989e+00 2.098353e-02 -5.812799e+00 7.008084e+01 2.939857e+00 -6.917483e-01 -1.453473e-01 -2.620769e+00 -2.127539e+00 1.364489e+00 -1.253574e+00 -6.351398e-01 -4.759045e-01 7.929759e-01 6.084601e-01 -1.056119e+00 1.513559e+00 -7.807498e-01 -1.141662e-01 -1.016797e-01 2.083706e-01 3.369876e-01 4.491797e-01 7.529517e-01 3.163838e-01 6.727917e-02 -2.456342e-01 5.102470e-02 2.563032e-01 -5.844401e-01
<VARIANCE> 39
 2.382613e+01 2.952015e+01 3.928451e+01 5.836903e+01 5.280139e+01 1.130773e+02 6.046836e+01 4.041792e+01 4.327567e+01 5.385072e+01 1.052484e+02 3.020130e+01 2.222908e+01 4.340549e+00 4.014000e+00 4.982485e+00 6.566366e+00 4.523564e+00 5.168896e+00 4.843854e+00 4.876132e+00 5.964897e+00 5.194810e+00 5.037601e+00 3.385527e+00 1.988863e+00 6.697521e-01 6.535886e-01 5.985423e-01 8.352595e-01 6.370571e-01 8.672184e-01 7.563332e-01 6.583837e-01 8.541566e-01 7.095613e-01 8.185685e-01 4.797087e-01 4.149921e-01
<GCONST> 1.358783e+02
<STATE> 3
<MEAN> 39
 2.480469e+00 -5.322508e+00 -4.422888e+00 -1.727394e+01 -4.433718e+00 -1.223603e+00 -1.104510e+01 -7.070543e+00 -1.022591e+00 3.167886e+00 8.711678e-01 -7.178133e+00 7.117461e+01 1.240698e-01 1.709048e-01 -1.827013e-01 -6.419873e-01 1.404405e-02 7.815864e-01 6.578443e-01 -1.377847e-01 -1.093828e-01 -4.981097e-01 -2.882463e-02 2.222407e-01 -3.282004e-01 -3.914245e-01 3.998595e-01 2.065761e-01 5.450940e-01 3.984306e-01 -2.911947e-01 2.319649e-01 1.061211e-02 -6.456203e-02 -2.472035e-01 -1.888428e-01 2.462503e-01 -4.218814e-01
<VARIANCE> 39
 1.782405e+01 3.269417e+01 4.308702e+01 6.140754e+01 5.098018e+01 1.056807e+02 6.363523e+01 4.882231e+01 5.592382e+01 7.731441e+01 1.192832e+02 2.944293e+01 2.143768e+01 4.295813e-01 1.488272e+00 1.176174e+00 2.191309e+00 1.926528e+00 2.989367e+00 2.600219e+00 1.997600e+00 2.113782e+00 2.680594e+00 2.326755e+00 1.809440e+00 7.013514e-01 2.763690e-01 3.203994e-01 2.857191e-01 5.072888e-01 5.227059e-01 4.908584e-01 5.178171e-01 5.010719e-01 5.634189e-01 6.028604e-01 5.137420e-01 3.278333e-01 1.844682e-01
<GCONST> 1.172584e+02
<STATE> 4
<MEAN> 39
 2.294891e+00 5.882404e-02 -1.854632e+00 -1.816163e+01 -5.276383e+00 -2.993741e-02 -9.627098e+00 -8.055840e+00 -1.960084e+00 -5.469819e-01 -2.341775e-01 -2.844553e+00 6.741026e+01 -9.909868e-01 1.113240e+00 7.108494e-01 1.579209e+00 1.237787e+00 -5.168984e-01 6.330386e-01 -1.436385e-02 -9.607052e-02 -5.357658e-01 -4.641462e-01 3.278565e-01 -1.165277e+00 -5.020634e-01 1.537883e-02 1.605700e-01 6.168427e-01 3.983752e-01 -1.887284e-01 5.167569e-02 7.549243e-02 -2.877901e-02 4.640865e-02 4.520464e-02 -1.148660e-01 -1.602703e-01
<VARIANCE> 39
 1.799258e+01 3.562719e+01 4.627271e+01 7.561650e+01 6.811812e+01 1.336104e+02 1.066940e+02 5.235141e+01 5.513875e+01 5.712070e+01 8.197673e+01 3.816212e+01 2.499352e+01 2.043010e+00 2.700799e+00 2.220244e+00 4.534846e+00 4.025810e+00 4.094731e+00 4.197294e+00 4.223315e+00 4.324486e+00 4.697484e+00 3.760852e+00 2.454742e+00 1.552162e+00 2.933393e-01 4.573395e-01 3.260565e-01 6.089920e-01 5.646777e-01 7.773641e-01 9.870254e-01 8.392813e-01 6.937264e-01 7.232740e-01 6.147540e-01 4.782479e-01 2.269718e-01
<GCONST> 1.307013e+02
<TRANSP> 5
 0.000000e+00 1.000000e+00 0.000000e+00 0.000000e+00 0.000000e+00
 0.000000e+00 5.273502e-01 4.726498e-01 0.000000e+00 0.000000e+00
 0.000000e+00 0.000000e+00 7.499012e-01 2.500988e-01 0.000000e+00
 0.000000e+00 0.000000e+00 0.000000e+00 6.161852e-01 3.838147e-01
 0.000000e+00 0.000000e+00 0.000000e+00 0.000000e+00 0.000000e+00
<ENDHMM>
~h "R"
<BEGINHMM>
<NUMSTATES> 5
<STATE> 2
<MEAN> 39
 -2.893414e+00 -2.813579e+00 -2.873268e+00 -1.267077e+01 2.810725e-01 5.421477e-01 -7.503179e+00 -6.428210e+00 1.853655e+00 -6.746319e-01 -2.070254e+00 -4.174657e+00 6.657339e+01 -1.009204e+00 6.618214e-01 -7.640387e-02 3.613968e-01 1.725793e+00 1.142613e+00 1.160110e-01 -2.657014e-01 -1.065737e-02 -3.018804e-02 5.409304e-01 2.885031e-01 -9.432611e-01 -2.429889e-01 -1.060842e-01 2.402886e-01 3.944857e-01 -1.187734e-01 -4.728768e-01 -2.906106e-02 2.948609e-01 -9.299140e-02 -3.629889e-02 1.179521e-02 -4.589277e-02 -8.472382e-02
<VARIANCE> 39
 4.904640e+01 3.368064e+01 3.501542e+01 6.188053e+01 8.597115e+01 8.264155e+01 7.552492e+01 5.430515e+01 5.023711e+01 5.493657e+01 6.709868e+01 4.024479e+01 2.754499e+01 3.611389e+00 2.932735e+00 3.118307e+00 5.366956e+00 5.252656e+00 5.086071e+00 4.780364e+00 4.431081e+00 3.693007e+00 4.046559e+00 3.897605e+00 3.379379e+00 1.664028e+00 4.255740e-01 4.766217e-01 5.193760e-01 8.348994e-01 7.305704e-01 7.127144e-01 7.450543e-01 7.190776e-01 7.255489e-01 7.241598e-01 6.607252e-01 5.699437e-01 3.757028e-01
<GCONST> 1.340963e+02
<STATE> 3
<MEAN> 39
 -1.047033e+01 -3.742643e+00 -4.319342e+00 -9.526342e+00 7.395046e+00 8.380440e-01 -7.156051e+00 -3.914284e+00 2.766237e+00 -7.469302e-02 -7.833007e-02 -3.819803e+00 6.401979e+01 -3.953499e-01 2.197212e-02 1.534763e-01 5.823191e-01 5.623714e-02 -8.298712e-01 -9.396430e-02 3.942815e-01 6.774309e-02 1.155760e-01 5.086794e-02 -7.243385e-03 -4.088413e-01 6.088932e-01 -2.313692e-02 2.764687e-01 -4.048431e-03 -9.194133e-01 -5.742882e-01 2.619573e-02 -9.562051e-03 -1.719413e-01 -8.791286e-02 -2.604530e-01 -4.874779e-02 1.997035e-01
<VARIANCE> 39
 6.273214e+01 3.515403e+01 3.384820e+01 5.022507e+01 8.623353e+01 7.026965e+01 5.484714e+01 6.746677e+01 4.619416e+01 4.079016e+01 5.069996e+01 3.298251e+01 2.547581e+01 3.706387e+00 2.239823e+00 2.343035e+00 3.817233e+00 4.402974e+00 3.874295e+00 3.701645e+00 3.752803e+00 3.151842e+00 3.525408e+00 2.995066e+00 2.645114e+00 1.339003e+00 5.986701e-01 5.676857e-01 6.210284e-01 8.003605e-01 9.172118e-01 7.643682e-01 7.787351e-01 9.603786e-01 7.416627e-01 7.162620e-01 6.394129e-01 5.472469e-01 4.126152e-01
<GCONST> 1.314939e+02
<STATE> 4
<MEAN> 39
 -5.077878e+00 -2.731136e+00 -1.614036e+00 -9.415015e+00 8.858091e-01 -3.840579e+00 -8.976125e+00 -4.398601e+00 2.074214e+00 9.628849e-02 -1.585203e+00 -4.111084e+00 6.525224e+01 9.507110e-01 9.981962e-02 1.235667e+00 7.601503e-01 -1.702447e+00 -1.676639e+00 -6.056851e-02 2.997562e-01 -5.887583e-01 -3.440268e-01 -5.208483e-01 -4.748411e-02 1.930170e-01 -1.450576e-02 -4.781723e-02 2.063964e-01 -2.534980e-03 -2.751404e-01 7.432845e-02 1.262398e-01 4.877572e-02 -1.850688e-01 -1.180778e-01 2.510591e-02 5.847895e-02 7.319590e-02
<VARIANCE> 39
 6.634793e+01 3.941086e+01 4.163762e+01 5.468108e+01 7.765947e+01 8.669978e+01 8.108012e+01 6.401230e+01 4.896622e+01 5.510754e+01 6.090989e+01 3.505730e+01 4.108432e+01 5.693889e+00 4.551307e+00 3.619174e+00 6.411706e+00 6.930281e+00 4.788352e+00 5.162656e+00 6.130583e+00 4.801867e+00 4.234015e+00 4.009818e+00 3.170329e+00 4.640515e+00 6.328396e-01 7.012941e-01 4.728907e-01 7.405257e-01 8.902498e-01 7.481605e-01 9.268596e-01 9.068084e-01 7.402400e-01 8.271970e-01 6.978379e-01 5.880087e-01 6.141726e-01
<GCONST> 1.400634e+02
<TRANSP> 5
 0.000000e+00 1.000000e+00 0.000000e+00 0.000000e+00 0.000000e+00
 0.000000e+00 4.757714e-01 5.242286e-01 0.000000e+00 0.000000e+00
 0.000000e+00 0.000000e+00 5.425000e-01 4.575000e-01 0.000000e+00
 0.000000e+00 0.000000e+00 0.000000e+00 4.062346e-01 5.937654e-01
 0.000000e+00 0.000000e+00 0.000000e+00 0.000000e+00 0.000000e+00
<ENDHMM>
~h "S"
<BEGINHMM>
<NUMSTATES> 5
<STATE> 2
<MEAN> 39
 -1.441620e+01 -4.168103e-01 1.119948e+01 -1.517573e+00 -2.834476e+00 -7.334572e+00 -4.736207e+00 -5.955868e+00 3.711585e-01 -4.788857e+00 -2.817737e+00 -2.392294e+00 6.927024e+01 -5.987242e+00 -4.403131e-02 9.538970e-01 7.975368e-01 1.509135e+00 1.619200e+00 1.794273e+00 6.260027e-01 1.666991e+00 -7.077569e-01 2.515507e-01 2.653124e-01 2.328622e-01 -1.727950e-01 -6.172950e-01 -4.888647e-01 -5.935582e-01 -3.064751e-01 1.249690e-01 -1.775433e-01 2.458165e-01 7.837143e-02 2.319163e-01 8.334094e-02 -2.425266e-02 1.559992e-01
<VARIANCE> 39
 1.031673e+02 2.824760e+01 4.743758e+01 3.265546e+01 5.853203e+01 5.926529e+01 4.720787e+01 5.554712e+01 5.875588e+01 3.253681e+01 4.371186e+01 3.877681e+01 1.517858e+01 2.779770e+00 4.194017e+00 4.460161e+00 5.001493e+00 4.838910e+00 5.549446e+00 5.655451e+00 5.534641e+00 4.040191e+00 4.178888e+00 4.577244e+00 3.238961e+00 1.093382e+00 1.691747e+00 5.081556e-01 5.541377e-01 6.156583e-01 7.822220e-01 8.929093e-01 7.275785e-01 5.778756e-01 8.125402e-01 7.148268e-01 6.629860e-01 5.089652e-01 1.597627e-01
<GCONST> 1.327257e+02
<STATE> 3
<MEAN> 39
 -3.196181e+01 -5.499369e+00 9.697633e+00 -4.795100e+00 -2.349573e+00 -3.748598e+00 -1.356013e+00 -1.270962e+00 6.269433e+00 -4.010768e+00 6.018362e-02 3.092039e-01 7.013297e+01 -3.836713e-01 -6.637928e-01 -5.917595e-01 -4.508818e-01 -1.676048e-01 -3.237018e-01 -6.849355e-02 3.594849e-01 4.802742e-01 3.228464e-01 3.639623e-01 2.666046e-01 -1.382810e-01 1.227054e+00 2.045672e-01 -5.790442e-02 5.218244e-02 -1.422033e-01 -3.105570e-01 -3.407890e-01 -2.377763e-01 -3.739486e-01 4.779068e-03 -6.475146e-02 -1.640522e-01 -8.521760e-02
<VARIANCE> 39
 1.249547e+01 2.226328e+01 2.444705e+01 2.718001e+01 2.615731e+01 3.213054e+01 3.230901e+01 4.507119e+01 3.080438e+01 2.660983e+01 3.004268e+01 2.815672e+01 7.593197e+00 4.253939e+00 1.323011e+00 1.397795e+00 1.281399e+00 1.339378e+00 1.918898e+00 1.844070e+00 1.751885e+00 2.265043e+00 1.818911e+00 1.813609e+00 1.792663e+00 3.033197e-01 4.410647e-01 2.728262e-01 3.125162e-01 2.872545e-01 3.311253e-01 3.896222e-01 3.237311e-01 4.447765e-01 3.470494e-01 3.525189e-01 4.185377e-01 4.035223e-01 6.403802e-02
<GCONST> 1.039862e+02
<STATE> 4
<MEAN> 39
 -2.037553e+01 -5.537504e+00 6.335915e+00 -4.525831e+00 -2.513032e+00 -8.181343e+00 -5.084417e+00 -3.412372e+00 4.946317e+00 -3.065187e+00 1.322141e-02 -1.961732e+00 6.825137e+01 6.464196e+00 1.010006e+00 -3.596509e-01 -5.898330e-01 -1.443016e+00 -1.059733e+00 -1.944378e+00 -1.401114e+00 -2.357124e+00 -1.750803e-01 -5.603352e-01 -1.340861e+00 2.746004e-01 6.260560e-01 -1.312414e-01 6.129092e-02 -4.420118e-01 -5.353383e-01 1.317111e-01 -2.288131e-01 6.758873e-02 -3.951015e-01 2.678823e-02 -1.002065e-01 -8.667641e-02 4.382442e-01
<VARIANCE> 39
 8.252452e+01 2.659075e+01 4.775518e+01 2.577324e+01 5.016991e+01 4.159624e+01 4.484921e+01 5.110011e+01 5.327535e+01 3.927696e+01 3.434239e+01 2.874537e+01 1.091623e+01 3.439144e+00 2.829103e+00 4.333397e+00 3.791640e+00 4.588808e+00 4.720304e+00 4.279434e+00 3.718513e+00 3.343133e+00 3.112290e+00 4.031102e+00 2.286688e+00 1.534521e+00 1.582890e+00 7.144650e-01 5.586987e-01 5.305802e-01 5.914856e-01 5.590639e-01 8.120710e-01 6.642295e-01 9.383655e-01 6.530153e-01 5.957691e-01 4.690159e-01 1.447308e-01
<GCONST> 1.281922e+02
<TRANSP> 5
 0.000000e+00 1.000000e+00 0.000000e+00 0.000000e+00 0.000000e+00
 0.000000e+00 7.114086e-01 2.885915e-01 0.000000e+00 0.000000e+00
 0.000000e+00 0.000000e+00 8.524408e-01 1.475592e-01 0.000000e+00
 0.000000e+00 0.000000e+00 0.000000e+00 6.644008e-01 3.355993e-01
 0.000000e+00 0.000000e+00 0.000000e+00 0.000000e+00 0.000000e+00
<ENDHMM>
~h "Z"
<BEGINHMM>
<NUMSTATES> 5
<STATE> 2
<MEAN> 39
 -6.039995e+00 -1.478794e+00 8.219561e+00 -2.172988e+00 -5.823595e+00 -1.146518e+01 -8.683225e+00 -6.152045e+00 3.016466e+00 -2.180135e+00 -2.708618e+00 -2.612828e+00 6.663483e+01 -3.274873e+00 1.477045e+00 2.242038e+00 1.276349e+00 7.126256e-01 -1.681919e-01 9.458772e-01 -9.781749e-01 5.369121e-01 -7.890849e-01 2.781629e-01 2.679475e-01 1.436052e-01 -6.131564e-01 -1.270616e-01 8.767670e-02 -6.833767e-02 2.297686e-01 5.507391e-01 3.695835e-01 2.797521e-01 -7.638983e-02 -4.713601e-02 -7.519008e-02 -1.536819e-01 6.776451e-02
<VARIANCE> 39
 5.306235e+01 2.684519e+01 4.652724e+01 4.234184e+01 5.600678e+01 5.936246e+01 6.131504e+01 6.034825e+01 4.623941e+01 4.173278e+01 4.123302e+01 4.030063e+01 4.760176e+01 4.037165e+00 2.860718e+00 2.699402e+00 3.319610e+00 3.825286e+00 6.148016e+00 5.308654e+00 4.090161e+00 3.081414e+00 3.467687e+00 3.074338e+00 3.609851e+00 2.034382e+00 5.804613e-01 4.216542e-01 4.055478e-01 3.632722e-01 5.971084e-01 5.980431e-01 6.631000e-01 5.976998e-01 5.222216e-01 5.233153e-01 4.457339e-01 4.996372e-01 1.352197e-01
<GCONST> 1.279766e+02
<STATE> 3
<MEAN> 39
 -2.129622e+01 8.220345e-01 1.538490e+01 1.532907e+00 -2.152009e+00 -6.700094e+00 -3.680385e+00 -6.511177e+00 3.842003e+00 -5.085033e+00 -2.545460e+00 -2.350535e+00 6.749461e+01 -8.571439e-01 -3.187906e-01 -1.354893e-01 -1.129189e-02 1.657641e-01 2.943894e-01 3.981117e-01 2.855890e-01 2.781622e-01 -8.018465e-02 -4.014878e-02 5.235264e-02 1.105792e-01 1.196677e+00 -2.901638e-01 -6.766509e-01 -3.541371e-01 -3.842432e-01 -3.491794e-01 -4.231940e-01 4.878441e-02 -1.358639e-01 1.522909e-01 3.769584e-02 2.169980e-02 -6.544388e-02
<VARIANCE> 39
 3.831667e+01 3.372629e+01 3.526966e+01 4.465799e+01 5.088769e+01 6.224942e+01 6.929336e+01 5.000315e+01 4.357600e+01 4.194519e+01 3.774255e+01 3.284301e+01 2.595548e+01 7.968816e+00 1.653845e+00 2.945465e+00 2.463898e+00 2.672398e+00 4.135347e+00 3.535823e+00 2.529889e+00 2.621192e+00 2.343985e+00 1.905847e+00 1.788037e+00 1.163072e+00 6.429419e-01 4.159855e-01 3.805115e-01 4.719937e-01 5.001437e-01 7.346274e-01 6.244511e-01 5.349662e-01 5.117288e-01 4.968572e-01 4.368742e-01 4.054894e-01 1.331943e-01
<GCONST> 1.224017e+02
<STATE> 4
<MEAN> 39
 -1.578063e+01 -4.151859e+00 2.690352e+00 -2.637543e+00 -9.117789e-01 -5.096924e+00 -2.317371e-01 6.395826e-02 3.661128e+00 -3.310529e+00 -7.915870e-01 -1.246354e-01 5.538676e+01 7.285813e-01 -4.496879e-02 -4.269823e-01 -1.010178e-01 -1.942309e-01 -1.884545e-01 -1.905575e-01 2.437186e-02 -1.373656e-01 1.092330e-01 4.927786e-02 -3.598348e-03 -2.279675e-01 1.082626e-01 1.429174e-02 5.118268e-02 4.091008e-02 -1.718505e-02 3.719693e-03 -4.063510e-02 -2.511269e-02 -6.894786e-02 1.717595e-02 -9.078133e-03 -3.541371e-02 1.593426e-02
<VARIANCE> 39
 3.821083e+01 2.860252e+01 3.826195e+01 1.923809e+01 3.286319e+01 4.511047e+01 3.450626e+01 3.965631e+01 3.930520e+01 2.876499e+01 2.254729e+01 2.570781e+01 6.533340e+01 3.538203e+00 1.576685e+00 2.055132e+00 1.433962e+00 1.821887e+00 2.726297e+00 2.096289e+00 2.142404e+00 2.405820e+00 2.068799e+00 1.717292e+00 1.532974e+00 1.665407e+00 3.726069e-01 2.558732e-01 2.282085e-01 2.162514e-01 3.050116e-01 4.144277e-01 3.551606e-01 4.088463e-01 4.442933e-01 4.118140e-01 3.016333e-01 2.967850e-01 1.435684e-01
<GCONST> 1.109483e+02
<TRANSP> 5
 0.000000e+00 1.000000e+00 0.000000e+00 0.000000e+00 0.000000e+00
 0.000000e+00 6.587607e-01 3.412393e-01 0.000000e+00 0.000000e+00
 0.000000e+00 0.000000e+00 7.862051e-01 2.137949e-01 0.000000e+00
 0.000000e+00 0.000000e+00 0.000000e+00 8.473325e-01 1.526675e-01
 0.000000e+00 0.000000e+00 0.000000e+00 0.000000e+00 0.000000e+00
<ENDHMM>
~h "a"
<BEGINHMM>
<NUMSTATES> 5
<STATE> 2
<MEAN> 39
 -4.762441e-01 -7.889095e+00 -1.534858e+00 -1.069526e+01 -5.564370e+00 -8.369057e+00 -1.016955e+01 -1.466415e+00 3.798361e+00 2.251007e+00 -3.572627e+00 -7.623903e+00 7.180470e+01 1.234586e+00 -2.831216e+00 -1.259300e+00 -2.062672e+00 -8.937805e-01 -1.128163e-01 -1.717072e-02 1.831791e+00 1.062281e+00 2.646481e-01 -1.509300e+00 -1.324078e+00 2.832336e+00 -4.478412e-01 5.219089e-01 1.958489e-01 5.553597e-01 5.341987e-01 4.119314e-01 5.267195e-01 -1.670611e-01 -3.732612e-01 -4.246114e-01 -1.316561e-02 1.763327e-01 -7.962389e-01
<VARIANCE> 39
 2.795708e+01 3.448348e+01 3.970036e+01 4.610177e+01 6.543312e+01 8.501764e+01 5.778695e+01 4.691153e+01 3.512698e+01 5.053479e+01 8.567747e+01 3.959548e+01 5.101695e+01 3.893469e+00 3.577531e+00 3.171730e+00 5.700137e+00 4.228988e+00 4.562727e+00 4.875918e+00 4.153808e+00 4.746127e+00 4.516458e+00 4.423256e+00 3.433346e+00 4.852717e+00 6.061233e-01 6.653120e-01 3.838183e-01 6.461411e-01 6.350669e-01 6.419098e-01 6.613099e-01 7.006909e-01 6.490126e-01 6.410897e-01 7.199799e-01 5.606556e-01 7.814626e-01
<GCONST> 1.349949e+02
<STATE> 3
<MEAN> 39
 -4.805591e-02 -1.237295e+01 -3.454879e+00 -1.226190e+01 -4.996330e+00 -7.019689e+00 -7.738875e+00 1.643350e+00 4.389392e+00 4.381345e-01 -6.941411e+00 -1.006517e+01 7.598860e+01 -5.499100e-02 -2.156148e-01 -1.968097e-01 1.330180e-01 2.847680e-01 1.597105e-01 5.058025e-01 1.341799e-01 -1.465361e-01 -4.616864e-01 -4.190553e-01 7.033362e-02 4.155409e-02 -1.316953e-01 8.546535e-01 4.783105e-01 5.485713e-01 1.379819e-01 -1.150206e-01 -2.213130e-01 -6.964275e-01 -3.581378e-01 6.318331e-02 4.912991e-01 4.176217e-01 -7.677310e-01
<VARIANCE> 39
 1.893802e+01 2.304882e+01 3.932318e+01 4.284369e+01 6.179132e+01 7.562436e+01 4.390970e+01 3.698905e+01 4.030753e+01 4.993415e+01 8.600320e+01 4.990598e+01 1.629459e+01 4.747264e-01 1.584478e+00 1.876960e+00 1.529394e+00 2.086011e+00 2.799424e+00 2.696758e+00 2.630497e+00 1.887721e+00 2.415072e+00 2.451965e+00 1.877810e+00 7.828483e-01 2.257852e-01 3.463753e-01 2.662807e-01 4.319491e-01 4.489085e-01 4.633393e-01 5.032738e-01 5.029706e-01 5.615768e-01 5.296127e-01 4.435801e-01 3.922642e-01 2.951289e-01
<GCONST> 1.152464e+02
<STATE> 4
<MEAN> 39
 -2.444792e-01 -9.526416e+00 -3.917470e+00 -1.198388e+01 -4.546046e+00 -7.519538e+00 -8.071639e+00 -3.224862e-01 2.054631e+00 -2.135005e+00 -8.535533e+00 -7.005367e+00 7.258405e+01 -9.645385e-02 1.420695e+00 9.610811e-01 1.036309e+00 2.774186e-01 -5.996781e-02 -4.325315e-01 -1.052381e+00 -4.604017e-01 9.998692e-02 5.854401e-01 4.179029e-01 -1.426177e+00 -1.954758e-01 4.295685e-01 2.557445e-01 3.492202e-01 1.637560e-01 1.140361e-01 1.345831e-02 -2.216406e-01 -8.607228e-02 -2.934186e-02 1.491526e-01 3.134597e-02 -4.270586e-01
<VARIANCE> 39
 1.852062e+01 1.994464e+01 4.567927e+01 5.436861e+01 5.774170e+01 1.052715e+02 5.864646e+01 4.590842e+01 4.215895e+01 8.922351e+01 8.489076e+01 5.104231e+01 2.056183e+01 7.662911e-01 2.903766e+00 2.003726e+00 2.645717e+00 2.457132e+00 2.507514e+00 2.669481e+00 3.009352e+00 2.893460e+00 2.667633e+00 2.152126e+00 2.160841e+00 2.400141e+00 1.944623e-01 3.004411e-01 2.686108e-01 3.581175e-01 3.936467e-01 5.477600e-01 5.338323e-01 4.956275e-01 4.620269e-01 4.826572e-01 3.834523e-01 3.250783e-01 2.857825e-01
<GCONST> 1.195924e+02
<TRANSP> 5
 0.000000e+00 1.000000e+00 0.000000e+00 0.000000e+00 0.000000e+00
 0.000000e+00 4.964060e-01 5.035940e-01 0.000000e+00 0.000000e+00
 0.000000e+00 0.000000e+00 6.645726e-01 3.354274e-01 0.000000e+00
 0.000000e+00 0.000000e+00 0.000000e+00 7.152724e-01 2.847275e-01
 0.000000e+00 0.000000e+00 0.000000e+00 0.000000e+00 0.000000e+00
<ENDHMM>
~h "b"
<BEGINHMM>
<NUMSTATES> 5
<STATE> 2
<MEAN> 39
 -4.453120e-01 4.615558e+00 5.448348e+00 2.060093e-01 4.161749e-01 -3.786260e+00 -7.455562e+00 -8.411674e+00 -3.800181e+00 -8.733289e-01 -6.586647e-01 -6.647103e+00 5.565958e+01 6.630884e-01 2.917559e+00 9.917906e-01 1.839104e+00 1.543372e+00 6.919351e-01 3.706909e-01 -1.399235e+00 -1.367762e+00 -5.266968e-01 1.840985e-01 -4.669561e-01 -2.271446e+00 -1.514134e-01 -4.256823e-01 -2.580162e-01 -4.218045e-01 -2.278061e-01 -2.504210e-01 -3.074685e-02 3.657462e-01 3.689970e-01 -8.230416e-02 -1.986848e-01 1.366023e-01 6.732553e-01
<VARIANCE> 39
 4.908784e+01 3.466691e+01 3.132278e+01 4.246283e+01 4.754586e+01 5.502408e+01 6.324482e+01 5.125820e+01 5.310390e+01 3.616331e+01 5.789997e+01 2.557032e+01 5.691276e+01 2.921382e+00 4.410270e+00 2.677889e+00 4.227110e+00 3.634157e+00 4.688934e+00 5.312356e+00 4.043750e+00 5.289873e+00 3.540127e+00 3.093849e+00 3.104455e+00 8.123610e+00 4.124009e-01 6.787031e-01 4.592551e-01 5.278736e-01 4.953506e-01 5.893370e-01 8.280970e-01 7.986034e-01 1.040261e+00 5.942176e-01 6.000097e-01 4.459031e-01 5.677193e-01
<GCONST> 1.326364e+02
<STATE> 3
<MEAN> 39
 1.144661e+00 9.938744e+00 6.020563e+00 1.844708e+00 2.713199e+00 -3.638113e+00 -7.864988e+00 -1.059835e+01 -5.179038e+00 -2.083060e+00 -1.087210e+00 -7.056275e+00 5.340786e+01 -5.977550e-01 -4.388932e-01 -2.456182e-01 -1.079877e-01 1.411901e-01 -5.100796e-01 -5.636027e-02 2.252622e-01 5.864040e-01 -8.420276e-02 -1.567158e-01 4.520863e-01 7.487727e-01 -2.898237e-01 -1.672767e+00 -4.902584e-01 -1.098176e+00 -9.723880e-01 -5.542707e-01 -3.504845e-01 6.257213e-01 7.865559e-01 3.729596e-01 -1.083574e-01 1.119417e-01 1.773711e+00
<VARIANCE> 39
 2.883171e+01 1.523240e+01 1.852938e+01 2.192943e+01 3.946642e+01 4.178241e+01 3.113569e+01 3.491668e+01 3.395319e+01 2.404465e+01 4.802388e+01 1.813289e+01 2.098792e+01 2.068200e+00 4.623437e+00 1.753870e+00 3.221970e+00 2.832736e+00 2.798525e+00 3.422332e+00 3.012840e+00 3.877671e+00 2.523852e+00 2.250313e+00 1.813554e+00 5.292576e+00 4.021087e-01 6.230057e-01 5.811304e-01 8.186010e-01 6.527482e-01 6.386493e-01 7.230481e-01 8.076879e-01 9.406708e-01 6.036614e-01 5.734064e-01 4.969310e-01 7.481328e-01
<GCONST> 1.227821e+02
<STATE> 4
<MEAN> 39
 -2.673429e+00 3.766784e+00 4.859735e+00 5.819193e-01 1.534410e+00 -5.862772e+00 -7.794229e+00 -8.962218e+00 -2.229027e+00 -2.423465e+00 -1.489251e+00 -4.870336e+00 5.988158e+01 -4.563776e-01 -4.025940e+00 -1.515257e+00 -3.107533e+00 -2.558064e+00 -1.591118e+00 -1.439121e+00 1.461553e+00 2.474838e+00 1.116070e+00 -1.351588e-01 1.973521e-01 4.970648e+00 3.837569e-01 -5.713561e-01 -2.587118e-01 -8.861953e-01 -6.519074e-01 1.760556e-01 -3.572370e-02 4.425377e-01 1.709569e-01 1.543431e-01 -1.637700e-01 -3.445261e-01 6.194531e-01
<VARIANCE> 39
 2.559141e+01 2.922581e+01 2.743657e+01 2.747596e+01 3.460891e+01 3.972112e+01 3.451707e+01 3.112791e+01 3.037901e+01 2.428544e+01 3.298847e+01 1.702011e+01 4.325374e+01 2.888490e+00 3.534277e+00 3.815810e+00 5.631350e+00 3.381618e+00 3.881017e+00 4.434681e+00 5.317359e+00 4.994913e+00 3.819816e+00 3.434433e+00 2.853616e+00 3.198143e+00 4.732533e-01 1.005568e+00 5.747802e-01 8.147221e-01 6.578246e-01 6.830165e-01 7.029946e-01 7.208076e-01 9.864632e-01 6.711740e-01 7.231677e-01 6.088241e-01 7.707514e-01
<GCONST> 1.288716e+02
<TRANSP> 5
 0.000000e+00 1.000000e+00 0.000000e+00 0.000000e+00 0.000000e+00
 0.000000e+00 5.482821e-01 4.517179e-01 0.000000e+00 0.000000e+00
 0.000000e+00 0.000000e+00 6.104760e-01 3.895241e-01 0.000000e+00
 0.000000e+00 0.000000e+00 0.000000e+00 2.961651e-01 7.038349e-01
 0.000000e+00 0.000000e+00 0.000000e+00 0.000000e+00 0.000000e+00
<ENDHMM>
~h "d"
<BEGINHMM>
<NUMSTATES> 5
<STATE> 2
<MEAN> 39
 -3.784718e-01 5.687292e+00 7.918369e+00 -1.416379e-01 -3.050189e+00 -7.338705e+00 -8.926728e+00 -8.832728e+00 -4.533953e+00 -2.033164e+00 -3.476071e+00 -5.731169e+00 5.944677e+01 2.046678e-01 2.317137e+00 8.234863e-01 1.599638e+00 1.067671e+00 2.897153e-01 8.707770e-01 -1.247544e-01 5.098116e-01 -5.956610e-01 -7.972959e-01 -4.138232e-01 -2.493272e+00 -3.046357e-01 -6.123547e-01 -3.814279e-01 -7.255589e-01 -7.611586e-03 1.047374e-01 -5.096518e-03 5.063157e-01 2.101639e-01 -1.193731e-01 1.273004e-01 1.468866e-01 6.899804e-01
<VARIANCE> 39
 3.710886e+01 4.524511e+01 4.515493e+01 5.722432e+01 4.987753e+01 6.714664e+01 7.470856e+01 5.991032e+01 5.468422e+01 3.710685e+01 6.286328e+01 3.187957e+01 4.855577e+01 2.741341e+00 3.482956e+00 4.198592e+00 6.189390e+00 4.331094e+00 5.334524e+00 5.601482e+00 5.679528e+00 5.069226e+00 4.028327e+00 3.663082e+00 2.640166e+00 4.221233e+00 4.002177e-01 8.387810e-01 5.987902e-01 1.015299e+00 7.876905e-01 7.405151e-01 1.107331e+00 1.131837e+00 9.774038e-01 6.401234e-01 5.582034e-01 5.159848e-01 9.123830e-01
<GCONST> 1.377159e+02
<STATE> 3
<MEAN> 39
 -1.701828e+00 1.032754e+01 8.007465e+00 1.186523e+00 -9.750753e-01 -6.266769e+00 -6.523095e+00 -6.214263e+00 -2.256686e+00 -4.396757e+00 -5.238153e+00 -5.703979e+00 5.448259e+01 -1.366067e+00 -1.266443e+00 -9.326764e-02 -4.322813e-01 7.533901e-01 1.552993e-02 1.128067e-01 4.372789e-01 3.377200e-01 -2.257498e-01 2.431523e-01 4.620103e-01 1.237427e+00 -3.414621e-01 -1.177497e+00 -1.350264e-01 -7.089946e-01 -5.522287e-01 -5.372888e-01 -6.264015e-01 5.436502e-03 -1.081355e-01 2.489932e-01 3.563874e-01 2.957320e-01 1.528580e+00
<VARIANCE> 39
 3.339819e+01 2.423926e+01 2.890482e+01 2.891755e+01 3.356596e+01 3.685940e+01 2.944192e+01 3.127119e+01 3.156206e+01 1.941477e+01 2.664352e+01 2.046134e+01 2.744920e+01 2.824245e+00 4.754178e+00 3.124237e+00 3.800792e+00 3.286644e+00 4.039125e+00 4.262738e+00 3.685192e+00 3.616714e+00 2.440194e+00 2.789578e+00 2.216699e+00 5.385638e+00 4.967238e-01 6.605300e-01 6.532454e-01 7.239178e-01 8.245485e-01 9.341522e-01 7.638161e-01 7.648304e-01 7.821814e-01 6.187727e-01 5.890371e-01 4.247912e-01 6.265684e-01
<GCONST> 1.259339e+02
<STATE> 4
<MEAN> 39
 -8.388642e+00 3.532739e-01 7.205575e+00 -3.333453e+00 -6.873789e-02 -9.013719e+00 -8.086851e+00 -5.880119e+00 -1.840180e+00 -4.147318e+00 -2.962614e+00 -2.764601e+00 6.622749e+01 -4.330639e-01 -2.406664e+00 -2.738250e-01 -1.661975e+00 -1.749086e+00 -2.083511e+00 -2.073740e+00 3.420075e-01 3.385523e-01 7.540594e-01 5.705789e-01 8.480715e-01 3.727501e+00 9.554270e-01 3.300588e-01 -4.367089e-02 -1.924665e-02 -7.352899e-01 5.400661e-02 -4.322902e-01 -1.130254e-02 -1.005681e-01 3.332089e-01 2.118121e-02 -2.534244e-01 -3.577247e-01
<VARIANCE> 39
 2.626905e+01 3.070125e+01 4.062934e+01 4.089008e+01 5.117353e+01 8.073665e+01 4.871724e+01 3.215240e+01 3.303760e+01 2.314031e+01 3.111309e+01 2.497334e+01 3.062655e+01 3.631117e+00 4.039352e+00 4.122946e+00 4.481463e+00 5.138823e+00 6.262822e+00 5.396769e+00 5.233175e+00 4.989912e+00 3.839602e+00 3.741990e+00 2.881937e+00 3.316770e+00 3.866423e-01 8.609385e-01 7.944844e-01 1.008340e+00 9.819328e-01 1.412732e+00 9.320779e-01 9.213341e-01 8.243635e-01 6.987512e-01 8.520786e-01 5.755278e-01 7.159861e-01
<GCONST> 1.343840e+02
<TRANSP> 5
 0.000000e+00 1.000000e+00 0.000000e+00 0.000000e+00 0.000000e+00
 0.000000e+00 4.750695e-01 5.249305e-01 0.000000e+00 0.000000e+00
 0.000000e+00 0.000000e+00 6.014072e-01 3.985928e-01 0.000000e+00
 0.000000e+00 0.000000e+00 0.000000e+00 4.665154e-01 5.334846e-01
 0.000000e+00 0.000000e+00 0.000000e+00 0.000000e+00 0.000000e+00
<ENDHMM>
~h "e"
<BEGINHMM>
<NUMSTATES> 5
<STATE> 2
<MEAN> 39
 -3.821771e+00 -3.255041e+00 1.041684e+01 -5.170908e+00 -1.152642e+01 -1.627603e+01 -1.178898e+01 -2.180931e+00 -3.638677e+00 -2.109236e+00 -9.550522e-01 -1.909655e+00 7.040280e+01 1.685415e+00 -1.371400e+00 1.778880e+00 -1.068157e+00 -2.492996e+00 -1.257529e+00 -1.329375e+00 7.523279e-01 -1.266488e+00 3.254372e-01 3.234887e-01 -4.534969e-03 1.525687e+00 -7.306340e-01 3.170384e-01 -4.485821e-01 1.599111e-01 7.039218e-01 6.873894e-01 5.600932e-01 -1.122925e-01 1.840599e-01 9.916405e-02 1.444163e-01 1.133863e-02 -5.974835e-01
<VARIANCE> 39
 2.591625e+01 3.335433e+01 5.660357e+01 4.311206e+01 6.782196e+01 5.768298e+01 5.980776e+01 4.217890e+01 5.097310e+01 3.572967e+01 5.047988e+01 2.191161e+01 3.006392e+01 4.121815e+00 2.624562e+00 3.219066e+00 3.355959e+00 3.933035e+00 3.841686e+00 6.219826e+00 4.105703e+00 3.922688e+00 3.463518e+00 3.446671e+00 2.377558e+00 2.594553e+00 6.182058e-01 6.105101e-01 5.466608e-01 5.308223e-01 6.523297e-01 5.538487e-01 7.625086e-01 7.792379e-01 7.692797e-01 5.367591e-01 5.274089e-01 3.959463e-01 3.898713e-01
<GCONST> 1.295027e+02
<STATE> 3
<MEAN> 39
 -3.878740e+00 -3.236134e+00 1.313000e+01 -8.049829e+00 -1.543652e+01 -1.611777e+01 -1.202408e+01 -2.327994e+00 -6.309301e+00 -4.319364e-01 -1.325984e+00 -1.955447e+00 7.078522e+01 -7.106627e-02 5.647997e-01 2.203771e-01 3.222097e-01 2.088812e-01 2.271954e-01 2.193738e-01 -2.949310e-01 -1.744318e-01 -5.363857e-02 4.551036e-02 -1.123709e-01 -6.089555e-01 -2.936158e-01 4.811377e-01 -2.850688e-01 4.512740e-01 7.032373e-01 3.303898e-01 2.305238e-01 -2.362655e-01 3.058518e-01 -2.499855e-01 -1.651764e-01 2.628778e-03 -4.833831e-01
<VARIANCE> 39
 2.117716e+01 3.211380e+01 4.624648e+01 6.082984e+01 5.136608e+01 5.267628e+01 6.013711e+01 5.580768e+01 6.212392e+01 4.340619e+01 6.276074e+01 2.553273e+01 2.139709e+01 5.371050e-01 1.602602e+00 1.668045e+00 2.088214e+00 2.235341e+00 1.924500e+00 2.512247e+00 2.337576e+00 2.383936e+00 2.259068e+00 1.683418e+00 1.269125e+00 1.047988e+00 2.839875e-01 3.639753e-01 3.107540e-01 3.903135e-01 4.852302e-01 4.458620e-01 6.705063e-01 5.357949e-01 5.157382e-01 4.509235e-01 4.163643e-01 3.129618e-01 2.128623e-01
<GCONST> 1.153453e+02
<STATE> 4
<MEAN> 39
 -4.884714e+00 2.937309e-01 1.237869e+01 -2.886647e+00 -9.975017e+00 -1.180079e+01 -6.664425e+00 -3.319505e+00 -4.962452e+00 -2.256560e+00 -3.265077e-02 -2.458005e+00 6.389459e+01 -1.109365e+00 1.259147e+00 -9.625496e-01 1.143435e+00 2.277123e+00 1.512778e+00 1.234231e+00 -4.627190e-01 8.707410e-01 -6.938967e-01 -4.455093e-01 -8.051972e-03 -1.799365e+00 -3.811093e-01 -5.836769e-02 -3.260094e-01 -1.375794e-01 3.321552e-01 2.455585e-01 9.402680e-02 1.022596e-01 2.159244e-01 -1.177103e-02 -8.542868e-02 2.762458e-02 -4.604501e-02
<VARIANCE> 39
 2.646142e+01 3.332156e+01 4.205058e+01 3.904078e+01 6.644888e+01 8.321007e+01 1.040676e+02 5.019563e+01 5.745506e+01 3.424815e+01 4.806598e+01 2.702246e+01 6.131790e+01 2.220409e+00 4.223847e+00 3.623778e+00 3.730598e+00 3.542265e+00 4.333710e+00 5.837489e+00 4.611927e+00 4.135317e+00 3.232814e+00 3.242152e+00 2.332938e+00 2.206136e+00 4.339887e-01 3.986139e-01 4.435624e-01 4.374866e-01 6.178362e-01 7.982416e-01 8.095684e-01 5.989855e-01 5.869237e-01 4.689634e-01 4.594956e-01 3.053969e-01 2.529452e-01
<GCONST> 1.287323e+02
<TRANSP> 5
 0.000000e+00 1.000000e+00 0.000000e+00 0.000000e+00 0.000000e+00
 0.000000e+00 5.589120e-01 4.410880e-01 0.000000e+00 0.000000e+00
 0.000000e+00 0.000000e+00 7.211454e-01 2.788546e-01 0.000000e+00
 0.000000e+00 0.000000e+00 0.000000e+00 4.895780e-01 5.104219e-01
 0.000000e+00 0.000000e+00 0.000000e+00 0.000000e+00 0.000000e+00
<ENDHMM>
~h "f"
<BEGINHMM>
<NUMSTATES> 5
<STATE> 2
<MEAN> 39
 -1.261438e+01 -1.300662e+00 3.573161e+00 5.177425e-01 2.202647e+00 -5.244514e+00 -2.853376e+00 -2.219415e+00 -4.635917e-02 -3.873959e+00 -2.963293e+00 -3.172416e+00 6.434586e+01 -3.974774e+00 -1.194459e+00 -1.305022e+00 1.117961e+00 1.142424e+00 8.482662e-01 1.073393e+00 9.106452e-01 1.157942e+00 5.350188e-02 5.202305e-02 3.589072e-01 -4.554292e-01 2.698670e-01 -5.651707e-01 -4.232833e-01 -8.012106e-01 -7.652487e-01 -3.016606e-01 -3.913766e-01 7.476883e-02 5.595706e-02 3.839959e-01 2.864530e-01 4.690912e-02 3.219368e-01
<VARIANCE> 39
 4.589355e+01 1.844207e+01 3.538655e+01 2.109680e+01 3.996880e+01 3.925949e+01 3.317845e+01 3.582876e+01 3.136862e+01 2.746705e+01 3.232147e+01 3.113793e+01 1.134819e+01 2.290493e+00 2.900176e+00 4.102946e+00 4.970020e+00 4.177209e+00 3.990330e+00 4.950810e+00 3.719791e+00 3.777704e+00 3.480909e+00 4.780352e+00 2.929059e+00 1.001212e+00 7.101250e-01 4.736638e-01 4.567152e-01 5.828890e-01 5.119355e-01 5.737488e-01 6.256250e-01 6.064318e-01 5.779579e-01 5.181783e-01 6.070541e-01 4.745013e-01 1.409269e-01
<GCONST> 1.224097e+02
<STATE> 3
<MEAN> 39
 -2.209300e+01 -8.164442e+00 -3.649039e+00 -2.686097e+00 -1.155808e+00 -5.736021e+00 -2.246628e+00 1.219242e+00 4.244473e+00 5.464016e-01 3.824964e-01 9.246776e-01 6.447948e+01 -3.527605e-01 -5.645487e-01 -5.334871e-01 -4.542479e-01 -3.638374e-01 -2.217374e-01 -2.146777e-02 1.191133e-01 4.406020e-01 5.129877e-01 4.810425e-01 4.099376e-01 -8.282313e-02 7.547016e-01 3.681334e-01 3.685140e-01 -3.002049e-02 4.663821e-02 -3.191284e-02 -1.245558e-01 -1.953787e-01 -2.441277e-01 -1.857112e-01 -1.627744e-01 -2.020952e-01 3.436357e-03
<VARIANCE> 39
 1.231998e+01 1.267579e+01 2.676846e+01 1.701662e+01 2.668001e+01 2.528775e+01 2.413716e+01 2.749614e+01 2.486834e+01 2.218126e+01 2.186903e+01 2.590166e+01 9.735257e+00 1.377193e+00 1.060589e+00 1.771629e+00 1.485807e+00 1.555552e+00 1.611485e+00 1.723252e+00 1.824219e+00 1.976776e+00 2.063504e+00 1.905782e+00 1.715843e+00 3.957449e-01 3.555074e-01 2.205859e-01 2.584459e-01 3.241598e-01 2.908690e-01 3.643911e-01 4.497374e-01 4.154095e-01 4.633470e-01 4.323448e-01 4.285162e-01 3.826315e-01 8.424179e-02
<GCONST> 1.010271e+02
<STATE> 4
<MEAN> 39
 -1.689611e+01 -6.280583e+00 -2.519173e+00 -3.248019e+00 -4.044663e-01 -5.929558e+00 -2.495666e+00 -1.625153e-01 3.576437e+00 -1.597742e-01 -2.260463e-02 -9.195406e-01 6.386991e+01 4.385847e+00 1.363895e+00 8.371804e-01 -9.717052e-01 -5.061569e-01 -2.492651e-01 -1.101635e+00 -1.063418e+00 -1.374212e+00 -6.400052e-01 -7.056195e-01 -1.458719e+00 5.583690e-01 8.725574e-01 -1.180762e-02 -8.499231e-03 -4.595954e-01 -4.012176e-01 1.115442e-01 -4.297327e-01 -1.527373e-01 -3.155629e-01 -3.600346e-02 -1.901825e-02 -2.822141e-01 4.272103e-01
<VARIANCE> 39
 4.787179e+01 2.191200e+01 3.583303e+01 1.890560e+01 3.619231e+01 3.799665e+01 2.806943e+01 3.330000e+01 3.728469e+01 2.511579e+01 2.704912e+01 3.086565e+01 1.127640e+01 4.693376e+00 2.633184e+00 2.944008e+00 3.885106e+00 2.891693e+00 4.170249e+00 4.229510e+00 3.815021e+00 3.620612e+00 3.075004e+00 3.901434e+00 2.844362e+00 1.920699e+00 9.014326e-01 6.808553e-01 4.836354e-01 6.237058e-01 5.496424e-01 5.797969e-01 6.992023e-01 6.990499e-01 7.644454e-01 6.013850e-01 6.447136e-01 5.254388e-01 2.309878e-01
<GCONST> 1.240301e+02
<TRANSP> 5
 0.000000e+00 1.000000e+00 0.000000e+00 0.000000e+00 0.000000e+00
 0.000000e+00 6.795474e-01 3.204525e-01 0.000000e+00 0.000000e+00
 0.000000e+00 0.000000e+00 8.313918e-01 1.686082e-01 0.000000e+00
 0.000000e+00 0.000000e+00 0.000000e+00 6.439303e-01 3.560697e-01
 0.000000e+00 0.000000e+00 0.000000e+00 0.000000e+00 0.000000e+00
<ENDHMM>
~h "g"
<BEGINHMM>
<NUMSTATES> 5
<STATE> 2
<MEAN> 39
 -6.120301e-01 6.898570e+00 8.719978e+00 -9.705020e-02 -4.416581e+00 -9.684901e+00 -7.166608e+00 -5.611754e+00 -8.320415e+00 -3.382892e+00 1.557001e-01 -6.679666e+00 5.835952e+01 -7.778884e-01 8.558582e-01 -5.469158e-02 1.006922e+00 1.616289e+00 8.519435e-01 3.888543e-01 -4.682886e-01 8.563128e-01 -3.617099e-01 -5.966528e-01 1.960284e-01 -1.605252e+00 -3.291621e-01 -1.179721e+00 -4.742652e-01 -8.239897e-01 -9.734486e-02 2.712337e-01 -1.873810e-01 -6.197740e-02 4.058538e-01 2.789597e-01 -9.210193e-02 2.151674e-01 1.222215e+00
<VARIANCE> 39
 2.331295e+01 3.522615e+01 4.257460e+01 4.118562e+01 5.870599e+01 6.704344e+01 5.689639e+01 5.066243e+01 4.566957e+01 3.467094e+01 6.868525e+01 2.643386e+01 3.050856e+01 1.724783e+00 7.435605e+00 6.088160e+00 5.712439e+00 5.436374e+00 7.407948e+00 6.899790e+00 5.481710e+00 5.701660e+00 4.140785e+00 3.563586e+00 2.447202e+00 5.127431e+00 3.511581e-01 7.897152e-01 8.021374e-01 7.122565e-01 8.473538e-01 9.639196e-01 1.051293e+00 1.075999e+00 1.207019e+00 7.969472e-01 6.766505e-01 4.648455e-01 7.879266e-01
<GCONST> 1.374267e+02
<STATE> 3
<MEAN> 39
 -6.305010e+00 3.926609e-01 2.833586e+00 -2.467966e+00 1.396074e+00 -4.333182e+00 -6.878963e+00 -6.711136e+00 -4.699775e+00 -3.391041e+00 -1.110304e+00 -4.130211e+00 6.223441e+01 -1.014834e+00 -1.614738e+00 -4.487728e-03 -1.463024e+00 -8.934577e-01 -2.293101e-01 1.081650e-01 -6.622259e-01 5.474831e-02 3.877488e-01 5.261563e-01 6.592446e-01 2.675354e+00 5.810270e-01 4.931909e-01 7.510508e-01 -2.684392e-01 -1.133613e+00 -5.416911e-01 -1.374533e-01 7.559909e-02 -3.782339e-01 1.193561e-01 1.312831e-01 -1.373749e-01 1.556580e-01
<VARIANCE> 39
 3.147092e+01 4.895268e+01 1.073852e+02 7.019867e+01 5.304873e+01 5.745835e+01 4.730022e+01 3.651028e+01 3.294713e+01 2.629801e+01 5.106066e+01 2.115791e+01 3.615313e+01 4.384672e+00 7.516763e+00 1.008484e+01 6.487890e+00 6.423067e+00 5.147512e+00 5.451465e+00 3.809532e+00 3.829353e+00 3.367938e+00 4.119134e+00 2.981656e+00 2.646409e+00 5.407259e-01 1.419756e+00 1.343273e+00 1.614923e+00 1.116567e+00 1.081395e+00 1.184501e+00 1.179633e+00 9.098236e-01 7.884812e-01 1.043516e+00 6.033064e-01 1.032732e+00
<GCONST> 1.412752e+02
<STATE> 4
<MEAN> 39
 -5.199474e+00 -9.705772e-02 1.008698e+01 -7.528254e+00 -1.093424e+01 -1.104658e+01 -8.252741e+00 -5.684118e+00 -6.329806e+00 -9.817738e-01 8.194306e-01 -3.766319e+00 6.977444e+01 9.764214e-01 -5.905914e-01 2.218931e-01 -1.519575e+00 -1.916799e+00 -7.709580e-01 -7.795532e-03 1.037672e+00 1.686356e-01 4.391802e-01 -2.050172e-01 -2.106554e-01 1.236479e+00 2.384821e-01 -1.512870e-02 -5.460191e-01 2.617665e-01 6.948845e-01 3.496645e-01 1.765338e-01 3.736027e-01 2.762552e-01 -1.992683e-01 -4.720909e-01 -2.416118e-01 -5.559298e-01
<VARIANCE> 39
 2.638238e+01 3.663232e+01 6.614436e+01 7.048088e+01 8.522478e+01 4.903183e+01 4.417614e+01 5.151391e+01 3.910966e+01 4.033051e+01 5.948012e+01 2.770821e+01 2.857038e+01 1.534200e+00 5.956633e+00 6.550519e+00 4.785967e+00 6.171523e+00 3.288818e+00 5.524000e+00 6.345966e+00 5.414024e+00 3.961938e+00 5.076553e+00 2.694634e+00 1.950430e+00 4.944759e-01 6.519567e-01 6.198798e-01 5.958285e-01 7.976456e-01 6.484039e-01 9.299514e-01 7.845351e-01 8.897367e-01 7.383838e-01 9.541017e-01 5.029577e-01 2.169467e-01
<GCONST> 1.339787e+02
<TRANSP> 5
 0.000000e+00 1.000000e+00 0.000000e+00 0.000000e+00 0.000000e+00
 0.000000e+00 6.832994e-01 3.167006e-01 0.000000e+00 0.000000e+00
 0.000000e+00 0.000000e+00 6.391773e-01 3.608227e-01 0.000000e+00
 0.000000e+00 0.000000e+00 0.000000e+00 5.062200e-01 4.937800e-01
 0.000000e+00 0.000000e+00 0.000000e+00 0.000000e+00 0.000000e+00
<ENDHMM>
~h "i"
<BEGINHMM>
<NUMSTATES> 5
<STATE> 2
<MEAN> 39
 -1.126057e+01 4.995093e+00 1.461528e+01 -3.363823e+00 -6.231908e+00 -9.645686e+00 -8.730052e+00 -6.926919e+00 -5.274354e+00 -5.616623e+00 -1.122617e+00 -2.283960e+00 6.513618e+01 2.159134e+00 6.342515e-01 2.864215e+00 -6.578415e-01 -2.235909e+00 -1.151068e+00 -1.936868e+00 -6.883278e-01 -1.998805e+00 -9.637794e-01 6.635530e-02 -4.641820e-01 1.199089e+00 -6.424238e-02 -2.898395e-01 -6.082448e-01 -1.067140e-01 9.851149e-02 2.000844e-01 1.951876e-01 2.942834e-01 2.412625e-01 3.044152e-01 1.369879e-01 2.041337e-02 -2.242185e-01
<VARIANCE> 39
 5.385515e+01 4.584352e+01 5.236703e+01 5.124395e+01 7.144851e+01 5.185953e+01 5.308292e+01 3.919922e+01 4.484977e+01 3.056584e+01 2.861880e+01 2.284507e+01 3.484988e+01 7.006597e+00 3.886151e+00 4.885404e+00 5.529117e+00 5.141701e+00 5.044304e+00 5.416852e+00 4.243907e+00 4.109057e+00 3.877543e+00 3.088341e+00 2.939741e+00 2.178405e+00 7.210698e-01 6.657172e-01 8.299088e-01 6.452308e-01 9.229570e-01 7.187964e-01 9.812327e-01 6.969743e-01 7.601401e-01 6.197415e-01 4.480477e-01 4.155048e-01 4.041534e-01
<GCONST> 1.337543e+02
<STATE> 3
<MEAN> 39
 -7.448943e+00 4.836254e+00 1.806525e+01 -7.353786e+00 -1.171890e+01 -1.064541e+01 -1.280148e+01 -6.677746e+00 -8.600444e+00 -5.721477e+00 -1.047719e+00 -3.620183e+00 6.680694e+01 3.713084e-01 -1.006522e-01 -1.680372e-01 1.688643e-01 -2.273023e-01 -8.501635e-02 5.166530e-02 1.009611e-01 6.019795e-02 3.829895e-02 -7.648788e-02 -4.310058e-02 -2.174785e-01 -1.830359e-01 1.284256e-02 -6.309811e-01 4.066999e-01 5.832267e-01 1.059500e-01 4.534489e-01 3.958695e-02 4.173612e-01 1.094739e-01 -1.554744e-01 8.558252e-02 -3.417347e-01
<VARIANCE> 39
 2.422408e+01 3.654083e+01 4.079549e+01 6.880173e+01 6.480026e+01 6.128167e+01 4.138910e+01 4.339181e+01 4.778085e+01 4.233579e+01 4.447958e+01 2.984490e+01 1.814099e+01 1.355583e+00 2.392057e+00 2.073976e+00 2.711473e+00 2.812657e+00 2.379597e+00 2.821472e+00 2.662045e+00 2.378939e+00 2.314508e+00 1.698767e+00 1.562613e+00 1.088224e+00 3.836378e-01 3.995032e-01 4.973265e-01 5.276014e-01 7.426204e-01 6.447047e-01 6.201490e-01 5.881270e-01 5.479783e-01 5.284092e-01 3.955645e-01 3.558255e-01 2.306952e-01
<GCONST> 1.198463e+02
<STATE> 4
<MEAN> 39
 -6.478814e+00 4.288101e+00 1.414793e+01 -2.358624e+00 -7.817548e+00 -1.015391e+01 -8.624401e+00 -6.080981e+00 -5.598128e+00 -5.973949e+00 -1.580157e+00 -2.270286e+00 6.297080e+01 -9.334732e-02 3.227327e-01 -2.083933e+00 1.116880e+00 2.205910e+00 4.684610e-01 1.286391e+00 1.734430e-01 1.319013e+00 2.929508e-01 -7.888615e-01 -7.981569e-02 -1.498465e+00 -2.911411e-01 1.215485e-02 -2.890476e-01 -5.155992e-02 4.211563e-01 3.918509e-01 9.275112e-02 -2.558557e-02 1.750385e-01 1.220655e-01 -5.746010e-02 -1.287990e-01 -1.805030e-01
<VARIANCE> 39
 3.758588e+01 4.437553e+01 4.741580e+01 4.653143e+01 7.557934e+01 5.589685e+01 6.119107e+01 5.073385e+01 4.412671e+01 3.284241e+01 3.630934e+01 2.749371e+01 4.881276e+01 2.507824e+00 3.687162e+00 2.501161e+00 3.770887e+00 4.712798e+00 4.304514e+00 4.200821e+00 4.033691e+00 3.719581e+00 3.237117e+00 2.883636e+00 2.569532e+00 3.161928e+00 3.157922e-01 5.278732e-01 5.247287e-01 5.226243e-01 8.897913e-01 7.065914e-01 7.356369e-01 6.730103e-01 5.741540e-01 4.878749e-01 4.990657e-01 3.336191e-01 3.179366e-01
<GCONST> 1.287446e+02
<TRANSP> 5
 0.000000e+00 1.000000e+00 0.000000e+00 0.000000e+00 0.000000e+00
 0.000000e+00 5.194662e-01 4.805337e-01 0.000000e+00 0.000000e+00
 0.000000e+00 0.000000e+00 7.442052e-01 2.557948e-01 0.000000e+00
 0.000000e+00 0.000000e+00 0.000000e+00 5.232624e-01 4.767376e-01
 0.000000e+00 0.000000e+00 0.000000e+00 0.000000e+00 0.000000e+00
<ENDHMM>
~h "j"
<BEGINHMM>
<NUMSTATES> 5
<STATE> 2
<MEAN> 39
 -9.456003e+00 2.883831e+00 1.663059e+01 -5.382460e+00 -8.888726e+00 -1.035470e+01 -9.039863e+00 -5.686145e+00 -5.637318e+00 -4.611063e+00 -4.645813e-01 -2.014554e+00 6.725014e+01 5.839047e-01 2.516429e-02 1.327553e+00 -1.118009e+00 -1.431780e+00 -4.244677e-01 -1.052702e+00 -4.242915e-02 -7.473115e-01 -1.854025e-01 2.907702e-01 2.053992e-02 9.494758e-01 2.041273e-01 -2.115529e-01 -7.144915e-01 -2.329908e-02 2.532067e-01 1.184801e-01 2.173268e-02 2.772183e-01 1.938711e-01 2.516723e-01 9.804203e-03 -1.309071e-01 -1.424593e-01
<VARIANCE> 39
 4.983496e+01 3.692782e+01 4.540167e+01 6.178112e+01 8.104124e+01 6.083583e+01 4.427826e+01 4.268127e+01 3.705901e+01 2.810770e+01 3.467587e+01 2.405423e+01 2.822614e+01 7.865006e+00 4.644059e+00 5.208531e+00 3.614721e+00 6.532798e+00 5.137709e+00 4.282102e+00 4.668494e+00 3.709392e+00 2.885819e+00 2.393285e+00 2.240584e+00 3.239631e+00 8.330355e-01 6.056103e-01 6.167218e-01 6.184074e-01 1.106395e+00 9.645932e-01 8.237898e-01 7.930949e-01 6.152509e-01 5.330290e-01 4.455355e-01 4.306789e-01 3.168746e-01
<GCONST> 1.325404e+02
<STATE> 3
<MEAN> 39
 -6.615296e+00 3.137082e+00 1.677367e+01 -8.776198e+00 -1.285353e+01 -1.170964e+01 -1.138936e+01 -4.887254e+00 -8.297939e+00 -2.621953e+00 -1.193769e+00 -2.976813e+00 6.697350e+01 4.144330e-01 -8.341649e-01 -8.565855e-01 6.733787e-03 -4.153180e-01 8.661654e-02 4.662629e-01 7.346658e-01 3.214313e-01 8.332170e-02 -1.201359e-01 -5.269456e-02 1.991468e-01 -9.010135e-04 -2.255942e-01 -4.165747e-01 1.546137e-01 2.225718e-01 1.164921e-01 2.181509e-01 1.731513e-01 2.714865e-01 -5.497881e-02 -1.531125e-01 -3.012900e-02 -3.123616e-02
<VARIANCE> 39
 2.533718e+01 3.834419e+01 4.101183e+01 7.188499e+01 6.499480e+01 6.158722e+01 4.326449e+01 5.495187e+01 5.298644e+01 3.540969e+01 3.815995e+01 2.965819e+01 3.257734e+01 9.593567e-01 3.014454e+00 2.446496e+00 1.809370e+00 3.385367e+00 2.303152e+00 3.153231e+00 3.406366e+00 2.535340e+00 2.194680e+00 1.755391e+00 1.554929e+00 1.303996e+00 2.099129e-01 3.718013e-01 3.071949e-01 3.283482e-01 7.651408e-01 4.124958e-01 4.767717e-01 5.279928e-01 4.099007e-01 3.876829e-01 3.466284e-01 3.301935e-01 1.629435e-01
<GCONST> 1.174307e+02
<STATE> 4
<MEAN> 39
 -1.042398e+01 -3.407678e+00 4.296718e+00 -4.339622e+00 -4.463261e+00 -6.413883e+00 -1.705226e+00 8.759465e-01 8.215435e-01 -3.412163e+00 3.974641e-02 -1.377090e+00 5.783934e+01 1.651887e-01 -4.706411e-01 -7.226062e-01 1.473342e-01 2.677676e-01 2.010058e-01 1.221246e-01 3.233439e-01 3.729661e-01 -5.539079e-02 -3.015700e-01 -2.115427e-01 -6.691756e-02 -2.038085e-02 1.331542e-01 2.721040e-02 3.801418e-02 1.613346e-01 -2.664442e-02 -7.786945e-02 -1.776829e-01 -2.934460e-02 1.673315e-02 -4.381951e-02 -2.927903e-02 -6.174366e-02
<VARIANCE> 39
 5.274902e+01 2.506436e+01 5.135725e+01 3.485860e+01 8.265231e+01 4.580780e+01 5.741218e+01 3.433469e+01 4.782541e+01 2.901217e+01 3.021140e+01 2.650501e+01 1.052623e+02 5.688749e-01 1.366353e+00 2.480951e+00 1.486610e+00 2.315971e+00 1.897748e+00 2.042357e+00 2.057266e+00 2.406470e+00 1.958770e+00 1.937491e+00 1.784821e+00 6.994029e-01 1.196153e-01 2.056492e-01 1.907426e-01 2.421124e-01 4.376370e-01 3.691703e-01 4.487286e-01 4.540778e-01 3.725446e-01 3.482057e-01 3.170626e-01 2.971619e-01 1.162562e-01
<GCONST> 1.104095e+02
<TRANSP> 5
 0.000000e+00 1.000000e+00 0.000000e+00 0.000000e+00 0.000000e+00
 0.000000e+00 6.308739e-01 3.691261e-01 0.000000e+00 0.000000e+00
 0.000000e+00 0.000000e+00 7.619281e-01 2.380719e-01 0.000000e+00
 0.000000e+00 0.000000e+00 0.000000e+00 7.283754e-01 2.716246e-01
 0.000000e+00 0.000000e+00 0.000000e+00 0.000000e+00 0.000000e+00
<ENDHMM>
~h "k"
<BEGINHMM>
<NUMSTATES> 5
<STATE> 2
<MEAN> 39
 -7.220356e+00 3.805346e+00 8.011302e+00 9.943147e-01 -8.918329e-01 -7.314578e+00 -4.947315e+00 -4.163036e+00 -5.672365e+00 -2.460808e+00 -1.006856e+00 -4.394456e+00 5.580130e+01 -1.692677e+00 9.769919e-01 -5.623091e-01 1.328272e+00 2.165989e+00 2.139664e+00 1.611036e+00 -1.367508e-01 9.394091e-01 -6.158838e-01 -5.284396e-01 1.199211e-01 -3.649906e+00 -9.187740e-02 -1.024595e+00 -7.982598e-01 -7.719193e-01 -2.679739e-01 1.656169e-01 -5.903609e-02 4.934936e-01 4.598114e-01 1.433255e-01 5.767561e-02 4.845583e-02 8.464736e-01
<VARIANCE> 39
 3.458232e+01 3.157878e+01 6.506736e+01 4.411469e+01 8.317527e+01 7.293866e+01 6.920821e+01 7.145488e+01 8.006526e+01 4.696144e+01 5.531676e+01 3.261805e+01 6.441399e+01 2.272532e+00 5.499331e+00 6.331149e+00 4.848982e+00 5.759815e+00 6.184766e+00 5.764197e+00 6.052278e+00 6.425882e+00 3.931642e+00 5.877467e+00 3.237182e+00 5.122168e+00 4.232480e-01 9.350784e-01 8.887669e-01 8.387814e-01 1.156402e+00 1.193364e+00 1.122784e+00 1.120218e+00 1.328194e+00 8.485600e-01 8.714239e-01 6.160573e-01 1.654941e+00
<GCONST> 1.439632e+02
<STATE> 3
<MEAN> 39
 -1.260593e+01 1.832854e+00 1.746220e+00 3.535950e-01 2.891390e+00 -6.904041e-02 5.269417e-01 -1.283577e+00 -7.668525e-01 -2.418160e+00 -2.253107e+00 -3.416798e+00 4.875230e+01 -9.126703e-01 -2.401554e+00 -2.147456e+00 -1.850698e+00 -2.878128e-01 -3.215909e-02 -3.482534e-01 5.692712e-01 9.779482e-01 1.033864e+00 6.943564e-01 7.803693e-01 1.926864e+00 2.269978e-01 -3.528972e-01 5.600785e-02 -7.075366e-01 -7.050605e-01 -9.574581e-01 -8.103147e-01 -2.920603e-01 -2.094905e-01 3.098799e-01 2.855457e-01 1.605307e-01 1.678345e+00
<VARIANCE> 39
 1.241602e+01 2.224197e+01 3.577324e+01 2.235762e+01 3.071636e+01 2.587145e+01 2.795085e+01 2.703068e+01 3.042160e+01 2.466810e+01 2.620084e+01 2.183060e+01 3.170527e+01 2.597711e+00 4.246959e+00 6.849232e+00 5.156848e+00 5.183530e+00 5.816513e+00 5.755010e+00 4.163985e+00 4.916147e+00 3.732228e+00 3.339768e+00 2.853802e+00 9.282709e+00 4.288096e-01 8.537800e-01 9.766045e-01 6.767572e-01 7.434385e-01 7.540766e-01 7.556174e-01 6.720408e-01 8.284080e-01 7.122917e-01 7.976331e-01 5.081888e-01 8.730637e-01
<GCONST> 1.294129e+02
<STATE> 4
<MEAN> 39
 -1.514466e+01 -5.517602e+00 -2.389627e+00 -8.826714e+00 -1.129282e+00 -5.769241e+00 -5.775231e+00 -2.529588e+00 4.067284e-01 1.545401e+00 1.674252e+00 -2.882169e-01 6.398516e+01 5.470625e-01 1.814561e-01 7.031430e-01 -7.859824e-01 -1.116049e+00 -1.418964e+00 -1.022451e+00 -4.135172e-01 -2.927011e-01 2.147743e-01 3.211396e-01 -3.831325e-03 2.454026e+00 7.248108e-01 7.671414e-01 9.037207e-01 6.460836e-01 -1.549095e-01 7.737836e-02 1.131498e-01 -2.723577e-02 -3.966298e-01 -4.381365e-01 -2.638330e-01 -3.936023e-01 -6.683561e-01
<VARIANCE> 39
 5.741085e+01 3.967228e+01 1.060364e+02 5.357544e+01 6.472068e+01 6.099733e+01 5.164813e+01 4.076311e+01 5.061317e+01 3.414040e+01 3.402452e+01 3.153378e+01 2.711376e+01 6.075754e+00 5.234817e+00 7.846814e+00 6.761487e+00 5.547738e+00 4.630951e+00 5.447573e+00 4.364494e+00 4.850320e+00 4.223714e+00 3.815922e+00 3.122637e+00 7.162384e+00 7.571601e-01 1.122833e+00 1.371022e+00 1.135167e+00 1.129035e+00 8.755359e-01 1.121281e+00 8.904002e-01 9.654436e-01 8.575621e-01 7.048343e-01 6.033717e-01 8.533918e-01
<GCONST> 1.420957e+02
<TRANSP> 5
 0.000000e+00 1.000000e+00 0.000000e+00 0.000000e+00 0.000000e+00
 0.000000e+00 6.268066e-01 3.731935e-01 0.000000e+00 0.000000e+00
 0.000000e+00 0.000000e+00 6.442076e-01 3.557924e-01 0.000000e+00
 0.000000e+00 0.000000e+00 0.000000e+00 7.255477e-01 2.744524e-01
 0.000000e+00 0.000000e+00 0.000000e+00 0.000000e+00 0.000000e+00
<ENDHMM>
~h "l"
<BEGINHMM>
<NUMSTATES> 5
<STATE> 2
<MEAN> 39
 -3.914788e+00 -2.768991e+00 7.363576e+00 1.302975e-01 -6.014196e+00 -1.037553e+01 -1.086855e+01 -5.403778e+00 -8.167270e-02 -1.709820e+00 -3.529630e+00 -3.042447e+00 6.313769e+01 7.004834e-01 9.311844e-01 1.196030e+00 1.243266e+00 2.961204e-01 -1.144303e+00 -1.540137e+00 -9.973626e-01 -3.781370e-01 -7.569079e-01 -5.160464e-01 1.199238e-01 -7.255450e-02 5.633454e-02 -1.434482e-01 -1.867437e-01 -5.209491e-01 -6.390919e-02 4.940203e-02 8.767744e-02 3.963517e-01 -4.203748e-02 -1.554409e-02 1.295258e-01 -1.360301e-02 2.634813e-01
<VARIANCE> 39
 5.427517e+01 4.110315e+01 5.910307e+01 5.217940e+01 7.048878e+01 7.898264e+01 9.118874e+01 6.369370e+01 4.671378e+01 4.873101e+01 4.489695e+01 3.393869e+01 7.207445e+01 3.290559e+00 3.193484e+00 3.136829e+00 5.290223e+00 5.017539e+00 6.280495e+00 6.987170e+00 4.964965e+00 4.620698e+00 3.707144e+00 3.688428e+00 3.045494e+00 4.895137e+00 3.794789e-01 6.251014e-01 6.299190e-01 7.497009e-01 9.666253e-01 1.034665e+00 1.116856e+00 8.589010e-01 7.644209e-01 7.236039e-01 6.051077e-01 5.183996e-01 4.746589e-01
<GCONST> 1.383288e+02
<STATE> 3
<MEAN> 39
 -1.631094e+00 -1.000065e+00 9.996333e+00 -2.138753e-02 -6.051139e+00 -1.458032e+01 -1.664246e+01 -6.203802e+00 -1.343900e+00 -4.529225e+00 -4.523114e+00 -2.413002e+00 6.516010e+01 2.510526e-01 -7.710598e-02 1.465409e-01 -2.762125e-01 -4.856725e-02 -2.465198e-01 -3.363131e-01 2.882616e-01 -4.422953e-02 -5.132636e-02 3.518353e-02 2.155793e-01 2.829200e-01 -1.093447e-01 -6.005062e-01 -4.841512e-01 -7.620944e-01 -5.024027e-01 3.878025e-01 7.375324e-01 5.502612e-01 1.708192e-02 4.613806e-01 2.103299e-01 -1.111503e-01 4.884893e-01
<VARIANCE> 39
 2.601876e+01 3.480910e+01 5.646752e+01 6.622452e+01 6.684535e+01 9.667281e+01 8.512791e+01 5.568901e+01 3.963579e+01 4.919207e+01 4.712991e+01 4.288875e+01 2.003555e+01 1.601067e+00 2.397122e+00 3.029130e+00 3.313169e+00 3.899510e+00 3.748363e+00 4.945964e+00 3.830914e+00 3.505069e+00 3.087297e+00 2.475858e+00 2.164473e+00 2.132490e+00 2.815159e-01 4.738109e-01 4.926650e-01 8.901678e-01 8.997205e-01 1.277258e+00 1.333285e+00 1.022198e+00 8.220879e-01 7.792907e-01 7.813566e-01 6.177301e-01 2.981287e-01
<GCONST> 1.314532e+02
<STATE> 4
<MEAN> 39
 -1.861333e+00 -1.872093e+00 8.778468e+00 -1.488539e+00 -7.015824e+00 -1.269184e+01 -1.333203e+01 -3.911754e+00 -5.146709e-01 -3.305619e+00 -4.815634e+00 -2.153983e+00 6.521724e+01 -6.256124e-02 -8.305007e-01 -7.431093e-01 -9.978769e-01 -5.155909e-01 6.087646e-01 1.128921e+00 1.009607e+00 1.201348e-01 5.302312e-01 1.544892e-01 -1.703442e-01 6.391489e-01 -1.147210e-01 -8.553924e-02 -2.485038e-01 -2.568313e-01 -2.896411e-02 2.461060e-01 3.128511e-01 1.433633e-01 -1.450674e-02 9.064413e-02 5.275705e-02 -8.018348e-02 3.152432e-02
<VARIANCE> 39
 2.480140e+01 3.856451e+01 5.119509e+01 6.036422e+01 6.724603e+01 8.240744e+01 9.185168e+01 5.522109e+01 4.958149e+01 4.622112e+01 4.820475e+01 3.629213e+01 3.149624e+01 1.432845e+00 3.073611e+00 3.367397e+00 4.218721e+00 5.535861e+00 5.023746e+00 6.293565e+00 4.979342e+00 3.991017e+00 4.115801e+00 3.385452e+00 2.763429e+00 2.786749e+00 2.175820e-01 3.866618e-01 4.036443e-01 7.401140e-01 6.996007e-01 7.548898e-01 1.019291e+00 7.466898e-01 6.477342e-01 6.184214e-01 4.800922e-01 4.113269e-01 2.511756e-01
<GCONST> 1.308346e+02
<TRANSP> 5
 0.000000e+00 1.000000e+00 0.000000e+00 0.000000e+00 0.000000e+00
 0.000000e+00 3.860589e-01 6.139411e-01 0.000000e+00 0.000000e+00
 0.000000e+00 0.000000e+00 4.269765e-01 5.730234e-01 0.000000e+00
 0.000000e+00 0.000000e+00 0.000000e+00 4.260032e-01 5.739968e-01
 0.000000e+00 0.000000e+00 0.000000e+00 0.000000e+00 0.000000e+00
<ENDHMM>
~h "m"
<BEGINHMM>
<NUMSTATES> 5
<STATE> 2
<MEAN> 39
 1.737599e+00 -1.594177e+00 4.092388e+00 9.458996e-02 -2.749045e+00 -8.419717e+00 -7.896447e+00 -1.126116e+01 -8.251807e+00 -2.632998e+00 7.250160e-02 -6.380077e+00 6.468224e+01 1.643253e-01 8.418301e-01 1.151748e+00 2.178249e+00 9.481921e-01 -6.321875e-01 7.035051e-01 -2.372677e+00 -2.181337e+00 1.634016e-01 7.964913e-01 -1.721387e-01 -8.757185e-01 -1.651694e-01 -3.490925e-01 -8.785366e-02 -5.951092e-01 -3.329768e-01 7.170776e-02 -2.717501e-01 6.058784e-01 5.407250e-01 4.922375e-02 -2.131979e-01 1.357480e-01 4.424221e-01
<VARIANCE> 39
 2.708842e+01 3.522471e+01 3.476956e+01 7.217594e+01 5.621969e+01 6.204000e+01 5.512506e+01 6.538113e+01 6.777436e+01 4.380090e+01 9.458757e+01 3.620360e+01 3.005084e+01 9.515334e-01 2.116581e+00 2.896662e+00 4.520947e+00 3.669585e+00 3.568721e+00 5.050589e+00 3.962222e+00 5.101192e+00 3.863952e+00 4.033079e+00 3.501071e+00 1.872131e+00 1.721817e-01 3.293506e-01 4.867420e-01 7.053314e-01 6.810520e-01 6.056526e-01 6.775023e-01 7.790810e-01 1.057301e+00 6.647512e-01 7.165862e-01 5.568985e-01 1.825195e-01
<GCONST> 1.289114e+02
<STATE> 3
<MEAN> 39
 1.622877e+00 -2.193279e+00 6.535345e+00 3.468903e+00 -2.039382e+00 -9.428389e+00 -8.177298e+00 -1.337420e+01 -1.020271e+01 -1.228111e+00 4.034803e-01 -6.542995e+00 6.476569e+01 -4.975125e-02 -3.064228e-01 -4.721138e-01 -8.640537e-01 -3.080648e-01 5.080945e-01 2.678439e-02 8.882439e-01 7.905728e-01 -3.960683e-01 -3.805278e-01 2.414760e-01 3.987277e-01 -5.047721e-02 -1.423619e-01 -4.064858e-01 -7.772744e-01 -3.191575e-01 2.844185e-01 -1.388573e-02 8.377629e-01 6.134608e-01 -1.864937e-01 -2.511001e-01 5.355786e-02 2.466754e-01
<VARIANCE> 39
 1.788636e+01 3.441909e+01 2.589358e+01 7.580098e+01 4.919733e+01 5.408356e+01 5.430724e+01 6.451826e+01 5.771656e+01 5.370356e+01 7.903611e+01 4.244643e+01 2.448216e+01 4.005651e-01 1.235945e+00 1.978456e+00 3.618874e+00 2.214353e+00 2.082149e+00 2.486030e+00 4.153592e+00 3.628231e+00 2.386810e+00 2.257534e+00 2.394672e+00 8.470680e-01 9.790759e-02 1.891570e-01 3.919035e-01 5.155436e-01 4.383043e-01 3.533798e-01 5.254379e-01 6.121969e-01 7.031592e-01 4.693528e-01 5.213810e-01 5.655313e-01 1.016482e-01
<GCONST> 1.166902e+02
<STATE> 4
<MEAN> 39
 1.042117e+00 -2.657913e+00 1.658150e+00 -5.360109e+00 -5.276436e+00 -4.964324e+00 -6.482562e+00 -4.397995e+00 -1.302728e+00 -5.066113e+00 -3.260014e+00 -5.149922e+00 6.639497e+01 -2.524320e-01 -3.346471e-01 -6.258773e-01 -1.516011e+00 -6.196418e-01 8.016958e-01 1.742536e-01 1.917564e+00 1.120966e+00 -3.432332e-01 -4.156355e-01 1.408397e-01 3.597446e-01 -1.294526e-01 5.418741e-02 2.052218e-01 2.096196e-01 1.638902e-01 -5.320080e-03 -5.319057e-02 -1.561041e-01 -2.753547e-01 1.213920e-01 1.241061e-01 -3.036879e-02 -1.514689e-01
<VARIANCE> 39
 1.499214e+01 3.888310e+01 3.516172e+01 8.398183e+01 6.543083e+01 5.946620e+01 4.995396e+01 7.515180e+01 7.149220e+01 4.291606e+01 7.041940e+01 4.158125e+01 2.959413e+01 6.539736e-01 1.917327e+00 3.236973e+00 5.263501e+00 3.445631e+00 2.541945e+00 3.375247e+00 5.522371e+00 5.171535e+00 3.250184e+00 3.301430e+00 3.014944e+00 1.526695e+00 1.093084e-01 1.963404e-01 2.752680e-01 4.856591e-01 4.237647e-01 3.507690e-01 4.484070e-01 5.629962e-01 5.505736e-01 4.432828e-01 4.082462e-01 3.358782e-01 1.128644e-01
<GCONST> 1.209160e+02
<TRANSP> 5
 0.000000e+00 1.000000e+00 0.000000e+00 0.000000e+00 0.000000e+00
 0.000000e+00 6.346377e-01 3.653623e-01 0.000000e+00 0.000000e+00
 0.000000e+00 0.000000e+00 7.259861e-01 2.740140e-01 0.000000e+00
 0.000000e+00 0.000000e+00 0.000000e+00 5.873568e-01 4.126433e-01
 0.000000e+00 0.000000e+00 0.000000e+00 0.000000e+00 0.000000e+00
<ENDHMM>
~h "n"
<BEGINHMM>
<NUMSTATES> 5
<STATE> 2
<MEAN> 39
 4.117343e-01 4.807335e-01 6.559403e+00 8.184554e-01 -4.135767e+00 -1.063182e+01 -4.523469e+00 -7.643966e+00 -8.816262e+00 -1.866019e+00 -2.621653e+00 -4.636141e+00 6.403149e+01 8.132885e-01 7.740252e-01 5.231740e-01 1.624319e+00 7.978060e-02 -4.001958e-01 1.429421e+00 -2.190759e+00 -1.309656e+00 5.349811e-01 -3.482630e-01 -1.616361e-01 -8.057969e-01 -1.667863e-01 -3.757515e-01 -2.676553e-02 -5.147911e-01 -3.708143e-01 2.566835e-01 -3.831874e-01 4.108179e-01 5.794529e-01 -6.331062e-02 1.955399e-02 7.979099e-02 3.919119e-01
<VARIANCE> 39
 3.061866e+01 2.710164e+01 3.463263e+01 5.810357e+01 6.491858e+01 4.901448e+01 6.039698e+01 7.234886e+01 5.897316e+01 4.013652e+01 6.019173e+01 4.275019e+01 3.766894e+01 1.384670e+00 2.624282e+00 3.524940e+00 3.964729e+00 6.155494e+00 4.843157e+00 5.268104e+00 5.673797e+00 5.912276e+00 3.772946e+00 3.281350e+00 2.646419e+00 2.291388e+00 2.166784e-01 3.532524e-01 5.441779e-01 7.651083e-01 8.972142e-01 7.408034e-01 8.178009e-01 1.011100e+00 9.026346e-01 6.671663e-01 4.448065e-01 4.889994e-01 2.039497e-01
<GCONST> 1.308525e+02
<STATE> 3
<MEAN> 39
 9.059525e-01 6.349164e-01 7.485807e+00 1.658154e-01 -7.469002e+00 -1.149133e+01 -4.310783e+00 -1.080866e+01 -6.760671e+00 -1.831713e+00 -6.303016e+00 -3.770633e+00 6.457053e+01 -2.390996e-01 -9.128261e-02 -9.423553e-02 -5.296937e-01 3.811997e-02 1.670700e-01 -5.189946e-01 6.417189e-01 6.133211e-01 -3.996518e-01 6.784500e-02 7.869003e-02 3.549035e-01 -2.223374e-01 -1.180831e-01 -2.224681e-01 -4.949949e-01 1.171099e-01 1.475954e-01 -3.588897e-01 6.914446e-01 2.175431e-01 -1.930228e-01 2.173960e-01 -3.425439e-02 2.127484e-01
<VARIANCE> 39
 1.860433e+01 3.032456e+01 2.935745e+01 9.032067e+01 5.964246e+01 3.997275e+01 5.924818e+01 5.656477e+01 6.395832e+01 4.636486e+01 8.289850e+01 4.542587e+01 2.274123e+01 6.574718e-01 1.747685e+00 2.332429e+00 2.731471e+00 2.744911e+00 2.823516e+00 3.109673e+00 4.709760e+00 3.864549e+00 2.454039e+00 2.191312e+00 2.195653e+00 1.004122e+00 1.768732e-01 3.414864e-01 5.654594e-01 6.271552e-01 6.705503e-01 6.455938e-01 7.060074e-01 8.690560e-01 8.557829e-01 5.706324e-01 4.784148e-01 4.875848e-01 1.756661e-01
<GCONST> 1.226084e+02
<STATE> 4
<MEAN> 39
 -9.780480e-01 6.442500e-03 6.706109e+00 -2.562646e+00 -5.420894e+00 -8.615084e+00 -4.341646e+00 -3.744273e+00 -4.077479e+00 -3.738815e+00 -3.839431e+00 -4.210339e+00 6.374199e+01 -3.843560e-01 -1.736061e-01 -2.639807e-01 -7.167126e-01 -6.356471e-03 5.730220e-01 -4.677625e-01 9.548651e-01 5.803615e-01 -3.551145e-01 2.050661e-01 -6.589974e-02 1.679439e-01 -7.727421e-02 -8.782541e-03 1.946248e-02 -1.859573e-03 4.568556e-03 5.148649e-02 3.642231e-02 -3.967298e-02 -3.638784e-02 7.319284e-02 5.314339e-03 -1.786476e-02 -4.607293e-02
<VARIANCE> 39
 2.595403e+01 4.222512e+01 3.707184e+01 6.192316e+01 6.177121e+01 4.953525e+01 6.758652e+01 6.717193e+01 5.410917e+01 4.187434e+01 6.085826e+01 3.340469e+01 5.041811e+01 6.926908e-01 1.840793e+00 2.850609e+00 3.221526e+00 3.127602e+00 2.891340e+00 3.470422e+00 4.164294e+00 3.722573e+00 2.333489e+00 2.008134e+00 2.187827e+00 1.140455e+00 1.986957e-01 2.572513e-01 3.478582e-01 3.248517e-01 4.886852e-01 4.381713e-01 4.392283e-01 6.040976e-01 5.105676e-01 4.199466e-01 3.279287e-01 3.095626e-01 1.261058e-01
<GCONST> 1.193119e+02
<TRANSP> 5
 0.000000e+00 1.000000e+00 0.000000e+00 0.000000e+00 0.000000e+00
 0.000000e+00 5.750008e-01 4.249992e-01 0.000000e+00 0.000000e+00
 0.000000e+00 0.000000e+00 6.778139e-01 3.221860e-01 0.000000e+00
 0.000000e+00 0.000000e+00 0.000000e+00 5.820703e-01 4.179297e-01
 0.000000e+00 0.000000e+00 0.000000e+00 0.000000e+00 0.000000e+00
<ENDHMM>
~h "o"
<BEGINHMM>
<NUMSTATES> 5
<STATE> 2
<MEAN> 39
 -2.100068e+00 9.184021e-01 -4.792055e-01 -9.856711e+00 -3.978092e+00 -4.734627e+00 -1.150888e+01 -9.381527e+00 -2.260533e+00 2.113546e-01 8.296682e-01 -3.913767e+00 6.448701e+01 3.314172e+00 4.603268e-01 -3.637007e-02 -2.720494e+00 -2.547487e+00 1.326980e+00 -1.629284e+00 -1.983511e+00 -1.723269e+00 1.440295e-01 8.484006e-01 -3.807927e-01 1.556143e+00 -4.307932e-01 -7.267363e-02 -4.654419e-02 -2.191353e-01 9.202312e-02 4.203224e-01 4.610792e-01 4.491703e-01 -1.324282e-02 -1.211701e-01 5.942276e-02 2.320497e-01 -2.682224e-01
<VARIANCE> 39
 4.587935e+01 3.464068e+01 3.523016e+01 7.645531e+01 6.599741e+01 1.210290e+02 9.402222e+01 5.162714e+01 4.176120e+01 5.334848e+01 7.089046e+01 3.411549e+01 8.398119e+01 5.375398e+00 3.686223e+00 3.967577e+00 6.849999e+00 5.056681e+00 5.751726e+00 6.130970e+00 5.845946e+00 5.407647e+00 5.898320e+00 5.499475e+00 4.002175e+00 3.950668e+00 9.908403e-01 6.962643e-01 4.068476e-01 1.037313e+00 8.460869e-01 9.367998e-01 1.267861e+00 8.300828e-01 7.493666e-01 8.736753e-01 7.605856e-01 6.369941e-01 8.260892e-01
<GCONST> 1.427619e+02
<STATE> 3
<MEAN> 39
 3.068993e+00 1.308667e+00 -1.315463e+00 -1.821849e+01 -9.844502e+00 -9.273149e-01 -1.299357e+01 -1.168257e+01 -7.130582e+00 -1.007452e+00 1.404637e+00 -2.548524e+00 6.846041e+01 2.632931e-01 3.469262e-01 5.129787e-02 -6.017321e-01 -2.644528e-01 4.843265e-01 1.459490e-01 2.080228e-01 -2.617406e-01 -3.504778e-01 -6.814996e-02 1.056442e-01 -2.359463e-01 -5.159755e-01 5.185071e-02 1.109860e-01 8.528374e-01 5.826197e-01 -4.511662e-01 1.418355e-01 2.462653e-01 4.100977e-01 -6.365896e-02 -2.677987e-01 -5.609204e-02 -3.469957e-01
<VARIANCE> 39
 1.503259e+01 3.212530e+01 4.817199e+01 5.589931e+01 5.276709e+01 1.079025e+02 5.318919e+01 4.196260e+01 4.711937e+01 8.554946e+01 1.000539e+02 4.263707e+01 2.284103e+01 7.218882e-01 1.926814e+00 1.034441e+00 3.972558e+00 2.580588e+00 2.439589e+00 2.853573e+00 2.310703e+00 2.771033e+00 3.392941e+00 2.870136e+00 2.122774e+00 1.110980e+00 3.464321e-01 3.194865e-01 3.093706e-01 4.761716e-01 5.453827e-01 4.842677e-01 5.254661e-01 5.906821e-01 6.387412e-01 6.721001e-01 6.973494e-01 4.522288e-01 2.015975e-01
<GCONST> 1.213056e+02
<STATE> 4
<MEAN> 39
 2.975412e+00 3.601237e+00 9.082304e-01 -1.389408e+01 -8.538918e+00 -6.663511e-01 -1.407374e+01 -9.424260e+00 -4.304417e+00 -3.604064e+00 4.495568e-01 -3.939747e+00 6.516098e+01 -1.389385e+00 3.333902e-01 7.058973e-01 2.751499e+00 1.925239e+00 -1.249405e+00 8.597143e-01 3.930593e-01 7.501743e-01 -4.310055e-02 -6.906052e-01 -7.029874e-02 -1.019546e+00 -6.593509e-01 4.329196e-02 1.537850e-01 4.534456e-01 3.627302e-01 -1.155070e-01 5.166906e-01 2.432845e-01 1.119896e-01 -8.518977e-02 -1.228100e-01 8.754298e-02 -2.093221e-01
<VARIANCE> 39
 2.305070e+01 4.869625e+01 3.883694e+01 7.336491e+01 7.601526e+01 1.281299e+02 8.466458e+01 5.399642e+01 5.599314e+01 8.872166e+01 8.533411e+01 4.129019e+01 3.550806e+01 2.527530e+00 3.339321e+00 3.123953e+00 4.754507e+00 4.370256e+00 5.285211e+00 4.957143e+00 4.755373e+00 5.207320e+00 5.371499e+00 4.756262e+00 3.287112e+00 2.769963e+00 4.872834e-01 5.482144e-01 4.005762e-01 7.949069e-01 6.480397e-01 9.465584e-01 9.754715e-01 1.011295e+00 9.521499e-01 1.003111e+00 9.135970e-01 6.106604e-01 3.003728e-01
<GCONST> 1.379462e+02
<TRANSP> 5
 0.000000e+00 1.000000e+00 0.000000e+00 0.000000e+00 0.000000e+00
 0.000000e+00 5.899449e-01 4.100551e-01 0.000000e+00 0.000000e+00
 0.000000e+00 0.000000e+00 7.625043e-01 2.374957e-01 0.000000e+00
 0.000000e+00 0.000000e+00 0.000000e+00 6.465389e-01 3.534611e-01
 0.000000e+00 0.000000e+00 0.000000e+00 0.000000e+00 0.000000e+00
<ENDHMM>
~h "p"
<BEGINHMM>
<NUMSTATES> 5
<STATE> 2
<MEAN> 39
 -4.895028e+00 6.947948e+00 6.979828e+00 7.157882e-01 1.568279e+00 -3.351773e+00 -4.153777e+00 -7.329539e+00 -3.656499e+00 -3.527368e+00 -1.836436e+00 -4.975192e+00 5.105362e+01 -2.034623e+00 1.424131e+00 1.396070e-01 1.508866e+00 1.665632e+00 1.331847e+00 2.139987e+00 6.501184e-01 2.783794e-01 -7.081289e-01 -5.337178e-01 1.825751e-01 -3.941196e+00 -2.072963e-01 -1.192397e+00 -6.114962e-01 -6.673356e-01 -4.372765e-01 -7.719443e-02 -1.239868e-01 6.258405e-01 5.119176e-01 2.983442e-01 1.558425e-01 1.791051e-01 1.166448e+00
<VARIANCE> 39
 4.565705e+01 2.499494e+01 3.854570e+01 2.632102e+01 3.861845e+01 3.248125e+01 4.282967e+01 4.215035e+01 4.526330e+01 4.109675e+01 3.195590e+01 2.969516e+01 5.062901e+01 2.440948e+00 5.734048e+00 4.626914e+00 3.486972e+00 3.938082e+00 5.442151e+00 4.243782e+00 4.221205e+00 4.308647e+00 3.480417e+00 4.387571e+00 2.607205e+00 6.015849e+00 4.650781e-01 7.641556e-01 5.989607e-01 5.789105e-01 6.871242e-01 6.771298e-01 7.820299e-01 7.023851e-01 7.953735e-01 6.851165e-01 6.657443e-01 4.732296e-01 1.489152e+00
<GCONST> 1.320679e+02
<STATE> 3
<MEAN> 39
 -1.216345e+01 3.310646e+00 1.806666e+00 3.191523e-01 2.762378e+00 5.775024e-02 1.418721e+00 -9.838636e-01 5.461962e-01 -1.840873e+00 -1.749615e+00 -2.597511e+00 4.625534e+01 -7.207938e-01 -1.767047e+00 -1.118959e+00 -6.103613e-01 -2.874930e-01 -4.153254e-01 -1.133179e-01 5.748734e-01 1.058823e+00 7.897258e-01 7.052470e-01 7.019659e-01 1.517520e+00 5.677938e-01 -4.378420e-01 -4.123595e-03 -4.559344e-01 -4.946133e-01 -6.663972e-01 -8.392933e-01 -4.262010e-01 -9.515638e-02 1.072019e-01 9.335224e-02 -2.174268e-02 1.639189e+00
<VARIANCE> 39
 8.683830e+00 1.082588e+01 2.075934e+01 1.313805e+01 1.987250e+01 1.464405e+01 1.737306e+01 1.934245e+01 2.005494e+01 2.364450e+01 2.361444e+01 2.140429e+01 3.244909e+01 1.644049e+00 2.373852e+00 1.876455e+00 1.599630e+00 2.211819e+00 3.549262e+00 3.859529e+00 2.989412e+00 2.927504e+00 2.502922e+00 2.435071e+00 1.838127e+00 8.699541e+00 3.129678e-01 4.405658e-01 4.626912e-01 4.991540e-01 5.618188e-01 6.425118e-01 5.265443e-01 4.523705e-01 5.042251e-01 5.632967e-01 6.565949e-01 4.615110e-01 9.062744e-01
<GCONST> 1.133555e+02
<STATE> 4
<MEAN> 39
 -1.223426e+01 -5.136493e+00 -7.607256e-01 -2.173384e+00 2.095619e-01 -6.139720e+00 -4.788024e+00 -3.042451e+00 3.532715e+00 4.462237e-01 1.343805e+00 -2.288454e-01 6.162840e+01 1.806791e+00 -1.547578e+00 -4.733397e-01 -1.812568e+00 -1.319123e+00 -1.043167e+00 -2.091292e+00 -7.768543e-01 -2.591994e-04 1.001995e-01 7.849966e-03 -2.682828e-01 5.022722e+00 8.570439e-01 7.934666e-01 3.588232e-01 -4.184328e-01 -2.169192e-01 5.125578e-01 1.073675e-02 -4.597906e-02 -5.511155e-01 -3.797145e-01 -3.905467e-01 -4.521084e-01 -6.327409e-01
<VARIANCE> 39
 1.894310e+01 1.983903e+01 2.742358e+01 2.469046e+01 3.516832e+01 4.173982e+01 3.670968e+01 3.456085e+01 3.146703e+01 2.534281e+01 2.629375e+01 1.966787e+01 5.250607e+01 4.103222e+00 4.571837e+00 5.208172e+00 6.975182e+00 5.888297e+00 6.618359e+00 4.237278e+00 3.995924e+00 4.561740e+00 4.403161e+00 4.809494e+00 3.199094e+00 8.130800e+00 5.623151e-01 8.232485e-01 6.646955e-01 9.212094e-01 8.833325e-01 8.791578e-01 8.970422e-01 7.639305e-01 8.098059e-01 8.228220e-01 7.676837e-01 4.816692e-01 1.352037e+00
<GCONST> 1.333069e+02
<TRANSP> 5
 0.000000e+00 1.000000e+00 0.000000e+00 0.000000e+00 0.000000e+00
 0.000000e+00 5.987885e-01 4.012115e-01 0.000000e+00 0.000000e+00
 0.000000e+00 0.000000e+00 7.145325e-01 2.854675e-01 0.000000e+00
 0.000000e+00 0.000000e+00 0.000000e+00 5.751725e-01 4.248275e-01
 0.000000e+00 0.000000e+00 0.000000e+00 0.000000e+00 0.000000e+00
<ENDHMM>
~h "s"
<BEGINHMM>
<NUMSTATES> 5
<STATE> 2
<MEAN> 39
 -1.714272e+01 6.344063e+00 4.055859e+00 -1.340673e+00 2.006155e+00 -1.036247e+01 -2.615129e+00 -4.214322e+00 -5.253887e-01 -4.004772e+00 -2.478468e+00 -2.058285e+00 6.623190e+01 -4.679816e+00 9.533741e-01 -1.650472e+00 5.577381e-01 1.879025e+00 1.336183e+00 2.065805e+00 1.050415e+00 8.345186e-01 -1.490045e-01 4.585887e-01 2.887201e-01 -3.471134e-01 2.210114e-01 -6.921900e-01 -4.044197e-01 -4.771283e-01 -4.590942e-01 1.554552e-01 -2.222858e-01 2.351394e-01 -4.976907e-03 3.227575e-01 1.995771e-01 -5.493606e-02 1.050267e-02
<VARIANCE> 39
 6.619853e+01 2.686092e+01 4.544378e+01 3.288868e+01 7.949764e+01 5.878193e+01 5.728766e+01 4.900302e+01 4.346749e+01 3.241665e+01 3.148066e+01 3.574231e+01 2.405424e+01 2.958350e+00 4.417973e+00 4.153948e+00 5.478052e+00 4.550030e+00 5.981537e+00 5.261992e+00 4.643619e+00 3.711203e+00 4.013276e+00 4.068797e+00 3.088009e+00 1.450735e+00 1.087841e+00 6.305954e-01 5.345881e-01 5.957942e-01 7.597309e-01 9.203086e-01 8.260179e-01 7.655886e-01 6.059437e-01 6.470026e-01 5.634965e-01 5.192183e-01 1.908894e-01
<GCONST> 1.319567e+02
<STATE> 3
<MEAN> 39
 -2.933480e+01 4.108176e+00 -5.223543e+00 -3.267192e+00 1.812520e+00 -6.184277e+00 1.073509e+00 6.420189e-01 2.062363e+00 -1.652820e-01 9.648498e-01 6.941033e-01 6.443127e+01 -4.662083e-01 -4.938593e-01 -4.993067e-01 -4.872662e-01 -3.344536e-01 -3.629171e-02 -4.092567e-02 2.892483e-01 3.635210e-01 4.188403e-01 3.800016e-01 3.480542e-01 -1.757060e-01 8.884823e-01 -4.974250e-02 5.037889e-01 3.376961e-02 -2.382191e-01 -2.402986e-01 -3.471454e-01 -2.464275e-01 -1.140201e-01 -1.282613e-01 -1.758292e-01 -9.394976e-02 3.314754e-03
<VARIANCE> 39
 9.983009e+00 1.940769e+01 2.749363e+01 4.126451e+01 5.011226e+01 3.524838e+01 3.332688e+01 2.967150e+01 2.710406e+01 2.153550e+01 1.948321e+01 2.082916e+01 1.340945e+01 2.002841e+00 1.638332e+00 2.187122e+00 1.713693e+00 2.169155e+00 2.162006e+00 1.926703e+00 2.012110e+00 1.938777e+00 1.976316e+00 1.788441e+00 1.577937e+00 9.894368e-01 3.578724e-01 2.747221e-01 2.904127e-01 3.671961e-01 4.114352e-01 4.618782e-01 4.542634e-01 4.039654e-01 4.058457e-01 4.023913e-01 3.725571e-01 3.465742e-01 1.437009e-01
<GCONST> 1.073891e+02
<STATE> 4
<MEAN> 39
 -2.383978e+01 1.127880e+00 -1.510984e+00 -5.220936e+00 2.318405e-01 -9.277236e+00 -2.172777e+00 -3.239734e-01 3.319229e+00 -4.688426e-01 6.375513e-01 3.619460e-01 6.498837e+01 4.313584e+00 -3.177030e-01 1.752749e+00 1.856235e-01 -1.171062e+00 -8.655531e-01 -1.888147e+00 -1.147326e+00 -6.608714e-01 -3.189998e-01 -8.654156e-01 -9.292763e-01 2.340447e-01 1.018384e+00 1.426709e-02 1.978544e-01 6.145749e-04 -1.880929e-01 4.511469e-02 -3.765970e-01 -2.338898e-01 -3.968537e-01 -2.867313e-02 -1.779903e-01 -3.102187e-01 1.558372e-01
<VARIANCE> 39
 3.944658e+01 2.628272e+01 3.809392e+01 3.764795e+01 6.227919e+01 5.094608e+01 5.143129e+01 3.723704e+01 3.497990e+01 2.786537e+01 3.049238e+01 2.768124e+01 1.757495e+01 5.364119e+00 2.636965e+00 3.776610e+00 3.639797e+00 3.618515e+00 5.116798e+00 4.843242e+00 3.427123e+00 3.612155e+00 3.473295e+00 3.240865e+00 2.427218e+00 2.863482e+00 8.171574e-01 5.684879e-01 5.567887e-01 7.055793e-01 6.456444e-01 7.417412e-01 9.276523e-01 7.584213e-01 6.334499e-01 6.538503e-01 6.250980e-01 4.985999e-01 2.783362e-01
<GCONST> 1.285232e+02
<TRANSP> 5
 0.000000e+00 1.000000e+00 0.000000e+00 0.000000e+00 0.000000e+00
 0.000000e+00 6.849355e-01 3.150645e-01 0.000000e+00 0.000000e+00
 0.000000e+00 0.000000e+00 8.177631e-01 1.822369e-01 0.000000e+00
 0.000000e+00 0.000000e+00 0.000000e+00 6.123698e-01 3.876301e-01
 0.000000e+00 0.000000e+00 0.000000e+00 0.000000e+00 0.000000e+00
<ENDHMM>
~h "t"
<BEGINHMM>
<NUMSTATES> 5
<STATE> 2
<MEAN> 39
 -1.029706e+01 7.629067e+00 6.194335e+00 6.112368e-01 1.975006e+00 -5.994251e+00 -3.616823e+00 -5.616911e+00 -1.498125e+00 -3.252084e+00 -2.999130e+00 -3.904647e+00 5.380685e+01 -1.150558e+00 5.720236e-01 -1.012618e-01 8.663309e-01 1.264034e+00 2.103100e+00 1.924784e+00 5.323409e-01 1.723384e-01 -4.174399e-01 -7.310237e-02 -1.169782e-01 -3.729404e+00 -2.030844e-02 -1.182696e+00 -5.671382e-01 -6.941844e-01 -3.400831e-01 -2.704864e-02 -1.598638e-01 4.119454e-01 2.577216e-01 2.940707e-01 3.065180e-01 1.584462e-01 1.032825e+00
<VARIANCE> 39
 6.772493e+01 2.619839e+01 5.176273e+01 2.753061e+01 4.639694e+01 4.949559e+01 5.155636e+01 4.585408e+01 4.382055e+01 3.531152e+01 3.193281e+01 3.133089e+01 5.632047e+01 4.213167e+00 5.779686e+00 4.132694e+00 3.271541e+00 4.289693e+00 5.088454e+00 4.089263e+00 4.505760e+00 3.678186e+00 3.157367e+00 3.703748e+00 3.181447e+00 5.929245e+00 4.609670e-01 7.239860e-01 6.465317e-01 5.559012e-01 6.996804e-01 1.039209e+00 7.720855e-01 7.509454e-01 7.764932e-01 6.468327e-01 5.929786e-01 5.229255e-01 1.728155e+00
<GCONST> 1.344066e+02
<STATE> 3
<MEAN> 39
 -1.490909e+01 3.464669e+00 6.772977e-01 -2.116102e-02 2.931796e+00 -1.237084e-01 1.609103e+00 -8.210292e-01 1.543396e+00 -1.306610e+00 -1.048311e+00 -1.833039e+00 4.777123e+01 -6.541089e-01 -1.994158e+00 -9.148141e-01 -1.171177e+00 -5.477197e-01 -4.297701e-01 -2.280377e-01 4.090367e-01 7.109297e-01 6.030142e-01 7.087371e-01 7.871133e-01 1.624098e+00 -8.410566e-02 -1.315216e-01 -4.959016e-02 -4.083169e-01 -3.537642e-01 -8.522068e-01 -6.883087e-01 -2.532620e-01 -2.945826e-02 2.604632e-02 2.675502e-02 9.171658e-02 1.582850e+00
<VARIANCE> 39
 2.351816e+01 1.794936e+01 2.962764e+01 1.671890e+01 2.543482e+01 1.942792e+01 2.385441e+01 2.406512e+01 2.287575e+01 2.327911e+01 2.260587e+01 2.199768e+01 3.570012e+01 3.307895e+00 3.142946e+00 2.849172e+00 2.587162e+00 2.704260e+00 4.013603e+00 3.566054e+00 2.738585e+00 3.001280e+00 2.611737e+00 2.221409e+00 1.996983e+00 9.088906e+00 5.017849e-01 5.456189e-01 4.753814e-01 4.155591e-01 5.804477e-01 6.473079e-01 5.956015e-01 5.000409e-01 5.036334e-01 5.299329e-01 4.790768e-01 4.607391e-01 9.758285e-01
<GCONST> 1.193401e+02
<STATE> 4
<MEAN> 39
 -1.896526e+01 -2.395717e+00 -1.099571e+00 -6.469213e+00 -3.454902e-01 -7.713299e+00 -3.395110e+00 -1.554624e+00 3.194420e+00 6.374000e-02 1.071334e+00 7.217436e-01 6.355911e+01 4.237817e-01 -1.920722e-01 -3.941740e-02 -8.302738e-01 -2.728273e-01 -1.221972e+00 -1.341921e+00 -2.561932e-01 2.677688e-02 5.377441e-02 -9.638644e-02 -1.960078e-01 2.707374e+00 8.972691e-01 5.547991e-01 3.713932e-01 3.348628e-01 1.428340e-01 3.365967e-01 -8.479654e-02 -1.436977e-01 -3.905786e-01 -1.873719e-01 -2.802105e-01 -4.114092e-01 -7.682490e-01
<VARIANCE> 39
 4.462852e+01 3.569316e+01 4.309912e+01 3.218013e+01 4.680202e+01 5.189591e+01 4.406227e+01 3.760606e+01 3.719038e+01 2.745659e+01 3.095886e+01 2.299905e+01 3.675895e+01 7.267528e+00 3.797294e+00 4.977009e+00 4.130812e+00 5.229069e+00 6.423783e+00 5.576382e+00 4.020784e+00 3.863889e+00 3.701133e+00 3.941408e+00 3.150019e+00 9.236037e+00 9.174850e-01 8.450156e-01 7.023430e-01 7.274525e-01 8.934532e-01 1.059283e+00 1.043071e+00 8.155947e-01 8.235154e-01 7.049286e-01 6.714029e-01 5.618315e-01 9.565049e-01
<GCONST> 1.362561e+02
<TRANSP> 5
 0.000000e+00 1.000000e+00 0.000000e+00 0.000000e+00 0.000000e+00
 0.000000e+00 5.950380e-01 4.049620e-01 0.000000e+00 0.000000e+00
 0.000000e+00 0.000000e+00 6.782661e-01 3.217339e-01 0.000000e+00
 0.000000e+00 0.000000e+00 0.000000e+00 7.089016e-01 2.910984e-01
 0.000000e+00 0.000000e+00 0.000000e+00 0.000000e+00 0.000000e+00
<ENDHMM>
~h "u"
<BEGINHMM>
<NUMSTATES> 5
<STATE> 2
<MEAN> 39
 -4.114569e+00 2.032867e+00 1.614068e+00 -3.447181e+00 -4.778391e-01 -5.986723e+00 -9.204706e+00 -8.749461e+00 -3.607374e+00 -4.376711e+00 -7.023290e-01 -4.099520e+00 6.242662e+01 3.185386e+00 1.913182e+00 4.422982e-01 -1.713007e+00 -1.852274e+00 2.837612e-02 -1.529089e+00 -1.706000e+00 -1.874373e+00 -1.138939e+00 7.063439e-02 -9.238815e-01 9.693027e-01 -8.586746e-02 -3.085596e-02 3.218991e-02 -4.169469e-01 -4.475104e-01 3.035063e-01 3.210651e-01 1.988836e-01 1.296490e-01 1.042937e-01 3.974465e-02 1.444202e-01 -2.635754e-01
<VARIANCE> 39
 4.321545e+01 3.649169e+01 3.741311e+01 6.237314e+01 5.668916e+01 8.417202e+01 9.219452e+01 5.245046e+01 4.654836e+01 3.573225e+01 5.172818e+01 2.970935e+01 6.831811e+01 4.122939e+00 3.708229e+00 4.274198e+00 7.270242e+00 6.300619e+00 5.877987e+00 6.430418e+00 6.448763e+00 5.391108e+00 5.429260e+00 5.079449e+00 3.685332e+00 3.723311e+00 7.605695e-01 7.571592e-01 4.900474e-01 7.496532e-01 9.365206e-01 8.854982e-01 1.170394e+00 1.007875e+00 9.260131e-01 7.801808e-01 6.769688e-01 5.659376e-01 7.800031e-01
<GCONST> 1.407408e+02
<STATE> 3
<MEAN> 39
 2.899245e+00 6.106378e+00 5.239077e-01 -1.331119e+01 -9.601425e+00 -3.239584e+00 -1.035169e+01 -9.640130e+00 -5.957054e+00 -7.526690e+00 -1.252739e+00 -4.271975e+00 6.434700e+01 4.720845e-01 4.367578e-02 2.107720e-02 -8.470452e-01 -6.224115e-01 4.836344e-01 -1.876286e-01 -2.482043e-01 -2.198315e-01 -1.003784e-01 1.646043e-01 4.355767e-02 1.664378e-01 -6.508359e-01 -3.831279e-01 1.022989e-02 6.954015e-01 6.486545e-01 -1.522835e-01 1.620512e-01 1.570825e-01 2.942482e-01 3.513826e-01 -5.846102e-03 1.051195e-01 -1.378737e-01
<VARIANCE> 39
 1.907116e+01 2.707514e+01 3.932721e+01 9.517656e+01 6.127940e+01 9.999677e+01 5.810757e+01 4.845770e+01 6.007934e+01 6.252781e+01 8.059241e+01 3.681490e+01 2.107346e+01 1.467388e+00 2.011371e+00 1.547978e+00 4.348888e+00 4.146690e+00 3.247670e+00 3.434772e+00 3.354429e+00 3.193011e+00 2.887431e+00 3.073599e+00 2.255137e+00 1.216754e+00 4.007266e-01 3.755523e-01 3.928415e-01 7.044170e-01 6.780306e-01 7.051550e-01 6.937202e-01 8.083485e-01 8.437548e-01 6.764364e-01 7.264503e-01 5.002091e-01 1.971503e-01
<GCONST> 1.267852e+02
<STATE> 4
<MEAN> 39
 4.354794e-01 2.385325e+00 2.687326e+00 -6.213529e+00 -4.662096e+00 -5.392672e+00 -1.364378e+01 -1.267071e+01 -5.997800e+00 -4.367802e+00 3.155926e-01 -4.899164e+00 6.523589e+01 -1.265896e+00 -2.405889e-01 7.913687e-01 1.350157e+00 1.161116e+00 -8.065457e-01 -1.392832e-02 4.629650e-01 1.100949e+00 9.153336e-01 -6.157702e-01 -4.161421e-02 -1.471479e-01 -5.805631e-01 1.752439e-01 1.174919e-01 3.495999e-01 2.603573e-01 -1.411547e-01 5.989123e-01 5.496041e-01 2.915035e-01 -8.605935e-02 -3.027712e-01 1.359013e-02 -3.017904e-01
<VARIANCE> 39
 2.733558e+01 2.622791e+01 4.220904e+01 1.059551e+02 7.173197e+01 1.175032e+02 8.450944e+01 6.895399e+01 5.495682e+01 5.188634e+01 8.125649e+01 4.105067e+01 3.032220e+01 2.922541e+00 3.392206e+00 3.070484e+00 4.286500e+00 5.673934e+00 5.596396e+00 7.037024e+00 6.582677e+00 5.002589e+00 4.868088e+00 4.881544e+00 3.217270e+00 2.631785e+00 4.093538e-01 5.479073e-01 4.822199e-01 9.321707e-01 1.019776e+00 1.081657e+00 1.221673e+00 1.157171e+00 9.111385e-01 8.900114e-01 8.726010e-01 6.376010e-01 3.302592e-01
<GCONST> 1.391728e+02
<TRANSP> 5
 0.000000e+00 1.000000e+00 0.000000e+00 0.000000e+00 0.000000e+00
 0.000000e+00 5.314122e-01 4.685878e-01 0.000000e+00 0.000000e+00
 0.000000e+00 0.000000e+00 7.162651e-01 2.837350e-01 0.000000e+00
 0.000000e+00 0.000000e+00 0.000000e+00 5.318181e-01 4.681819e-01
 0.000000e+00 0.000000e+00 0.000000e+00 0.000000e+00 0.000000e+00
<ENDHMM>
~h "v"
<BEGINHMM>
<NUMSTATES> 5
<STATE> 2
<MEAN> 39
 -1.195803e+00 1.532931e+00 1.073308e+00 -6.314182e+00 -4.373277e+00 -6.968602e+00 -1.125568e+01 -9.180304e+00 -2.738620e+00 -7.314914e-01 -6.981271e-01 -3.036663e+00 6.540612e+01 -1.324196e+00 1.062814e+00 2.730414e-01 1.786583e+00 1.170641e+00 3.333134e-01 7.754394e-01 -6.946576e-01 -2.075241e-01 -2.172765e-01 1.800880e-01 3.528911e-01 -7.974010e-01 -2.849700e-01 -2.096194e-01 2.064014e-01 2.869358e-02 -6.362648e-02 5.511659e-03 1.081493e-01 3.940726e-01 4.503061e-02 -1.586780e-01 -1.573459e-01 -5.406600e-02 1.599292e-01
<VARIANCE> 39
 2.569201e+01 2.110396e+01 3.697671e+01 5.599868e+01 4.315077e+01 9.325167e+01 5.191706e+01 3.166206e+01 3.845324e+01 3.771754e+01 5.177849e+01 2.543501e+01 2.395841e+01 1.613876e+00 2.673267e+00 2.485020e+00 3.798476e+00 3.028620e+00 3.772847e+00 4.067684e+00 2.997724e+00 3.492009e+00 3.393348e+00 2.993960e+00 2.524849e+00 1.470835e+00 1.987055e-01 2.720374e-01 2.483747e-01 4.761927e-01 4.487375e-01 4.714442e-01 4.908885e-01 5.300152e-01 4.826423e-01 4.866411e-01 5.469085e-01 3.896318e-01 1.670156e-01
<GCONST> 1.197402e+02
<STATE> 3
<MEAN> 39
 -6.301379e+00 3.460861e+00 3.408566e+00 -7.911753e-03 -8.736969e-01 -5.331017e+00 -8.875847e+00 -8.402528e+00 -3.342152e+00 -2.136673e+00 -6.651185e-01 -2.112563e+00 6.380195e+01 -1.453457e+00 2.050627e-01 5.092281e-01 1.045802e+00 6.196327e-01 2.136704e-01 7.017538e-01 4.919208e-01 1.019870e-01 -4.880936e-01 -4.070244e-01 1.193245e-01 -1.966919e-01 5.055407e-01 -5.583441e-01 -2.031479e-02 -7.595309e-01 -7.051818e-01 -2.541454e-01 -3.130564e-01 3.069530e-01 8.909033e-02 6.517722e-02 5.592990e-03 -1.494079e-01 4.850780e-01
<VARIANCE> 39
 2.883255e+01 1.748330e+01 3.868103e+01 2.974543e+01 3.304596e+01 5.576389e+01 3.836691e+01 2.618255e+01 3.023566e+01 2.405836e+01 3.040912e+01 1.687747e+01 1.783457e+01 1.879469e+00 1.570952e+00 2.029410e+00 2.888654e+00 2.271919e+00 3.205903e+00 3.405497e+00 2.212118e+00 2.569846e+00 2.427120e+00 2.343966e+00 1.784855e+00 8.301897e-01 2.768698e-01 4.383092e-01 3.853943e-01 5.450864e-01 4.852308e-01 5.291097e-01 5.486361e-01 5.528769e-01 5.501016e-01 4.683024e-01 4.870524e-01 3.891300e-01 2.316188e-01
<GCONST> 1.143183e+02
<STATE> 4
<MEAN> 39
 -8.026216e+00 2.457376e+00 4.396685e+00 -1.284904e-01 -2.385111e+00 -6.706716e+00 -8.210732e+00 -6.785415e+00 -2.592702e+00 -3.295583e+00 -1.823217e+00 -2.491067e+00 6.457290e+01 7.202379e-01 -7.466837e-01 1.616251e-02 -1.241164e+00 -1.245355e+00 -5.338551e-01 -2.603390e-01 3.167420e-01 -4.639175e-02 -2.689678e-02 2.733922e-01 4.261996e-03 8.251132e-01 6.824390e-01 -3.137497e-01 -5.640192e-02 -7.187967e-01 -5.331960e-01 -1.068386e-01 -3.357235e-01 1.651534e-02 -1.365006e-01 1.938261e-01 1.897167e-01 -9.301636e-02 2.916015e-01
<VARIANCE> 39
 4.248512e+01 1.707359e+01 4.925719e+01 4.061984e+01 4.154272e+01 6.154132e+01 4.301925e+01 2.990702e+01 2.731211e+01 2.278663e+01 3.384702e+01 1.879230e+01 1.755612e+01 2.668676e+00 1.906450e+00 2.826201e+00 2.923014e+00 2.314210e+00 2.877971e+00 2.660961e+00 2.687545e+00 2.399642e+00 2.180845e+00 2.070529e+00 1.795235e+00 9.520338e-01 3.867844e-01 4.331887e-01 4.379051e-01 6.882315e-01 5.162469e-01 5.940896e-01 5.776931e-01 5.918920e-01 6.068726e-01 5.238959e-01 4.679845e-01 3.746829e-01 2.173061e-01
<GCONST> 1.174920e+02
<TRANSP> 5
 0.000000e+00 1.000000e+00 0.000000e+00 0.000000e+00 0.000000e+00
 0.000000e+00 4.839402e-01 5.160598e-01 0.000000e+00 0.000000e+00
 0.000000e+00 0.000000e+00 5.027589e-01 4.972411e-01 0.000000e+00
 0.000000e+00 0.000000e+00 0.000000e+00 5.470492e-01 4.529508e-01
 0.000000e+00 0.000000e+00 0.000000e+00 0.000000e+00 0.000000e+00
<ENDHMM>
~h "w"
<BEGINHMM>
<NUMSTATES> 5
<STATE> 2
<MEAN> 39
 2.029453e+00 5.643671e+00 -8.263251e-01 -1.380729e+01 -8.984991e+00 -1.984483e+00 -8.349116e+00 -6.634496e+00 -1.330041e+00 -5.032899e+00 2.964118e-02 -2.265342e+00 6.432644e+01 2.319302e+00 -2.197260e-01 -5.108410e-01 -2.935428e+00 -1.682296e+00 7.548762e-01 -7.512450e-01 2.226754e-01 -9.525495e-01 -1.038739e-01 5.484504e-01 -1.517044e-01 8.540896e-01 -2.977231e-01 -7.698068e-01 -3.220862e-02 6.458335e-02 3.501487e-01 2.284279e-01 -3.470161e-02 1.175192e-01 3.334531e-03 4.895564e-01 1.420342e-01 -1.890211e-01 3.431391e-01
<VARIANCE> 39
 3.562908e+01 3.436028e+01 2.844274e+01 7.265504e+01 6.247580e+01 6.451510e+01 5.368976e+01 4.557787e+01 5.065413e+01 3.142001e+01 4.141939e+01 2.188878e+01 1.682017e+01 4.179652e+00 4.540609e+00 3.415801e+00 6.354686e+00 4.575465e+00 4.795922e+00 4.695109e+00 4.396770e+00 5.011467e+00 4.507234e+00 4.473270e+00 2.749171e+00 2.043842e+00 6.383983e-01 5.912741e-01 4.376151e-01 9.215891e-01 7.369215e-01 7.864016e-01 8.037832e-01 6.674615e-01 7.601312e-01 6.777210e-01 8.040547e-01 4.882200e-01 2.440456e-01
<GCONST> 1.319490e+02
<STATE> 3
<MEAN> 39
 4.841794e+00 -1.403544e+00 -3.683002e+00 -2.033005e+01 -9.675084e+00 1.762734e+00 -9.428241e+00 -6.228749e+00 -5.759387e+00 -1.512376e+00 4.221053e+00 -3.054940e+00 6.957631e+01 4.479896e-01 -2.925359e+00 -8.064818e-01 -8.134492e-01 6.284912e-01 6.538073e-01 -9.895179e-01 6.284952e-02 -1.526627e-02 2.275066e+00 1.061988e+00 -1.342375e+00 1.880919e+00 -6.602174e-01 -2.537402e-01 2.012575e-01 1.061296e+00 5.244825e-01 -5.724441e-01 -1.176138e-01 2.597298e-01 8.121019e-01 2.035395e-01 -5.963814e-01 -4.970460e-01 -9.071774e-02
<VARIANCE> 39
 1.500472e+01 3.245069e+01 3.420887e+01 5.554739e+01 5.962185e+01 9.669440e+01 4.616207e+01 4.209031e+01 6.393159e+01 5.861419e+01 8.742131e+01 2.593984e+01 1.518121e+01 1.679659e+00 1.788922e+00 1.374484e+00 3.910129e+00 3.433172e+00 3.887844e+00 3.688958e+00 2.882389e+00 4.114023e+00 4.467003e+00 4.531875e+00 3.167885e+00 6.494024e-01 3.727551e-01 4.408461e-01 3.145887e-01 4.668231e-01 4.529893e-01 6.606413e-01 6.491010e-01 7.090686e-01 7.792379e-01 8.557842e-01 7.071810e-01 5.180429e-01 1.413739e-01
<GCONST> 1.241304e+02
<STATE> 4
<MEAN> 39
 3.116193e+00 -9.266060e+00 -5.505963e+00 -1.704479e+01 -5.707123e+00 7.575156e-01 -1.319619e+01 -5.291450e+00 -1.740472e+00 3.755266e+00 3.723576e+00 -9.999407e+00 7.343556e+01 -5.755352e-01 -1.853592e+00 8.039103e-02 1.425781e+00 7.961526e-01 -1.623354e+00 -8.590243e-01 1.353791e+00 1.895486e+00 7.837201e-01 -1.761652e+00 -1.809681e+00 9.542975e-01 -2.455404e-01 6.819838e-01 3.654236e-01 4.610327e-01 -2.115677e-01 -5.959693e-01 4.881941e-01 2.975279e-01 -1.742080e-02 -8.524209e-01 -6.244275e-01 5.977833e-01 -4.515778e-01
<VARIANCE> 39
 1.347900e+01 2.603596e+01 3.363611e+01 5.285546e+01 4.918557e+01 1.083191e+02 4.168012e+01 3.192548e+01 5.152643e+01 6.949359e+01 1.203148e+02 2.466327e+01 1.507815e+01 4.169140e-01 1.328934e+00 1.325179e+00 2.047849e+00 2.243790e+00 4.396811e+00 2.842733e+00 3.217232e+00 2.697161e+00 3.671885e+00 3.093606e+00 2.678266e+00 5.365910e-01 2.567507e-01 3.100033e-01 2.832842e-01 3.983579e-01 4.937628e-01 6.769878e-01 6.238391e-01 5.435215e-01 6.457332e-01 7.366767e-01 7.305804e-01 5.879861e-01 8.787800e-02
<GCONST> 1.174725e+02
<TRANSP> 5
 0.000000e+00 1.000000e+00 0.000000e+00 0.000000e+00 0.000000e+00
 0.000000e+00 6.284822e-01 3.715179e-01 0.000000e+00 0.000000e+00
 0.000000e+00 0.000000e+00 5.755047e-01 4.244953e-01 0.000000e+00
 0.000000e+00 0.000000e+00 0.000000e+00 5.601649e-01 4.398351e-01
 0.000000e+00 0.000000e+00 0.000000e+00 0.000000e+00 0.000000e+00
<ENDHMM>
~h "y"
<BEGINHMM>
<NUMSTATES> 5
<STATE> 2
<MEAN> 39
 -1.084544e+01 -1.056535e+00 1.168941e+01 1.259907e+00 -7.257453e+00 -1.032708e+01 -9.069224e+00 -5.098279e+00 -1.748332e+00 -6.434209e+00 -1.736850e+00 -1.913122e+00 6.699614e+01 2.850195e+00 3.270423e-01 1.522635e+00 8.979347e-01 -1.668617e+00 -1.608231e+00 -1.817085e+00 -1.038111e+00 -1.499394e+00 -1.139198e+00 -5.697136e-01 -5.156505e-01 9.792263e-01 1.679919e-01 -1.375035e-01 -4.432975e-01 -4.555487e-01 1.045221e-01 3.060892e-01 -4.175371e-02 3.983581e-02 -7.684813e-02 2.979051e-01 2.479623e-01 -3.080807e-02 -1.573347e-01
<VARIANCE> 39
 8.160278e+01 3.651893e+01 4.351706e+01 6.000232e+01 5.953735e+01 6.913271e+01 7.777113e+01 3.984882e+01 5.837931e+01 3.455642e+01 3.688683e+01 2.421591e+01 2.509193e+01 9.478580e+00 3.416615e+00 4.165122e+00 5.561174e+00 4.660704e+00 6.031051e+00 6.524097e+00 5.679121e+00 4.700033e+00 4.481417e+00 3.524836e+00 3.560723e+00 2.334707e+00 9.185660e-01 6.578030e-01 5.993834e-01 6.864906e-01 7.220970e-01 9.445640e-01 9.379789e-01 7.112250e-01 8.656913e-01 6.780255e-01 4.793170e-01 4.763711e-01 2.861751e-01
<GCONST> 1.360866e+02
<STATE> 3
<MEAN> 39
 -3.644152e+00 -2.793018e+00 1.371453e+01 1.500806e+00 -1.409340e+01 -1.379703e+01 -1.496697e+01 -6.396949e+00 -6.554483e+00 -9.291457e+00 -1.643614e+00 -2.616653e+00 6.877306e+01 7.457498e-01 1.212030e-02 -3.889442e-02 -6.843066e-01 -4.825478e-01 4.136756e-02 -4.373715e-01 -7.028492e-02 -4.533323e-01 2.084348e-01 -1.160653e-02 -2.555033e-01 3.074291e-02 -5.036270e-01 2.400507e-01 -4.672486e-01 -2.614558e-01 6.730056e-01 4.585859e-01 4.879588e-01 5.366771e-02 3.061841e-01 3.739691e-01 -9.312053e-03 4.843278e-03 -2.665068e-01
<VARIANCE> 39
 2.760057e+01 2.252606e+01 4.276894e+01 7.540762e+01 6.405457e+01 6.862840e+01 5.368483e+01 3.527970e+01 4.625059e+01 5.936356e+01 4.893539e+01 2.783879e+01 1.499662e+01 4.208951e+00 2.203255e+00 2.843935e+00 2.537094e+00 3.295680e+00 2.965490e+00 4.228434e+00 3.584660e+00 3.633146e+00 3.125686e+00 2.209806e+00 2.467522e+00 8.514667e-01 4.988585e-01 4.235445e-01 3.786840e-01 4.708654e-01 6.132761e-01 7.524137e-01 7.213461e-01 5.910445e-01 6.218183e-01 6.032743e-01 4.557281e-01 4.682462e-01 2.143525e-01
<GCONST> 1.241625e+02
<STATE> 4
<MEAN> 39
 -1.960316e+00 -2.117517e+00 9.615740e+00 -4.542124e+00 -1.152426e+01 -9.647359e+00 -1.697231e+01 -6.593800e+00 -4.896615e+00 -4.105571e+00 -3.452266e+00 -4.390640e+00 6.853424e+01 -1.263666e-01 8.914924e-01 -1.190657e+00 -7.005772e-01 1.625634e+00 1.285633e+00 1.149836e+00 -5.485271e-01 1.167743e-01 7.577563e-01 -1.589053e-01 -1.775211e-01 -6.830773e-01 -6.463188e-01 1.970412e-01 -2.439173e-01 2.722883e-01 6.191422e-01 2.638518e-01 7.266976e-01 1.064183e-01 1.299912e-01 -3.413325e-02 1.188490e-01 1.283703e-01 -2.911862e-01
<VARIANCE> 39
 4.014840e+01 3.170880e+01 5.920368e+01 7.869279e+01 6.536188e+01 1.076553e+02 1.142799e+02 6.326675e+01 5.725714e+01 5.931183e+01 6.528091e+01 3.126482e+01 2.482080e+01 4.078928e+00 3.986617e+00 2.855695e+00 4.269563e+00 5.819460e+00 5.716491e+00 5.815646e+00 4.731888e+00 4.846235e+00 3.762452e+00 3.236183e+00 3.163667e+00 1.891118e+00 6.831174e-01 5.843718e-01 5.472714e-01 6.272781e-01 7.035440e-01 1.027008e+00 1.239755e+00 1.132030e+00 8.345013e-01 8.198951e-01 7.643300e-01 6.570061e-01 2.313598e-01
<GCONST> 1.374510e+02
<TRANSP> 5
 0.000000e+00 1.000000e+00 0.000000e+00 0.000000e+00 0.000000e+00
 0.000000e+00 4.688027e-01 5.311973e-01 0.000000e+00 0.000000e+00
 0.000000e+00 0.000000e+00 6.649049e-01 3.350951e-01 0.000000e+00
