~o
<STREAMINFO> 1 39
<VECSIZE> 39<NULLD><MFCC_D_A_0><DIAGC>
~h "R"
<BEGINHMM>
<NUMSTATES> 5
<STATE> 2
<MEAN> 39
 2.807698e+000 -5.802217e+000 -4.158878e+000 -1.100564e+001 -1.234616e+001 -3.339626e+000 -1.089904e+001 -4.707983e+000 -5.677281e+000 -3.679636e+000 4.167656e+000 -9.292433e+000 7.504710e+001 4.422994e-002 1.404726e-001 -8.109057e-002 -2.562652e-001 1.980906e-001 3.621074e-001 -6.739359e-002 -4.408296e-001 -1.946692e-001 1.737698e-001 2.005331e-001 1.979225e-001 -1.433898e-001 -1.381115e-001 -4.930518e-003 1.138131e-001 2.392590e-001 5.155697e-002 -2.113277e-001 3.733853e-002 2.160924e-001 1.884537e-002 -1.753416e-001 -2.081263e-001 -2.316586e-002 -3.694546e-002
<VARIANCE> 39
 9.641582e+000 2.598203e+001 1.700853e+001 2.862614e+001 2.904470e+001 5.011612e+001 4.529435e+001 4.526400e+001 3.426950e+001 4.399788e+001 4.060905e+001 5.529420e+001 7.849800e+000 4.662406e-001 8.288354e-001 7.608435e-001 1.471356e+000 1.399734e+000 1.825304e+000 1.887957e+000 2.542478e+000 1.814681e+000 2.119668e+000 2.021966e+000 2.322461e+000 2.299913e-001 7.641134e-002 1.272711e-001 1.272391e-001 1.853881e-001 2.630665e-001 2.631769e-001 3.390277e-001 4.398556e-001 3.563859e-001 3.977667e-001 3.942755e-001 4.145755e-001 4.133352e-002
<GCONST> 9.858181e+001
<STATE> 3
<MEAN> 39
 2.014090e+000 -4.400729e+000 -3.335408e+000 -1.029298e+001 -1.076411e+001 -4.922710e+000 -1.063219e+001 -5.939594e+000 -6.187197e+000 -2.968669e+000 3.418752e+000 -8.023131e+000 7.399602e+001 -2.746338e-001 7.778730e-002 3.280071e-001 5.654162e-001 2.485300e-001 -2.424155e-001 -8.576097e-002 2.543958e-001 1.004748e-001 -3.212941e-001 -4.404886e-001 1.028725e-002 -2.245060e-001 -1.344961e-001 -7.751467e-002 1.123243e-001 1.843688e-001 -2.874031e-002 -1.446537e-001 3.708132e-002 3.286243e-001 6.332942e-002 -1.479941e-001 -1.457702e-001 -9.257036e-002 -9.364558e-003
<VARIANCE> 39
 1.166032e+001 2.230198e+001 1.626864e+001 3.288873e+001 2.807173e+001 4.294685e+001 4.014978e+001 3.565044e+001 3.279434e+001 3.376031e+001 3.588076e+001 4.638981e+001 1.024491e+001 5.906204e-001 1.099861e+000 7.691181e-001 1.305420e+000 1.628236e+000 1.722734e+000 2.110413e+000 2.299705e+000 2.362353e+000 2.112688e+000 1.859326e+000 2.262792e+000 3.022538e-001 5.933929e-002 1.176810e-001 1.269123e-001 2.112353e-001 2.764329e-001 2.863436e-001 3.748998e-001 4.129160e-001 3.767249e-001 4.102173e-001 3.342665e-001 3.628020e-001 3.713372e-002
<GCONST> 9.841127e+001
<STATE> 4
<MEAN> 39
 -9.637071e-001 -3.291661e+000 -1.720427e+000 -7.151836e+000 -8.471486e+000 -6.271683e+000 -1.074632e+001 -4.366975e+000 -5.565491e+000 -4.079749e+000 1.917163e+000 -7.624308e+000 7.158933e+001 -5.326741e-001 -5.791817e-002 4.040650e-001 7.032180e-001 1.750254e-001 -4.070432e-001 1.300215e-001 6.105401e-001 4.590918e-002 -3.607897e-001 -3.943734e-001 4.208571e-002 -2.985336e-001 -1.620648e-002 -7.365763e-002 4.595740e-003 -1.141941e-002 -1.245429e-001 -5.106907e-002 1.037261e-001 9.130969e-002 -7.610969e-002 -2.680905e-002 5.830342e-002 1.950691e-002 4.539165e-002
<VARIANCE> 39
 2.077551e+001 2.240349e+001 1.587670e+001 3.270673e+001 3.207503e+001 4.406770e+001 3.097856e+001 3.179516e+001 3.265187e+001 2.755441e+001 3.498302e+001 3.720237e+001 1.970947e+001 7.298793e-001 1.078036e+000 9.400742e-001 1.407331e+000 2.013364e+000 1.938114e+000 1.871963e+000 2.201825e+000 2.067676e+000 2.261930e+000 2.130677e+000 2.099900e+000 3.765463e-001 9.716994e-002 1.366880e-001 1.303315e-001 2.291209e-001 3.174001e-001 2.826731e-001 3.384286e-001 3.916212e-001 3.963511e-001 3.678573e-001 3.816157e-001 3.493259e-001 5.378604e-002
<GCONST> 1.009278e+002
<TRANSP> 5
 0.000000e+000 1.000000e+000 0.000000e+000 0.000000e+000 0.000000e+000
 0.000000e+000 6.068029e-001 3.931971e-001 0.000000e+000 0.000000e+000
 0.000000e+000 0.000000e+000 4.504199e-001 5.495801e-001 0.000000e+000
 0.000000e+000 0.000000e+000 0.000000e+000 5.788217e-001 4.211783e-001
 0.000000e+000 0.000000e+000 0.000000e+000 0.000000e+000 0.000000e+000
<ENDHMM>
~h "S"
<BEGINHMM>
<NUMSTATES> 5
<STATE> 2
<MEAN> 39
 -1.836909e+001 -3.343556e+000 6.535217e+000 -7.639472e+000 -2.417746e+000 -1.171829e+001 -6.759453e+000 -5.741062e-001 -7.135220e-001 -1.494184e+001 5.084211e+000 -6.829982e+000 7.625170e+001 -6.843336e-001 8.451749e-002 1.322110e-001 -4.784678e-001 5.688763e-001 -5.969432e-001 1.136172e-001 2.264637e-002 2.069219e-001 -3.667250e-001 7.046568e-002 1.836684e-001 1.153845e-001 5.484741e-001 9.147197e-002 -1.438137e-001 6.433301e-002 -2.066025e-001 -2.768940e-001 -9.755414e-002 -1.955298e-001 -2.253350e-001 2.039832e-001 -1.575860e-001 -9.594485e-002 1.624603e-002
<VARIANCE> 39
 2.209759e+001 1.315732e+001 2.326670e+001 2.820127e+001 3.122105e+001 3.049456e+001 2.930754e+001 3.525779e+001 3.274998e+001 2.946213e+001 2.789357e+001 3.091973e+001 1.055442e+001 2.500160e+000 7.650042e-001 1.345086e+000 1.244391e+000 1.557302e+000 2.226125e+000 1.625703e+000 2.206725e+000 2.274209e+000 2.239482e+000 2.270366e+000 1.811747e+000 2.404990e-001 1.508764e-001 1.642316e-001 2.049608e-001 2.437633e-001 3.295256e-001 3.687836e-001 3.380716e-001 4.417430e-001 3.868829e-001 4.094382e-001 3.843218e-001 3.621692e-001 4.628449e-002
<GCONST> 1.013340e+002
<STATE> 3
<MEAN> 39
 -1.400204e+001 -1.476777e+000 5.519808e+000 -9.135200e+000 -3.141283e+000 -2.004277e+001 -7.898897e+000 -3.459798e+000 -2.483219e+000 -1.440532e+001 3.097473e+000 -7.721465e+000 7.775509e+001 2.975971e+000 8.855744e-001 8.090251e-002 4.049592e-002 -1.107362e+000 -2.020156e+000 -5.196361e-001 -1.470194e+000 -7.570100e-001 5.615983e-001 -1.179984e-001 -8.466842e-001 7.290678e-001 7.823781e-003 -1.468464e-001 1.164034e-001 2.752802e-002 1.003027e-001 4.056013e-001 1.930243e-001 -3.054769e-002 3.204830e-002 1.095155e-001 2.072893e-001 5.420766e-002 -8.708071e-002
<VARIANCE> 39
 3.237839e+001 1.439060e+001 2.165528e+001 2.130180e+001 3.537263e+001 4.847490e+001 2.649760e+001 3.179070e+001 3.550741e+001 2.532563e+001 2.722378e+001 2.317432e+001 1.708718e+001 1.635357e+000 1.729408e+000 1.381586e+000 1.578603e+000 2.387166e+000 2.915571e+000 2.496382e+000 2.811283e+000 2.791003e+000 2.296196e+000 2.202184e+000 1.907240e+000 5.467640e-001 5.336291e-001 2.516567e-001 2.110579e-001 2.569546e-001 5.717726e-001 5.899158e-001 4.245394e-001 4.605213e-001 4.225737e-001 3.843778e-001 3.903708e-001 3.587113e-001 1.455991e-001
<GCONST> 1.092712e+002
<STATE> 4
<MEAN> 39
 -7.421337e+000 -3.598659e-001 7.125539e+000 -9.131570e+000 -2.734155e+000 -2.281946e+001 -6.374393e+000 -7.461750e+000 -5.342840e+000 -1.268595e+001 3.740088e+000 -8.932327e+000 7.753009e+001 6.832033e-001 -1.102995e-001 4.976662e-002 5.223144e-002 2.968456e-001 3.144175e-001 2.035510e-001 -3.782913e-001 -3.246987e-001 4.709731e-001 2.511501e-002 1.169660e-001 -4.376878e-001 -3.301461e-001 -1.384541e-001 -5.169693e-002 1.907592e-002 1.081040e-001 2.909236e-001 4.133949e-002 2.185887e-001 8.591920e-002 -1.170495e-003 -3.586955e-002 1.363737e-001 -1.107742e-001
<VARIANCE> 39
 1.601338e+001 1.989090e+001 2.639372e+001 2.635401e+001 4.835433e+001 5.389093e+001 3.629676e+001 4.296351e+001 4.500608e+001 2.393039e+001 3.386928e+001 2.963281e+001 1.765682e+001 9.984464e-001 1.083536e+000 1.170100e+000 1.193217e+000 2.209139e+000 2.201967e+000 1.986567e+000 3.044902e+000 2.700444e+000 2.031546e+000 1.942405e+000 1.672991e+000 4.014657e-001 2.354939e-001 2.055055e-001 2.116934e-001 2.197251e-001 4.080851e-001 4.960558e-001 3.622271e-001 5.617925e-001 4.955786e-001 3.977897e-001 3.515401e-001 3.328796e-001 9.386358e-002
<GCONST> 1.063091e+002
<TRANSP> 5
 0.000000e+000 1.000000e+000 0.000000e+000 0.000000e+000 0.000000e+000
 0.000000e+000 8.666312e-001 1.333687e-001 0.000000e+000 0.000000e+000
 0.000000e+000 0.000000e+000 6.403700e-001 3.596300e-001 0.000000e+000
 0.000000e+000 0.000000e+000 0.000000e+000 7.445112e-001 2.554888e-001
 0.000000e+000 0.000000e+000 0.000000e+000 0.000000e+000 0.000000e+000
<ENDHMM>
~h "X"
<BEGINHMM>
<NUMSTATES> 5
<STATE> 2
<MEAN> 39
 -7.421768e+000 -7.977659e+000 -4.231801e+000 -4.891039e+000 -2.481001e+000 -1.940891e+000 -1.047025e+001 -1.138697e+000 -2.687559e+000 -7.565650e+000 -5.174597e-001 -5.692108e+000 7.386771e+001 -4.490392e-001 -4.031240e-002 -3.427711e-001 -2.240798e-001 3.588004e-001 3.259100e-002 7.358361e-002 2.286190e-002 6.980202e-002 -1.670322e-001 -1.577822e-001 7.688922e-002 -1.856116e-001 2.788329e-001 1.025135e-001 8.119766e-002 -1.271669e-001 -4.312309e-001 -2.217945e-001 2.128771e-001 8.267039e-003 -1.271792e-001 4.284288e-002 -8.409433e-002 -1.487943e-001 6.605420e-002
<VARIANCE> 39
 8.375085e+000 1.432049e+001 1.410145e+001 2.231267e+001 2.603293e+001 3.466746e+001 3.006537e+001 3.233863e+001 2.894598e+001 3.207463e+001 3.093021e+001 2.372916e+001 1.044393e+001 6.769097e-001 8.153784e-001 1.323660e+000 1.552811e+000 2.087796e+000 2.207012e+000 2.135616e+000 2.130367e+000 2.113762e+000 2.013040e+000 2.104298e+000 1.685815e+000 2.585066e-001 1.192290e-001 1.439419e-001 2.444173e-001 2.540286e-001 3.652208e-001 4.012659e-001 3.844273e-001 4.308348e-001 3.897381e-001 3.910603e-001 4.130103e-001 3.363322e-001 5.898184e-002
<GCONST> 9.896051e+001
<STATE> 3
<MEAN> 39
 -7.901357e+000 -6.515263e+000 -5.151278e+000 -7.190636e+000 -3.917498e+000 -2.486509e+000 -7.293960e+000 -5.226399e-001 -3.302400e+000 -8.221653e+000 -2.507778e+000 -6.411448e+000 7.282569e+001 1.390329e+000 5.306874e-001 -6.759102e-002 -8.837956e-001 -1.920828e+000 -9.916039e-001 9.468483e-001 3.719398e-002 -2.468783e-001 3.263874e-001 -3.055669e-001 -7.221029e-001 5.734190e-001 6.208171e-001 5.489456e-002 1.735413e-001 3.007771e-002 -4.529252e-001 -3.124148e-001 -2.184161e-001 -2.142063e-001 -1.637305e-001 1.396833e-001 2.086181e-001 -9.743744e-002 3.024768e-001
<VARIANCE> 39
 1.093835e+001 1.844760e+001 1.747459e+001 2.785201e+001 2.667633e+001 3.181603e+001 2.885302e+001 3.079852e+001 2.295251e+001 3.444058e+001 3.163312e+001 2.137092e+001 1.503738e+001 2.158967e+000 1.090137e+000 1.736027e+000 1.844483e+000 2.942682e+000 2.455618e+000 2.704180e+000 2.473562e+000 2.414649e+000 2.285964e+000 2.102883e+000 2.039491e+000 9.140046e-001 2.360699e-001 2.088713e-001 2.350912e-001 3.484850e-001 4.268824e-001 4.014622e-001 3.668023e-001 4.152620e-001 4.074368e-001 4.414341e-001 4.326659e-001 3.377994e-001 1.227333e-001
<GCONST> 1.066835e+002
<STATE> 4
<MEAN> 39
 -2.036258e+000 -5.408718e+000 -5.031690e+000 -9.163088e+000 -1.010555e+001 -6.159846e+000 -6.653238e+000 -2.016472e+000 -4.196859e+000 -7.068149e+000 -2.477425e+000 -8.173303e+000 7.579794e+001 1.995224e+000 4.012521e-001 6.210445e-001 -1.893919e-001 -1.745927e+000 -1.080302e+000 -1.333369e-001 -8.419312e-001 -7.108993e-001 4.872536e-001 3.754057e-001 -3.776551e-001 6.974785e-001 -3.243152e-001 -8.265545e-002 2.769887e-001 4.128090e-001 5.414556e-001 1.842943e-001 -3.439521e-001 -9.648827e-002 -1.285357e-001 -7.358315e-002 2.211826e-001 2.135554e-001 -2.648435e-001
<VARIANCE> 39
 2.177136e+001 2.487012e+001 2.474588e+001 3.160851e+001 3.301363e+001 3.873712e+001 2.914826e+001 3.085135e+001 2.543120e+001 3.977840e+001 2.987489e+001 2.621086e+001 1.945274e+001 2.138721e+000 1.842173e+000 1.644478e+000 2.355011e+000 3.782541e+000 2.675655e+000 2.614133e+000 3.120259e+000 2.534813e+000 2.772321e+000 2.292731e+000 2.148939e+000 8.740011e-001 4.329310e-001 2.840838e-001 1.995661e-001 3.287340e-001 5.894683e-001 5.025106e-001 4.672427e-001 4.906956e-001 4.518174e-001 4.731048e-001 3.984216e-001 3.766868e-001 2.125913e-001
<GCONST> 1.131906e+002
<TRANSP> 5
 0.000000e+000 1.000000e+000 0.000000e+000 0.000000e+000 0.000000e+000
 0.000000e+000 8.140439e-001 1.859561e-001 0.000000e+000 0.000000e+000
 0.000000e+000 0.000000e+000 4.777070e-001 5.222931e-001 0.000000e+000
 0.000000e+000 0.000000e+000 0.000000e+000 4.843984e-001 5.156017e-001
 0.000000e+000 0.000000e+000 0.000000e+000 0.000000e+000 0.000000e+000
<ENDHMM>
~h "a"
<BEGINHMM>
<NUMSTATES> 5
<STATE> 2
<MEAN> 39
 2.458380e+000 -1.169026e+001 -4.908494e+000 -9.369092e+000 -1.187599e+001 -4.174753e+000 -7.472354e+000 2.128064e+000 -3.613907e+000 -5.564037e+000 -2.336293e+000 -1.440307e+001 7.733936e+001 7.990234e-002 -5.430626e-001 -1.956142e-001 -3.620266e-001 2.761088e-001 9.794306e-001 -3.448110e-002 4.242626e-001 3.567703e-001 -1.189964e-001 -3.588226e-001 -4.820624e-001 7.955599e-003 -3.133332e-001 4.102751e-001 3.335983e-001 3.244771e-001 2.339361e-001 -2.954299e-001 -1.969322e-001 -2.853514e-001 -3.069711e-001 -1.061356e-001 1.453897e-001 4.507919e-001 -2.577595e-001
<VARIANCE> 39
 1.263421e+001 3.129114e+001 2.218505e+001 3.265358e+001 3.154415e+001 6.380303e+001 5.321679e+001 5.620481e+001 5.225095e+001 4.139469e+001 4.606764e+001 4.044344e+001 8.686243e+000 8.292482e-001 1.651336e+000 1.408504e+000 1.923546e+000 2.074010e+000 3.485485e+000 2.721265e+000 3.778536e+000 3.374347e+000 2.626127e+000 2.526879e+000 2.564043e+000 5.108973e-001 1.612086e-001 1.997612e-001 2.215428e-001 2.813418e-001 3.698347e-001 5.067322e-001 4.850273e-001 6.138043e-001 5.621603e-001 4.857856e-001 4.360271e-001 3.848158e-001 1.021831e-001
<GCONST> 1.117610e+002
<STATE> 3
<MEAN> 39
 1.951897e+000 -1.124642e+001 -4.233006e+000 -9.643376e+000 -1.047866e+001 -3.789031e+000 -8.049383e+000 2.346632e+000 -4.269302e+000 -6.117669e+000 -2.987767e+000 -1.358484e+001 7.657343e+001 -4.069203e-001 6.600663e-001 6.083197e-001 3.385379e-001 5.067914e-001 -2.077513e-001 -5.566311e-001 -4.197656e-001 -3.245880e-001 -1.303746e-001 1.438690e-001 6.275464e-001 -4.464314e-001 -1.846886e-001 2.805238e-001 2.071833e-001 1.880825e-001 7.112172e-002 -2.278559e-001 -7.495105e-002 -2.203108e-001 -1.954161e-001 -1.025382e-002 1.553593e-001 1.979885e-001 -1.363173e-001
<VARIANCE> 39
 1.541331e+001 3.526819e+001 2.251066e+001 3.807477e+001 3.412467e+001 6.411266e+001 5.172658e+001 5.527907e+001 5.415788e+001 4.613800e+001 4.952006e+001 3.951412e+001 9.122424e+000 7.008585e-001 1.124536e+000 1.039994e+000 1.417297e+000 1.807830e+000 2.485307e+000 2.347070e+000 3.007008e+000 2.513588e+000 2.171437e+000 2.204703e+000 1.731893e+000 3.371158e-001 1.054733e-001 1.904901e-001 1.916934e-001 2.550183e-001 3.112652e-001 4.281233e-001 4.264692e-001 5.647000e-001 5.120447e-001 4.426258e-001 4.087411e-001 3.508472e-001 5.382080e-002
<GCONST> 1.068340e+002
<STATE> 4
<MEAN> 39
 -5.521609e-002 -8.021586e+000 -2.300721e+000 -8.180235e+000 -8.009676e+000 -5.054564e+000 -9.396152e+000 6.047077e-001 -5.006778e+000 -6.027009e+000 -2.761501e+000 -1.157585e+001 7.440604e+001 -7.547123e-001 9.120633e-001 5.860193e-001 6.385700e-001 5.743976e-001 -3.007614e-001 -2.016586e-001 -5.302725e-001 -3.567152e-001 -6.178865e-002 3.462938e-001 5.950698e-001 -6.481811e-001 -2.437296e-002 -6.394014e-002 -7.554425e-002 1.844718e-002 -1.104827e-001 -6.231647e-002 1.279573e-001 4.961011e-002 -1.049250e-002 -4.287340e-004 1.818393e-002 -5.242430e-002 4.595826e-002
<VARIANCE> 39
 1.946023e+001 2.826373e+001 2.228453e+001 3.492415e+001 3.866404e+001 5.103417e+001 4.863242e+001 4.665028e+001 5.297282e+001 4.335865e+001 4.673423e+001 3.213853e+001 1.142634e+001 8.052829e-001 1.076825e+000 1.306168e+000 1.359701e+000 1.694983e+000 2.036169e+000 2.510197e+000 2.986498e+000 2.875567e+000 2.297241e+000 2.182502e+000 1.714402e+000 3.184366e-001 8.391972e-002 1.744587e-001 1.795570e-001 2.486492e-001 3.020673e-001 4.039832e-001 4.459158e-001 5.095387e-001 4.856089e-001 4.411740e-001 4.194034e-001 3.104575e-001 5.080091e-002
<GCONST> 1.057191e+002
<TRANSP> 5
 0.000000e+000 1.000000e+000 0.000000e+000 0.000000e+000 0.000000e+000
 0.000000e+000 5.465578e-001 4.534422e-001 0.000000e+000 0.000000e+000
 0.000000e+000 0.000000e+000 4.308772e-001 5.691228e-001 0.000000e+000
 0.000000e+000 0.000000e+000 0.000000e+000 5.511994e-001 4.488005e-001
 0.000000e+000 0.000000e+000 0.000000e+000 0.000000e+000 0.000000e+000
<ENDHMM>
~h "b"
<BEGINHMM>
<NUMSTATES> 5
<STATE> 2
<MEAN> 39
 -1.562716e+000 -2.057838e+000 3.364017e+000 -2.269508e+000 -6.570648e+000 -7.849358e+000 -8.536362e+000 -1.682760e+000 -6.633379e+000 -6.476212e+000 1.326292e+000 -6.864094e+000 7.040250e+001 3.969283e-001 -8.126074e-001 -4.398288e-002 3.449412e-001 -1.386220e+000 -7.276753e-001 -1.188787e-001 5.626008e-001 4.354541e-001 5.194949e-002 3.543716e-001 4.032682e-001 5.310902e-001 2.568072e-001 -2.537601e-001 -9.504656e-002 -1.530339e-001 -5.892952e-001 -3.629009e-001 -3.397789e-001 -6.343023e-002 -1.690645e-001 -5.500865e-002 4.536662e-002 -1.786342e-002 3.089243e-001
<VARIANCE> 39
 1.654695e+001 3.360297e+001 1.854320e+001 3.759646e+001 6.123552e+001 4.204754e+001 3.516035e+001 3.693219e+001 4.131613e+001 2.851175e+001 3.449044e+001 2.795604e+001 1.725308e+001 1.034865e+000 2.142776e+000 1.094811e+000 1.601445e+000 4.792969e+000 3.344087e+000 3.129081e+000 2.902210e+000 2.997643e+000 2.579292e+000 2.688280e+000 1.832656e+000 1.355477e+000 2.176955e-001 3.372357e-001 2.265328e-001 3.266691e-001 7.724122e-001 6.475024e-001 6.567497e-001 4.239402e-001 5.739092e-001 4.643074e-001 5.290285e-001 3.254160e-001 2.375506e-001
<GCONST> 1.149350e+002
<STATE> 3
<MEAN> 39
 -1.075688e+000 -2.732859e+000 3.121521e+000 -2.152445e+000 -8.865797e+000 -9.129810e+000 -8.944796e+000 -1.734777e+000 -6.324058e+000 -6.720044e+000 1.287174e+000 -6.059197e+000 7.111060e+001 6.183709e-001 -8.405544e-001 -2.114688e-001 -3.666397e-002 -1.712732e+000 -9.524877e-001 -4.906786e-001 2.475209e-001 2.034130e-002 9.937882e-002 3.035676e-001 2.442356e-001 6.991115e-001 1.359365e-001 -5.600952e-002 -6.298863e-002 -2.068465e-001 -2.152517e-001 -7.248774e-002 -2.131610e-001 -8.659431e-002 -2.475861e-001 -4.803557e-002 -6.128922e-003 -1.078110e-001 1.576596e-001
<VARIANCE> 39
 1.730677e+001 3.559896e+001 1.910183e+001 3.407203e+001 6.003036e+001 3.642764e+001 3.730576e+001 4.286207e+001 3.942527e+001 3.439487e+001 3.694135e+001 2.704415e+001 1.877400e+001 1.081598e+000 1.940755e+000 1.583970e+000 2.349414e+000 4.545606e+000 3.808270e+000 3.029985e+000 3.046791e+000 3.541703e+000 3.128109e+000 2.670951e+000 1.890045e+000 1.061003e+000 2.440836e-001 3.357078e-001 2.223134e-001 3.076805e-001 8.147830e-001 5.783396e-001 6.014873e-001 5.387919e-001 6.246091e-001 4.467167e-001 5.076116e-001 3.177846e-001 2.452882e-001
<GCONST> 1.163411e+002
<STATE> 4
<MEAN> 39
 4.111968e-002 -3.694092e+000 2.310526e+000 -2.706304e+000 -1.179742e+001 -1.117788e+001 -9.845403e+000 -2.297983e+000 -6.458197e+000 -6.231227e+000 1.941499e+000 -5.451832e+000 7.231296e+001 8.817654e-001 -9.445365e-001 -2.522831e-001 -4.007005e-001 -1.860892e+000 -8.685169e-001 -7.231604e-001 3.137264e-001 -3.035571e-001 -1.976912e-002 3.547596e-001 -3.908195e-002 9.612402e-001 -1.025697e-001 1.423685e-001 6.512264e-002 -7.428600e-002 2.644665e-001 2.816799e-001 2.500552e-002 7.458355e-002 -1.314784e-001 -1.319514e-001 -1.154602e-001 -9.950583e-002 -8.252396e-002
<VARIANCE> 39
 1.627214e+001 3.503703e+001 1.841052e+001 3.576094e+001 4.788351e+001 3.917649e+001 3.511248e+001 4.726170e+001 3.285514e+001 3.969405e+001 3.698756e+001 2.588008e+001 1.792197e+001 1.360729e+000 2.096399e+000 2.165017e+000 3.152549e+000 3.849912e+000 3.892280e+000 3.118300e+000 3.847285e+000 4.386807e+000 3.426109e+000 2.930554e+000 2.109794e+000 1.054196e+000 2.031557e-001 2.625749e-001 2.173517e-001 2.945059e-001 6.929067e-001 5.492994e-001 4.522964e-001 6.059042e-001 5.825740e-001 5.297559e-001 5.533808e-001 3.138577e-001 1.859532e-001
<GCONST> 1.165840e+002
<TRANSP> 5
 0.000000e+000 1.000000e+000 0.000000e+000 0.000000e+000 0.000000e+000
 0.000000e+000 2.922767e-001 7.077233e-001 0.000000e+000 0.000000e+000
 0.000000e+000 0.000000e+000 1.717606e-001 8.282394e-001 0.000000e+000
 0.000000e+000 0.000000e+000 0.000000e+000 2.889776e-001 7.110224e-001
 0.000000e+000 0.000000e+000 0.000000e+000 0.000000e+000 0.000000e+000
<ENDHMM>
~h "d"
<BEGINHMM>
<NUMSTATES> 5
<STATE> 2
<MEAN> 39
 -1.746540e+000 -3.138277e+000 2.275079e+000 -1.165645e+000 -7.715423e+000 -8.883880e+000 -1.143766e+001 -7.635347e-001 -3.927473e+000 -5.469666e+000 3.023958e-001 -6.378951e+000 7.136230e+001 3.819953e-001 -4.931780e-001 -3.398324e-001 -1.765641e-002 -9.472103e-001 -5.617945e-001 -1.878259e-001 2.093431e-001 3.779254e-001 -9.913707e-002 1.312114e-001 -1.744179e-001 5.001708e-001 2.507121e-001 -2.244269e-001 -1.330902e-001 -3.014150e-001 -4.003981e-001 -1.235301e-001 -1.769845e-001 1.071487e-001 -1.622221e-001 -6.566915e-002 -2.632803e-002 -2.801768e-001 2.659434e-001
<VARIANCE> 39
 1.054467e+001 1.534113e+001 1.473125e+001 2.275982e+001 3.500311e+001 3.617800e+001 4.423535e+001 3.725496e+001 4.280824e+001 2.811652e+001 2.565958e+001 2.751019e+001 1.059252e+001 1.550458e+000 1.397704e+000 9.230195e-001 2.172359e+000 3.837091e+000 3.542524e+000 4.570732e+000 2.961792e+000 3.279763e+000 2.617145e+000 1.864162e+000 2.406906e+000 1.338786e+000 1.685725e-001 2.031469e-001 1.496367e-001 3.136384e-001 5.355963e-001 7.481228e-001 8.574563e-001 6.322970e-001 5.896848e-001 4.711460e-001 3.630160e-001 4.327673e-001 1.413911e-001
<GCONST> 1.107213e+002
<STATE> 3
<MEAN> 39
 -7.661794e-001 -3.889194e+000 1.370205e+000 -2.628183e+000 -9.380649e+000 -1.069318e+001 -1.256376e+001 -1.591010e-001 -4.283089e+000 -5.905991e+000 1.274189e-001 -7.720307e+000 7.244438e+001 3.423690e-001 -6.260129e-001 -3.600603e-001 -3.331527e-001 -9.416052e-001 -3.192701e-001 8.092169e-002 6.039392e-001 -1.713265e-001 -3.890426e-001 -2.802094e-002 -6.222488e-001 5.192634e-001 -1.068515e-002 -4.481971e-002 4.624993e-002 -5.660909e-002 6.586636e-004 1.918067e-001 1.348952e-001 -4.803154e-002 -3.993383e-001 -4.442958e-002 7.365588e-002 1.491840e-002 1.337644e-002
<VARIANCE> 39
 1.485972e+001 2.106081e+001 1.500473e+001 2.584098e+001 5.003235e+001 3.598037e+001 4.183422e+001 4.952316e+001 4.822551e+001 3.043785e+001 3.229098e+001 3.874292e+001 1.604332e+001 1.295706e+000 1.420996e+000 1.123569e+000 2.083541e+000 2.860127e+000 4.293427e+000 3.285062e+000 3.691172e+000 3.290649e+000 2.307077e+000 2.171639e+000 3.104678e+000 7.605895e-001 2.204334e-001 2.161324e-001 1.635099e-001 2.753237e-001 6.707147e-001 7.579090e-001 8.126526e-001 5.883554e-001 5.821028e-001 4.419486e-001 4.601507e-001 3.970433e-001 1.778154e-001
<GCONST> 1.134963e+002
<STATE> 4
<MEAN> 39
 -3.305719e-001 -5.472551e+000 4.470408e-001 -4.149115e+000 -1.063548e+001 -9.205153e+000 -1.211548e+001 1.520709e+000 -5.159644e+000 -6.485734e+000 -2.287223e-001 -9.455784e+000 7.317004e+001 1.823622e-001 -5.025710e-001 -2.697502e-001 -1.800890e-001 -6.817824e-001 -8.152746e-002 3.476554e-001 9.796283e-002 -8.154396e-001 -2.535309e-001 2.178510e-001 -1.866404e-001 4.234627e-001 -5.179339e-002 6.962304e-002 1.244354e-001 5.439241e-002 5.614873e-002 1.228187e-001 1.191172e-002 -2.097873e-001 -3.053888e-001 3.916957e-002 2.155292e-001 1.756542e-001 -5.192061e-002
<VARIANCE> 39
 1.684696e+001 3.696165e+001 2.193941e+001 3.833911e+001 6.193875e+001 6.382958e+001 4.932183e+001 6.866871e+001 5.471381e+001 3.316433e+001 3.516659e+001 5.356718e+001 1.854157e+001 1.106137e+000 1.448729e+000 1.258298e+000 2.012477e+000 3.059107e+000 4.546952e+000 3.210685e+000 3.630812e+000 3.016735e+000 2.246799e+000 2.714481e+000 2.737697e+000 5.213243e-001 2.150071e-001 2.221197e-001 2.037962e-001 2.755509e-001 6.896827e-001 6.828475e-001 6.324927e-001 5.461909e-001 5.802629e-001 5.137872e-001 4.761610e-001 4.638398e-001 1.564496e-001
<GCONST> 1.166653e+002
<TRANSP> 5
 0.000000e+000 1.000000e+000 0.000000e+000 0.000000e+000 0.000000e+000
 0.000000e+000 5.710461e-001 4.289539e-001 0.000000e+000 0.000000e+000
 0.000000e+000 0.000000e+000 1.657565e-001 8.342435e-001 0.000000e+000
 0.000000e+000 0.000000e+000 0.000000e+000 2.385166e-001 7.614834e-001
 0.000000e+000 0.000000e+000 0.000000e+000 0.000000e+000 0.000000e+000
<ENDHMM>
~h "e"
<BEGINHMM>
<NUMSTATES> 5
<STATE> 2
<MEAN> 39
 -2.882971e-002 -7.614727e+000 3.479076e+000 -2.069075e+000 -1.573661e+001 -1.755766e+001 -1.097386e+001 3.217584e+000 -7.773263e+000 -8.211672e+000 1.472035e+000 -7.890141e+000 7.609234e+001 5.474959e-002 -1.241421e-001 1.702500e-001 5.704986e-002 -2.378659e-002 1.506990e-001 -1.391397e-001 5.277405e-001 -1.061775e-002 2.821654e-002 8.598047e-002 1.748440e-001 -5.678498e-002 -3.421533e-001 2.785656e-001 -3.032118e-002 -1.751097e-002 5.515499e-001 4.920895e-001 1.014420e-001 -3.298213e-001 -9.423494e-002 1.315635e-001 -4.155666e-002 6.680711e-002 -2.869946e-001
<VARIANCE> 39
 1.604790e+001 3.432918e+001 2.363539e+001 3.352744e+001 6.950407e+001 5.125608e+001 4.329537e+001 7.965664e+001 5.624504e+001 3.752109e+001 4.422881e+001 3.301378e+001 1.081855e+001 1.025511e+000 1.604355e+000 1.279972e+000 1.342542e+000 3.410770e+000 2.811225e+000 2.514906e+000 4.295386e+000 3.123901e+000 2.518817e+000 2.961802e+000 2.240924e+000 6.799047e-001 1.716353e-001 2.573737e-001 2.071180e-001 2.435681e-001 5.066128e-001 5.260642e-001 4.519676e-001 6.776363e-001 5.651548e-001 4.998894e-001 4.948973e-001 4.314899e-001 1.088835e-001
<GCONST> 1.139220e+002
<STATE> 3
<MEAN> 39
 -7.610396e-001 -6.596766e+000 3.742980e+000 -2.174366e+000 -1.381255e+001 -1.644209e+001 -1.112746e+001 2.431118e+000 -7.862407e+000 -7.642845e+000 1.584797e+000 -7.425057e+000 7.526461e+001 -4.299259e-001 4.132797e-001 3.757805e-002 -1.632150e-002 8.638909e-001 9.232626e-001 5.513925e-002 -2.399407e-001 -8.188324e-002 3.274810e-001 -1.542852e-002 1.585630e-001 -4.858589e-001 -2.080137e-001 1.450708e-001 -9.007714e-002 -5.668601e-002 2.318779e-001 2.701635e-001 1.359445e-001 -2.298612e-001 -2.037000e-002 7.162166e-002 2.417495e-003 -1.353195e-002 -1.339893e-001
<VARIANCE> 39
 1.775585e+001 3.362629e+001 2.587656e+001 3.519817e+001 7.215836e+001 5.564734e+001 4.316032e+001 7.681956e+001 5.912105e+001 3.620859e+001 4.679619e+001 3.391123e+001 1.126758e+001 9.490003e-001 1.469133e+000 1.129064e+000 1.355264e+000 2.577642e+000 2.181018e+000 2.282884e+000 3.345507e+000 3.132274e+000 2.483580e+000 2.539027e+000 2.028565e+000 4.994798e-001 1.228465e-001 2.294439e-001 2.018558e-001 2.427979e-001 4.649296e-001 4.223353e-001 4.470807e-001 6.684774e-001 5.799101e-001 4.766310e-001 5.089535e-001 3.847228e-001 8.287292e-002
<GCONST> 1.114348e+002
<STATE> 4
<MEAN> 39
 -2.049641e+000 -5.563115e+000 3.663822e+000 -2.315927e+000 -1.216925e+001 -1.443786e+001 -1.062999e+001 1.656865e+000 -7.316397e+000 -6.918987e+000 1.456196e+000 -7.244291e+000 7.398892e+001 -5.527556e-001 4.069609e-001 -2.121220e-001 -1.051482e-001 8.310420e-001 9.832606e-001 2.721011e-001 -4.238640e-001 1.638455e-002 2.844400e-001 4.005194e-002 7.885294e-002 -5.026664e-001 -1.618175e-002 -5.278594e-002 -1.024834e-001 -2.307286e-002 -1.133988e-001 -6.283823e-002 6.049822e-002 -5.988803e-002 -3.841030e-002 -4.084238e-002 1.271632e-002 -1.696340e-002 4.908970e-002
<VARIANCE> 39
 2.040151e+001 3.138303e+001 2.640296e+001 3.445828e+001 6.590746e+001 5.120095e+001 4.362452e+001 7.262866e+001 6.303920e+001 3.802710e+001 4.413479e+001 3.734247e+001 1.348677e+001 1.051561e+000 1.283507e+000 1.185077e+000 1.391158e+000 2.284109e+000 2.072548e+000 2.464610e+000 3.024376e+000 3.162287e+000 2.465657e+000 2.494812e+000 2.039308e+000 4.266517e-001 9.759320e-002 2.134207e-001 1.882937e-001 2.266346e-001 3.798622e-001 3.545472e-001 4.539566e-001 6.062524e-001 5.155160e-001 4.867066e-001 4.487540e-001 3.523086e-001 7.375672e-002
<GCONST> 1.099657e+002
<TRANSP> 5
 0.000000e+000 1.000000e+000 0.000000e+000 0.000000e+000 0.000000e+000
 0.000000e+000 3.260833e-001 6.739167e-001 0.000000e+000 0.000000e+000
 0.000000e+000 0.000000e+000 2.097238e-001 7.902762e-001 0.000000e+000
 0.000000e+000 0.000000e+000 0.000000e+000 3.518941e-001 6.481060e-001
 0.000000e+000 0.000000e+000 0.000000e+000 0.000000e+000 0.000000e+000
<ENDHMM>
~h "f"
<BEGINHMM>
<NUMSTATES> 5
<STATE> 2
<MEAN> 39
 -1.118921e+001 -5.029386e+000 -1.498994e+000 1.885157e+000 -6.706601e+000 -9.019524e+000 -8.281418e+000 2.304482e+000 -7.277493e+000 -5.184518e+000 7.073953e-001 -4.771885e+000 7.121788e+001 -1.863379e-001 -9.163645e-002 -1.888442e-001 -3.794212e-001 -3.575658e-001 -1.202804e-001 7.322168e-003 -2.581945e-001 -1.871307e-001 -1.617942e-001 -3.026735e-001 5.672006e-002 -2.668904e-002 5.130575e-001 1.790247e-001 -2.582654e-003 -3.046404e-001 -2.837821e-001 -1.570882e-001 -2.382397e-002 -2.950323e-001 -1.376825e-001 1.091629e-002 4.010056e-002 -1.573170e-001 1.910278e-001
<VARIANCE> 39
 7.456671e+000 9.750249e+000 9.597570e+000 2.054042e+001 1.879853e+001 2.499949e+001 3.520602e+001 1.985405e+001 2.656712e+001 2.007723e+001 2.030169e+001 1.378888e+001 7.596594e+000 1.886207e+000 1.073714e+000 9.532555e-001 2.475897e+000 1.633233e+000 2.028413e+000 1.771954e+000 2.445565e+000 2.215692e+000 1.815311e+000 1.828224e+000 1.566293e+000 4.006992e-001 1.818341e-001 1.814589e-001 2.077810e-001 3.922226e-001 3.172368e-001 3.999748e-001 3.798667e-001 4.359362e-001 3.863840e-001 3.916127e-001 4.089231e-001 3.070535e-001 7.039955e-002
<GCONST> 9.725105e+001
<STATE> 3
<MEAN> 39
 -8.469622e+000 -3.576818e+000 -3.117229e+000 -4.170004e+000 -1.045069e+001 -9.828327e+000 -6.858755e+000 -1.200098e+000 -8.917583e+000 -5.163745e+000 -1.213914e+000 -6.463065e+000 7.317308e+001 2.572695e+000 5.911565e-001 4.812992e-002 -1.408022e+000 -1.880242e+000 -8.635524e-001 -1.348251e-001 -1.526730e+000 -8.471363e-001 -7.866300e-002 4.787494e-001 -5.960951e-001 1.305733e+000 2.503939e-001 -1.712145e-001 2.034826e-001 3.513099e-001 3.820748e-002 -1.057968e-002 -1.654463e-001 1.680621e-001 6.844568e-002 -8.717754e-002 2.418285e-001 -9.037791e-002 3.616795e-002
<VARIANCE> 39
 3.056181e+001 1.132124e+001 2.205746e+001 4.042702e+001 2.062076e+001 2.672040e+001 2.655733e+001 2.514647e+001 2.201542e+001 2.144212e+001 2.029223e+001 1.679748e+001 1.380853e+001 3.849663e+000 1.396613e+000 2.923812e+000 4.838289e+000 2.507795e+000 4.259403e+000 2.420913e+000 2.864963e+000 2.792614e+000 3.366517e+000 2.936923e+000 1.775821e+000 9.678277e-001 2.915098e-001 2.679814e-001 2.074644e-001 3.439800e-001 3.598090e-001 3.909145e-001 3.750440e-001 3.755261e-001 2.861474e-001 4.237296e-001 4.221915e-001 3.063963e-001 1.023185e-001
<GCONST> 1.086971e+002
<STATE> 4
<MEAN> 39
 -2.232914e+000 -3.724295e+000 -2.861091e+000 -5.303736e+000 -1.422248e+001 -1.000807e+001 -6.832054e+000 -4.147149e+000 -1.093646e+001 -5.660658e+000 6.738225e-001 -7.727500e+000 7.632526e+001 1.843045e+000 -2.521263e-001 4.778776e-001 -3.428241e-001 -9.784753e-001 -2.871015e-001 -4.185785e-001 -4.861747e-001 -1.046560e-001 -3.854831e-001 3.862289e-001 -6.023340e-001 6.331972e-001 -6.610402e-001 -2.874367e-001 2.081528e-001 3.939895e-001 6.167778e-001 2.764049e-001 -9.111514e-002 5.972161e-001 3.922888e-001 -4.638427e-002 -9.289690e-002 8.219072e-002 -3.797944e-001
<VARIANCE> 39
 3.808504e+001 1.487905e+001 3.623460e+001 6.103483e+001 3.425754e+001 4.928610e+001 4.266525e+001 3.542226e+001 3.221963e+001 3.084332e+001 3.070011e+001 2.263110e+001 1.579134e+001 2.416258e+000 1.594705e+000 1.702860e+000 2.338550e+000 3.222878e+000 4.090697e+000 2.771056e+000 2.016788e+000 3.536902e+000 3.305296e+000 2.024741e+000 1.682511e+000 8.748499e-001 3.590285e-001 2.453969e-001 2.896195e-001 4.592228e-001 2.648806e-001 6.074386e-001 5.427009e-001 5.618839e-001 4.872136e-001 4.160076e-001 5.112999e-001 3.113740e-001 1.350313e-001
<GCONST> 1.143594e+002
<TRANSP> 5
 0.000000e+000 1.000000e+000 0.000000e+000 0.000000e+000 0.000000e+000
 0.000000e+000 8.314391e-001 1.685608e-001 0.000000e+000 0.000000e+000
 0.000000e+000 0.000000e+000 2.637680e-001 7.362319e-001 0.000000e+000
 0.000000e+000 0.000000e+000 0.000000e+000 4.137932e-001 5.862069e-001
 0.000000e+000 0.000000e+000 0.000000e+000 0.000000e+000 0.000000e+000
<ENDHMM>
~h "g"
<BEGINHMM>
<NUMSTATES> 5
<STATE> 2
<MEAN> 39
 -4.134134e+000 -3.141115e+000 3.148189e+000 4.642563e+000 -8.377454e+000 -1.403661e+001 -5.071317e+000 -1.367560e+000 -1.223012e+001 -6.297588e+000 1.690781e+000 -4.599822e+000 7.193099e+001 7.196115e-001 -1.296577e+000 9.467153e-002 4.808421e-001 -1.791614e+000 -1.675050e+000 8.454758e-002 9.793292e-001 -4.320102e-001 -1.434161e-001 1.498166e-001 8.264820e-002 8.885451e-001 2.864433e-001 2.857529e-002 -5.522852e-002 -4.521386e-001 -2.185513e-001 -8.407078e-003 -5.241257e-001 3.474145e-002 4.395523e-002 -2.335272e-001 9.470080e-002 -2.871416e-001 1.638709e-001
<VARIANCE> 39
 1.737712e+001 2.916039e+001 1.823031e+001 2.820949e+001 4.102974e+001 6.256023e+001 4.779955e+001 3.553822e+001 4.314588e+001 2.188417e+001 2.896120e+001 2.351147e+001 1.503309e+001 1.749482e+000 2.924758e+000 1.776354e+000 2.979588e+000 2.612042e+000 4.447893e+000 4.627715e+000 3.979584e+000 5.025318e+000 2.685028e+000 2.840413e+000 2.348303e+000 6.296092e-001 1.924923e-001 5.470470e-001 3.422957e-001 4.471531e-001 5.974641e-001 1.040917e+000 6.609800e-001 8.897389e-001 1.041675e+000 5.904039e-001 5.554711e-001 3.751802e-001 1.708672e-001
<GCONST> 1.192669e+002
<STATE> 3
<MEAN> 39
 -9.005101e-002 -5.822539e+000 2.640842e+000 2.525448e+000 -1.346484e+001 -1.703343e+001 -8.670378e+000 6.590489e-001 -1.231655e+001 -7.491415e+000 2.625320e+000 -6.193847e+000 7.434705e+001 7.899725e-001 -9.177356e-001 -4.123812e-001 -1.130006e+000 -1.172166e+000 8.708777e-002 -8.837498e-001 1.411165e+000 7.427372e-001 -7.424504e-001 1.354316e-001 -1.189788e+000 6.184217e-001 -1.725768e-001 8.410576e-002 -1.631774e-001 -4.092354e-001 4.288445e-001 7.953146e-001 9.692167e-002 -5.100970e-002 2.029357e-001 1.141962e-001 -1.631936e-001 -2.942410e-001 -1.229859e-001
<VARIANCE> 39
 1.434757e+001 2.734443e+001 1.628980e+001 2.556493e+001 4.327249e+001 6.187571e+001 3.679816e+001 6.331437e+001 6.061852e+001 2.545734e+001 3.316704e+001 2.669946e+001 1.464469e+001 1.186355e+000 1.732444e+000 2.067605e+000 3.829248e+000 2.672091e+000 5.883709e+000 3.587636e+000 4.179723e+000 6.310260e+000 2.970065e+000 3.321867e+000 3.281040e+000 4.846831e-001 1.569486e-001 3.134785e-001 2.471322e-001 2.649410e-001 5.483387e-001 8.268439e-001 6.251622e-001 7.584000e-001 1.038813e+000 5.643204e-001 6.101191e-001 4.762337e-001 8.299840e-002
<GCONST> 1.174524e+002
<STATE> 4
<MEAN> 39
 1.088473e+000 -8.742993e+000 8.463357e-001 -3.098660e+000 -1.444262e+001 -1.193100e+001 -9.077396e+000 3.435192e+000 -1.150923e+001 -7.781517e+000 2.245973e+000 -9.521644e+000 7.539112e+001 2.221090e-001 -5.415133e-001 -4.216585e-001 -1.370125e+000 -2.128232e-001 1.247513e+000 -3.397519e-001 6.609555e-001 2.963792e-001 -6.354570e-002 -1.666765e-001 -1.057135e+000 3.121456e-001 -1.803135e-001 2.582550e-001 1.166573e-001 9.309006e-002 4.114408e-001 2.728729e-001 5.219753e-002 -3.879226e-001 -9.764709e-002 1.858873e-001 -1.115817e-001 1.694201e-001 -1.635132e-001
<VARIANCE> 39
 1.725261e+001 5.304090e+001 2.207333e+001 9.285159e+001 4.633242e+001 1.135914e+002 4.403187e+001 7.331533e+001 5.902172e+001 3.301035e+001 5.299936e+001 4.026086e+001 1.491065e+001 7.282373e-001 1.334058e+000 1.453164e+000 2.476679e+000 2.602995e+000 7.922509e+000 2.867802e+000 3.567540e+000 6.004549e+000 3.665051e+000 3.376621e+000 3.267161e+000 3.604793e-001 1.275649e-001 2.946420e-001 2.645521e-001 4.296644e-001 4.504277e-001 8.897958e-001 6.695144e-001 7.239761e-001 8.470551e-001 5.418980e-001 5.248284e-001 6.519126e-001 6.216249e-002
<GCONST> 1.200643e+002
<TRANSP> 5
 0.000000e+000 1.000000e+000 0.000000e+000 0.000000e+000 0.000000e+000
 0.000000e+000 6.608895e-001 3.391105e-001 0.000000e+000 0.000000e+000
 0.000000e+000 0.000000e+000 2.366865e-001 7.633135e-001 0.000000e+000
 0.000000e+000 0.000000e+000 0.000000e+000 2.925423e-001 7.074577e-001
 0.000000e+000 0.000000e+000 0.000000e+000 0.000000e+000 0.000000e+000
<ENDHMM>
~h "h"
<BEGINHMM>
<NUMSTATES> 5
<STATE> 2
<MEAN> 39
 7.338234e-001 -8.921264e+000 -7.177780e-002 -7.078000e+000 -1.263721e+001 -1.036320e+001 -8.564855e+000 1.986811e+000 -6.588014e+000 -5.277420e+000 -1.382542e+000 -9.924478e+000 7.574978e+001 3.427284e-001 -2.447724e-001 -2.286270e-001 -2.091222e-001 -1.203076e-001 3.030203e-001 2.966557e-001 3.589419e-001 5.039433e-001 2.789631e-001 -3.420824e-001 -2.462718e-001 2.245562e-001 -1.436806e-001 1.389485e-001 8.879463e-002 1.528374e-001 1.753329e-001 7.409862e-002 -3.480409e-002 -1.081477e-001 -5.550528e-002 -6.404681e-002 9.062976e-002 1.092608e-001 -1.361032e-001
<VARIANCE> 39
 1.744810e+001 3.938177e+001 3.342017e+001 4.346934e+001 5.632725e+001 6.176624e+001 6.085152e+001 7.142980e+001 6.337809e+001 3.982953e+001 6.287568e+001 4.019331e+001 1.238770e+001 1.529608e+000 1.822634e+000 2.050276e+000 2.120209e+000 3.219912e+000 2.780968e+000 3.324890e+000 3.835730e+000 3.184064e+000 3.097834e+000 2.866546e+000 2.571018e+000 9.114702e-001 1.633447e-001 2.491554e-001 2.807866e-001 2.844370e-001 5.170876e-001 5.184364e-001 5.260164e-001 6.239254e-001 5.209509e-001 5.070416e-001 4.877278e-001 4.303409e-001 1.395139e-001
<GCONST> 1.186126e+002
<STATE> 3
<MEAN> 39
 8.826463e-001 -8.792086e+000 -3.467984e-001 -6.821301e+000 -1.229737e+001 -9.784746e+000 -8.206410e+000 1.989950e+000 -5.776895e+000 -4.823540e+000 -1.073938e+000 -9.645025e+000 7.555580e+001 6.548354e-002 -8.224668e-002 -1.686626e-001 2.909244e-003 1.006974e-001 3.916146e-001 1.790814e-001 1.786845e-001 2.856814e-001 1.249983e-001 -7.695515e-002 -6.418914e-002 9.806707e-003 -2.207372e-001 1.987097e-001 1.166441e-001 1.668468e-001 2.109595e-001 1.456771e-002 -9.212334e-002 -1.520960e-001 -1.584195e-001 -1.238154e-001 1.208432e-001 1.282592e-001 -1.714244e-001
<VARIANCE> 39
 1.861591e+001 3.440483e+001 3.260733e+001 4.426832e+001 5.631039e+001 6.051473e+001 5.257227e+001 7.046253e+001 5.945778e+001 3.713915e+001 6.123689e+001 4.061982e+001 1.132578e+001 1.122003e+000 1.609309e+000 1.494409e+000 1.920661e+000 2.646123e+000 2.547318e+000 2.684508e+000 3.367828e+000 2.970496e+000 2.629384e+000 2.403794e+000 2.051632e+000 7.623354e-001 2.117361e-001 2.887217e-001 2.921218e-001 2.841311e-001 5.321102e-001 4.883115e-001 5.387107e-001 6.338898e-001 5.257986e-001 5.064900e-001 4.736551e-001 4.706498e-001 1.460080e-001
<GCONST> 1.163924e+002
<STATE> 4
<MEAN> 39
 6.183777e-001 -8.684711e+000 -5.065222e-001 -6.604261e+000 -1.190177e+001 -9.114274e+000 -8.098255e+000 1.983255e+000 -5.513988e+000 -4.874291e+000 -1.082615e+000 -9.746529e+000 7.528107e+001 -2.199047e-001 2.080332e-001 -5.534446e-002 1.930744e-001 4.100212e-001 3.957299e-001 4.992949e-002 -4.911264e-002 3.609072e-002 1.952215e-003 4.243070e-002 7.856338e-002 -2.179795e-001 -2.117165e-001 2.182477e-001 1.442361e-001 1.471372e-001 1.540293e-001 -7.765820e-002 -1.208480e-001 -1.515377e-001 -1.940449e-001 -9.245014e-002 1.267435e-001 1.259580e-001 -1.439854e-001
<VARIANCE> 39
 1.926329e+001 3.528144e+001 3.308663e+001 4.597120e+001 5.381427e+001 5.493744e+001 4.972248e+001 7.121180e+001 5.366103e+001 3.697261e+001 6.130747e+001 3.919828e+001 1.142819e+001 9.221298e-001 1.456827e+000 1.282232e+000 1.668063e+000 2.529290e+000 2.390038e+000 2.650571e+000 3.042410e+000 2.716170e+000 2.336490e+000 2.167691e+000 2.050632e+000 6.288780e-001 2.004073e-001 3.124300e-001 2.599528e-001 2.887663e-001 4.821047e-001 4.392968e-001 5.177081e-001 6.397526e-001 5.539157e-001 5.032195e-001 4.913133e-001 4.440042e-001 1.282575e-001
<GCONST> 1.144501e+002
<TRANSP> 5
 0.000000e+000 1.000000e+000 0.000000e+000 0.000000e+000 0.000000e+000
 0.000000e+000 1.056071e-001 8.943929e-001 0.000000e+000 0.000000e+000
 0.000000e+000 0.000000e+000 5.653485e-002 9.434651e-001 0.000000e+000
 0.000000e+000 0.000000e+000 0.000000e+000 7.925671e-002 9.207433e-001
 0.000000e+000 0.000000e+000 0.000000e+000 0.000000e+000 0.000000e+000
<ENDHMM>
~h "?"
<BEGINHMM>
<NUMSTATES> 5
<STATE> 2
<MEAN> 39
 7.338234e-001 -8.921264e+000 -7.177780e-002 -7.078000e+000 -1.263721e+001 -1.036320e+001 -8.564855e+000 1.986811e+000 -6.588014e+000 -5.277420e+000 -1.382542e+000 -9.924478e+000 7.574978e+001 3.427284e-001 -2.447724e-001 -2.286270e-001 -2.091222e-001 -1.203076e-001 3.030203e-001 2.966557e-001 3.589419e-001 5.039433e-001 2.789631e-001 -3.420824e-001 -2.462718e-001 2.245562e-001 -1.436806e-001 1.389485e-001 8.879463e-002 1.528374e-001 1.753329e-001 7.409862e-002 -3.480409e-002 -1.081477e-001 -5.550528e-002 -6.404681e-002 9.062976e-002 1.092608e-001 -1.361032e-001
<VARIANCE> 39
 1.744810e+001 3.938177e+001 3.342017e+001 4.346934e+001 5.632725e+001 6.176624e+001 6.085152e+001 7.142980e+001 6.337809e+001 3.982953e+001 6.287568e+001 4.019331e+001 1.238770e+001 1.529608e+000 1.822634e+000 2.050276e+000 2.120209e+000 3.219912e+000 2.780968e+000 3.324890e+000 3.835730e+000 3.184064e+000 3.097834e+000 2.866546e+000 2.571018e+000 9.114702e-001 1.633447e-001 2.491554e-001 2.807866e-001 2.844370e-001 5.170876e-001 5.184364e-001 5.260164e-001 6.239254e-001 5.209509e-001 5.070416e-001 4.877278e-001 4.303409e-001 1.395139e-001
<GCONST> 1.186126e+002
<STATE> 3
<MEAN> 39
 8.826463e-001 -8.792086e+000 -3.467984e-001 -6.821301e+000 -1.229737e+001 -9.784746e+000 -8.206410e+000 1.989950e+000 -5.776895e+000 -4.823540e+000 -1.073938e+000 -9.645025e+000 7.555580e+001 6.548354e-002 -8.224668e-002 -1.686626e-001 2.909244e-003 1.006974e-001 3.916146e-001 1.790814e-001 1.786845e-001 2.856814e-001 1.249983e-001 -7.695515e-002 -6.418914e-002 9.806707e-003 -2.207372e-001 1.987097e-001 1.166441e-001 1.668468e-001 2.109595e-001 1.456771e-002 -9.212334e-002 -1.520960e-001 -1.584195e-001 -1.238154e-001 1.208432e-001 1.282592e-001 -1.714244e-001
<VARIANCE> 39
 1.861591e+001 3.440483e+001 3.260733e+001 4.426832e+001 5.631039e+001 6.051473e+001 5.257227e+001 7.046253e+001 5.945778e+001 3.713915e+001 6.123689e+001 4.061982e+001 1.132578e+001 1.122003e+000 1.609309e+000 1.494409e+000 1.920661e+000 2.646123e+000 2.547318e+000 2.684508e+000 3.367828e+000 2.970496e+000 2.629384e+000 2.403794e+000 2.051632e+000 7.623354e-001 2.117361e-001 2.887217e-001 2.921218e-001 2.841311e-001 5.321102e-001 4.883115e-001 5.387107e-001 6.338898e-001 5.257986e-001 5.064900e-001 4.736551e-001 4.706498e-001 1.460080e-001
<GCONST> 1.163924e+002
<STATE> 4
<MEAN> 39
 6.183777e-001 -8.684711e+000 -5.065222e-001 -6.604261e+000 -1.190177e+001 -9.114274e+000 -8.098255e+000 1.983255e+000 -5.513988e+000 -4.874291e+000 -1.082615e+000 -9.746529e+000 7.528107e+001 -2.199047e-001 2.080332e-001 -5.534446e-002 1.930744e-001 4.100212e-001 3.957299e-001 4.992949e-002 -4.911264e-002 3.609072e-002 1.952215e-003 4.243070e-002 7.856338e-002 -2.179795e-001 -2.117165e-001 2.182477e-001 1.442361e-001 1.471372e-001 1.540293e-001 -7.765820e-002 -1.208480e-001 -1.515377e-001 -1.940449e-001 -9.245014e-002 1.267435e-001 1.259580e-001 -1.439854e-001
<VARIANCE> 39
 1.926329e+001 3.528144e+001 3.308663e+001 4.597120e+001 5.381427e+001 5.493744e+001 4.972248e+001 7.121180e+001 5.366103e+001 3.697261e+001 6.130747e+001 3.919828e+001 1.142819e+001 9.221298e-001 1.456827e+000 1.282232e+000 1.668063e+000 2.529290e+000 2.390038e+000 2.650571e+000 3.042410e+000 2.716170e+000 2.336490e+000 2.167691e+000 2.050632e+000 6.288780e-001 2.004073e-001 3.124300e-001 2.599528e-001 2.887663e-001 4.821047e-001 4.392968e-001 5.177081e-001 6.397526e-001 5.539157e-001 5.032195e-001 4.913133e-001 4.440042e-001 1.282575e-001
<GCONST> 1.144501e+002
<TRANSP> 5
 0.000000e+000 1.000000e+000 0.000000e+000 0.000000e+000 0.000000e+000
 0.000000e+000 1.056071e-001 8.943929e-001 0.000000e+000 0.000000e+000
 0.000000e+000 0.000000e+000 5.653485e-002 9.434651e-001 0.000000e+000
 0.000000e+000 0.000000e+000 0.000000e+000 7.925671e-002 9.207433e-001
 0.000000e+000 0.000000e+000 0.000000e+000 0.000000e+000 0.000000e+000
<ENDHMM>
~h "i"
<BEGINHMM>
<NUMSTATES> 5
<STATE> 2
<MEAN> 39
 -1.718616e+000 -3.657629e+000 8.109817e+000 3.491751e+000 -1.617244e+001 -1.912722e+001 -8.180310e+000 -1.348782e+000 -1.781272e+001 -8.903099e+000 4.573904e+000 -6.844237e+000 7.367019e+001 7.161613e-001 2.456062e-002 1.167203e+000 4.469070e-001 -1.385619e+000 -8.945833e-001 -3.743335e-001 3.347240e-002 -1.799661e+000 -3.459306e-001 9.859077e-001 -3.297819e-001 3.607287e-001 -2.611854e-001 1.341010e-002 -3.287613e-001 -3.381217e-001 4.797340e-001 6.348140e-001 -1.217031e-001 1.417144e-002 5.287278e-001 2.640668e-001 -1.946561e-001 -4.969887e-002 -2.381051e-001
<VARIANCE> 39
 1.901191e+001 2.141584e+001 2.516562e+001 2.461642e+001 4.488433e+001 4.675117e+001 4.263345e+001 3.823895e+001 6.374709e+001 3.293039e+001 3.192006e+001 2.599059e+001 9.993538e+000 1.624079e+000 1.444474e+000 2.014838e+000 1.503412e+000 3.797863e+000 3.290234e+000 2.902317e+000 3.603271e+000 4.165112e+000 3.190018e+000 2.725451e+000 2.258744e+000 5.953255e-001 1.908442e-001 2.303132e-001 2.845064e-001 2.412904e-001 6.388614e-001 5.697634e-001 4.714972e-001 6.276863e-001 7.263370e-001 5.480649e-001 4.645441e-001 3.914606e-001 1.044565e-001
<GCONST> 1.136360e+002
<STATE> 3
<MEAN> 39
 -9.485373e-001 -4.612524e+000 1.040149e+001 2.363084e+000 -1.925199e+001 -1.748566e+001 -1.032040e+001 9.035894e-001 -2.127156e+001 -7.211812e+000 5.951952e+000 -9.109938e+000 7.361443e+001 -1.388472e-001 1.649104e-001 -9.860674e-002 -3.198030e-001 5.682073e-001 6.616482e-001 -4.258738e-001 8.717640e-002 2.073356e-001 2.111810e-001 -2.428523e-001 -1.531733e-001 -2.765371e-001 -1.793561e-001 9.388915e-002 -3.244987e-001 -1.462484e-001 5.368567e-001 3.061963e-001 2.324718e-002 -1.352409e-001 5.185312e-001 7.622740e-002 -3.204922e-001 1.012570e-001 -1.322856e-001
<VARIANCE> 39
 1.511223e+001 2.421127e+001 2.800120e+001 2.362260e+001 5.452802e+001 4.891843e+001 4.576373e+001 5.424258e+001 7.348459e+001 4.390707e+001 4.278687e+001 3.628636e+001 7.161796e+000 6.650198e-001 9.783919e-001 1.072001e+000 1.284629e+000 2.839643e+000 2.155942e+000 2.392070e+000 3.024136e+000 2.932107e+000 2.694515e+000 2.297289e+000 1.922509e+000 3.397767e-001 1.119021e-001 1.727470e-001 2.040347e-001 2.359704e-001 4.506382e-001 5.348978e-001 4.701205e-001 6.178641e-001 5.471826e-001 5.246493e-001 4.859845e-001 3.687632e-001 5.523471e-002
<GCONST> 1.078272e+002
<STATE> 4
<MEAN> 39
 -2.799464e+000 -2.148844e+000 8.711118e+000 2.015564e+000 -1.312379e+001 -1.457311e+001 -1.046381e+001 -1.418280e+000 -1.661224e+001 -7.171181e+000 3.528616e+000 -7.998538e+000 7.136936e+001 -4.423102e-001 2.964144e-001 -6.041602e-001 -3.022677e-001 1.216668e+000 8.788115e-001 3.557474e-002 -3.895314e-001 1.052657e+000 1.947791e-001 -4.605004e-001 1.293485e-001 -4.394723e-001 -1.248392e-002 -1.109167e-001 -1.199969e-001 -3.852768e-002 -1.076236e-001 -1.908306e-003 1.163645e-001 -1.292518e-002 5.183211e-002 4.530144e-003 3.519415e-002 1.035949e-002 5.684130e-002
<VARIANCE> 39
 1.992447e+001 2.357508e+001 2.655529e+001 2.430697e+001 4.927365e+001 3.675116e+001 4.531371e+001 4.456219e+001 6.058171e+001 3.269764e+001 3.409221e+001 3.103430e+001 1.276075e+001 8.281071e-001 1.046873e+000 1.161351e+000 1.311828e+000 2.049166e+000 2.546598e+000 2.370356e+000 2.995535e+000 2.879329e+000 2.236542e+000 2.235367e+000 1.638810e+000 4.044482e-001 8.208762e-002 1.511775e-001 1.755626e-001 2.251339e-001 3.759795e-001 4.015176e-001 4.178645e-001 4.897170e-001 4.617814e-001 4.088825e-001 4.317123e-001 3.143558e-001 5.337327e-002
<GCONST> 1.049674e+002
<TRANSP> 5
 0.000000e+000 1.000000e+000 0.000000e+000 0.000000e+000 0.000000e+000
 0.000000e+000 4.928812e-001 5.071188e-001 0.000000e+000 0.000000e+000
 0.000000e+000 0.000000e+000 5.647143e-001 4.352857e-001 0.000000e+000
 0.000000e+000 0.000000e+000 0.000000e+000 6.451927e-001 3.548072e-001
 0.000000e+000 0.000000e+000 0.000000e+000 0.000000e+000 0.000000e+000
<ENDHMM>
~h "j"
<BEGINHMM>
<NUMSTATES> 5
<STATE> 2
<MEAN> 39
 6.998868e-001 -8.210493e+000 7.540794e+000 5.538211e-001 -1.969457e+001 -1.599866e+001 -1.155079e+001 3.837432e+000 -1.450434e+001 -8.522423e+000 4.799116e+000 -6.026288e+000 7.518532e+001 8.668604e-002 -2.070106e-001 -1.137713e-001 -2.925177e-001 -2.198398e-001 2.721625e-001 -3.164708e-001 5.299045e-001 -2.327922e-002 2.948927e-001 -1.052210e-001 4.220296e-002 1.188055e-002 -5.939021e-002 -3.711864e-003 -3.898972e-001 -2.816263e-001 4.342662e-001 3.311602e-001 7.999796e-002 -5.765377e-002 5.169194e-001 1.312964e-001 -3.939511e-001 -1.444757e-001 -3.086464e-002
<VARIANCE> 39
 1.065250e+001 2.975096e+001 2.364301e+001 2.738284e+001 5.108732e+001 3.984959e+001 3.752774e+001 5.821608e+001 8.551084e+001 3.514289e+001 3.758640e+001 2.878948e+001 8.023653e+000 5.289912e-001 1.377720e+000 1.921441e+000 1.955697e+000 2.170789e+000 3.105499e+000 2.174972e+000 4.552719e+000 5.066594e+000 2.458035e+000 3.144629e+000 2.201087e+000 3.126121e-001 8.620717e-002 1.294656e-001 1.822017e-001 2.267259e-001 3.374417e-001 4.609034e-001 3.697939e-001 5.538567e-001 6.065016e-001 4.537933e-001 5.257239e-001 4.321890e-001 4.539685e-002
<GCONST> 1.078033e+002
<STATE> 3
<MEAN> 39
 2.886044e-001 -7.131707e+000 5.288047e+000 -1.327857e+000 -1.702354e+001 -1.593740e+001 -1.191092e+001 3.712338e+000 -1.285562e+001 -6.833722e+000 2.803914e+000 -6.780873e+000 7.491916e+001 9.433363e-002 -2.342451e-001 -1.082420e+000 -9.450113e-001 8.740457e-001 1.192977e+000 -1.159056e-001 1.810047e-001 1.441078e+000 4.397688e-001 -9.085925e-001 -4.468707e-001 -2.268522e-002 -1.094244e-001 1.187136e-001 -1.233917e-001 -6.707682e-002 3.330028e-001 2.622780e-001 1.662160e-001 -3.151643e-001 9.588910e-002 -9.589571e-005 -7.609745e-002 -1.035603e-001 -7.241799e-002
<VARIANCE> 39
 1.282842e+001 3.523074e+001 2.317686e+001 3.262901e+001 5.025783e+001 4.261797e+001 3.937048e+001 8.511620e+001 8.663301e+001 3.849417e+001 4.368427e+001 3.110915e+001 9.225779e+000 5.457749e-001 1.339981e+000 1.613395e+000 1.627658e+000 2.330486e+000 2.898784e+000 2.353609e+000 3.952725e+000 3.574464e+000 3.433746e+000 2.841322e+000 2.009300e+000 3.302590e-001 7.285158e-002 1.268233e-001 2.055276e-001 2.551946e-001 3.388790e-001 4.144871e-001 3.972295e-001 6.098341e-001 5.831589e-001 4.661579e-001 4.708838e-001 4.258276e-001 4.619210e-002
<GCONST> 1.086921e+002
<STATE> 4
<MEAN> 39
 2.663612e-001 -7.116468e+000 3.253558e+000 -3.560884e+000 -1.513400e+001 -1.309025e+001 -1.256510e+001 2.781654e+000 -1.062984e+001 -6.118003e+000 1.298169e+000 -7.858240e+000 7.475893e+001 -6.444348e-002 6.732413e-002 -9.645360e-001 -9.511849e-001 1.090239e+000 1.400404e+000 1.681343e-001 -4.882695e-001 1.082421e+000 3.228235e-001 -6.956235e-001 -4.196554e-001 -1.355032e-001 -1.332246e-001 1.730274e-001 1.693845e-001 1.728084e-001 1.038256e-001 -2.479116e-002 1.536140e-001 -2.672128e-001 -3.161312e-001 -1.666118e-001 1.670347e-001 9.989498e-002 -8.362527e-002
<VARIANCE> 39
 1.378029e+001 3.959993e+001 2.203143e+001 4.396180e+001 4.294619e+001 5.812077e+001 4.825655e+001 9.622463e+001 9.255435e+001 3.810962e+001 4.906586e+001 2.879887e+001 1.035037e+001 6.028071e-001 1.071089e+000 1.572960e+000 1.922859e+000 2.007662e+000 3.128714e+000 2.616420e+000 3.064632e+000 2.759744e+000 2.798916e+000 2.821865e+000 1.974724e+000 2.625286e-001 6.373334e-002 1.626176e-001 1.823617e-001 2.311532e-001 3.941190e-001 3.925618e-001 3.989692e-001 6.551270e-001 5.102087e-001 5.471774e-001 4.469435e-001 3.297004e-001 5.253019e-002
<GCONST> 1.088120e+002
<TRANSP> 5
 0.000000e+000 1.000000e+000 0.000000e+000 0.000000e+000 0.000000e+000
 0.000000e+000 5.375260e-001 4.624740e-001 0.000000e+000 0.000000e+000
 0.000000e+000 0.000000e+000 2.443019e-001 7.556981e-001 0.000000e+000
 0.000000e+000 0.000000e+000 0.000000e+000 2.515247e-001 7.484753e-001
 0.000000e+000 0.000000e+000 0.000000e+000 0.000000e+000 0.000000e+000
<ENDHMM>
~h "k"
<BEGINHMM>
<NUMSTATES> 5
<STATE> 2
<MEAN> 39
 -7.470450e+000 -6.609220e+000 -1.586462e+000 8.448151e-001 -5.623323e+000 -1.250662e+001 -5.134726e+000 1.639906e+000 -9.631845e+000 -5.153831e+000 -1.502487e-002 -6.509575e+000 6.977856e+001 -1.747065e-001 -1.250594e+000 -7.731066e-001 6.553379e-001 -3.652975e-001 -7.910902e-001 5.784770e-001 5.252133e-001 -5.663050e-001 -1.507838e-001 -3.376853e-001 -1.903618e-002 5.626781e-001 2.995758e-001 1.988716e-001 2.284645e-001 -2.762368e-001 -3.455868e-001 -1.941024e-001 -1.673870e-001 -8.717141e-002 -1.055893e-001 -2.831103e-002 2.653146e-002 -8.650925e-002 2.456707e-001
<VARIANCE> 39
 1.169334e+001 3.412763e+001 2.777916e+001 3.721666e+001 3.321189e+001 5.004406e+001 4.069007e+001 3.816881e+001 4.839157e+001 2.743841e+001 2.843236e+001 2.702894e+001 1.145166e+001 9.605167e-001 3.061300e+000 2.401486e+000 3.243789e+000 2.389164e+000 3.106945e+000 3.595209e+000 3.066972e+000 3.553020e+000 2.566126e+000 2.361156e+000 1.933011e+000 8.243869e-001 1.466412e-001 8.042252e-001 4.801562e-001 6.936359e-001 4.782241e-001 6.132885e-001 6.812795e-001 5.980712e-001 6.791512e-001 5.784239e-001 4.483348e-001 3.412181e-001 1.448706e-001
<GCONST> 1.166114e+002
<STATE> 3
<MEAN> 39
 -7.192783e+000 -8.059408e+000 -2.386713e+000 8.343027e-002 -7.769329e+000 -1.488540e+001 -4.163524e+000 2.609367e+000 -1.135227e+001 -5.503322e+000 -1.216676e+000 -6.550599e+000 7.200129e+001 1.256409e+000 7.207220e-001 7.239933e-001 -9.027168e-001 -1.457138e+000 -8.133548e-001 -6.393991e-001 -2.499219e-001 -1.697834e-001 -4.165670e-002 1.216186e-001 -5.020801e-001 1.043108e+000 4.626336e-001 2.835859e-001 3.318366e-001 -2.263025e-001 -1.576291e-001 2.525604e-001 -3.609990e-001 -1.982747e-001 2.066925e-001 -5.104213e-003 2.896062e-001 -1.980032e-001 7.870064e-002
<VARIANCE> 39
 1.403392e+001 1.985273e+001 2.641336e+001 3.055612e+001 3.729591e+001 5.012700e+001 4.053574e+001 4.537183e+001 4.210608e+001 2.609426e+001 2.834493e+001 2.469143e+001 1.413262e+001 2.108737e+000 1.999985e+000 2.213978e+000 2.592252e+000 3.725483e+000 2.802421e+000 2.795943e+000 3.300821e+000 3.882201e+000 2.800102e+000 2.702456e+000 2.307257e+000 9.217376e-001 2.550025e-001 5.555449e-001 3.848786e-001 4.929864e-001 5.289665e-001 6.829548e-001 5.173966e-001 5.598980e-001 6.270793e-001 4.885506e-001 5.552217e-001 4.451073e-001 1.548061e-001
<GCONST> 1.168217e+002
<STATE> 4
<MEAN> 39
 -2.071166e+000 -6.916799e+000 -5.357852e-001 -2.502502e+000 -1.208819e+001 -1.646706e+001 -6.921709e+000 2.246520e+000 -1.090824e+001 -5.738628e+000 4.923634e-001 -9.192508e+000 7.585455e+001 1.741840e+000 2.011846e-001 5.721939e-001 -8.720616e-001 -9.831679e-001 4.278704e-001 -9.050783e-001 -3.091251e-001 2.426637e-001 6.429423e-002 7.122796e-001 -8.411786e-001 8.917900e-001 -3.143646e-001 -1.310150e-001 -1.199478e-001 1.029455e-001 5.823160e-001 6.020938e-001 5.564917e-002 -5.208469e-002 8.101986e-002 5.029013e-002 1.243403e-002 1.573665e-001 -4.185300e-001
<VARIANCE> 39
 2.953436e+001 1.992249e+001 2.884107e+001 2.957477e+001 3.480666e+001 5.685706e+001 3.108404e+001 5.111143e+001 5.070214e+001 3.361094e+001 3.811082e+001 3.587490e+001 1.959015e+001 2.226722e+000 2.615401e+000 1.947731e+000 2.634768e+000 3.602169e+000 5.337684e+000 2.240943e+000 3.879575e+000 3.926132e+000 3.048980e+000 3.124699e+000 3.211612e+000 1.117169e+000 3.450950e-001 3.774734e-001 3.124140e-001 3.535091e-001 5.975162e-001 6.402640e-001 5.045409e-001 5.575926e-001 5.978147e-001 5.097471e-001 5.128456e-001 4.124368e-001 1.831382e-001
<GCONST> 1.199067e+002
<TRANSP> 5
 0.000000e+000 1.000000e+000 0.000000e+000 0.000000e+000 0.000000e+000
 0.000000e+000 6.935598e-001 3.064403e-001 0.000000e+000 0.000000e+000
 0.000000e+000 0.000000e+000 3.830269e-001 6.169731e-001 0.000000e+000
 0.000000e+000 0.000000e+000 0.000000e+000 4.086619e-001 5.913380e-001
 0.000000e+000 0.000000e+000 0.000000e+000 0.000000e+000 0.000000e+000
<ENDHMM>
~h "l"
<BEGINHMM>
<NUMSTATES> 5
<STATE> 2
<MEAN> 39
 1.790264e-001 -6.992085e+000 6.167465e+000 -4.435803e+000 -1.232622e+001 -1.188998e+001 -1.644912e+001 -2.929513e+000 -9.301442e+000 -6.686843e+000 6.766543e-001 -8.542066e+000 7.437120e+001 3.632017e-002 1.086690e-001 1.899951e-001 -3.061884e-002 1.854987e-001 1.692023e-001 -4.694786e-001 3.439694e-002 -9.308991e-002 1.198506e-001 -7.005686e-002 -7.587413e-002 -1.245658e-001 -1.657490e-002 -1.033267e-001 -3.247870e-001 -1.289275e-001 -1.231542e-001 7.800759e-002 4.488476e-001 3.641464e-001 1.474441e-001 2.296939e-002 -1.649915e-002 -9.106845e-002 6.487718e-002
<VARIANCE> 39
 1.872346e+001 4.031473e+001 2.456654e+001 3.435756e+001 8.286443e+001 4.375336e+001 6.150752e+001 1.013215e+002 5.005644e+001 3.894042e+001 4.218236e+001 3.220132e+001 8.203096e+000 5.817984e-001 1.585331e+000 1.743055e+000 1.867179e+000 2.426334e+000 2.469110e+000 2.860988e+000 4.687870e+000 3.010283e+000 3.000733e+000 2.311666e+000 2.057661e+000 4.675065e-001 8.935803e-002 2.870662e-001 2.075509e-001 2.877011e-001 4.968469e-001 4.989812e-001 5.369248e-001 7.856824e-001 5.181413e-001 5.224032e-001 4.926012e-001 3.720503e-001 7.021521e-002
<GCONST> 1.129556e+002
<STATE> 3
<MEAN> 39
 -6.357520e-001 -5.230629e+000 5.366432e+000 -4.291409e+000 -9.582210e+000 -1.224199e+001 -1.511599e+001 -5.142454e+000 -8.527831e+000 -6.298470e+000 9.404883e-001 -8.466573e+000 7.378102e+001 2.599552e-002 -2.077342e-001 -5.565170e-001 -2.555981e-001 -1.776432e-001 2.510873e-001 5.896747e-001 7.626222e-001 3.500077e-001 2.859113e-001 -3.589077e-002 -1.960250e-001 3.346989e-003 -7.695571e-003 -2.012708e-001 -2.767272e-001 -4.303316e-002 -2.377335e-001 -3.518913e-003 4.311618e-001 4.704640e-001 1.656120e-001 -3.248190e-003 1.768773e-002 -2.068342e-002 9.376918e-002
<VARIANCE> 39
 1.871786e+001 2.953136e+001 2.381043e+001 3.272694e+001 5.547696e+001 4.064673e+001 4.606243e+001 6.684661e+001 5.047342e+001 3.694215e+001 4.254703e+001 3.086836e+001 9.708001e+000 7.965948e-001 1.428408e+000 1.501930e+000 2.111830e+000 2.473475e+000 2.630121e+000 2.248899e+000 4.351711e+000 3.509874e+000 3.008066e+000 2.514537e+000 1.932253e+000 5.158625e-001 8.857606e-002 2.864371e-001 2.009461e-001 2.582797e-001 4.759785e-001 4.721361e-001 4.923017e-001 6.894446e-001 5.331167e-001 5.169827e-001 5.263977e-001 3.760993e-001 8.200563e-002
<GCONST> 1.114854e+002
<STATE> 4
<MEAN> 39
 -8.399326e-001 -5.656001e+000 4.148436e+000 -4.889554e+000 -1.021701e+001 -1.184662e+001 -1.342869e+001 -3.078008e+000 -7.376272e+000 -6.021406e+000 8.581947e-001 -8.973763e+000 7.359850e+001 1.060848e-002 -4.252996e-001 -7.651353e-001 -1.870283e-001 -5.310305e-001 1.576589e-001 1.028252e+000 1.313125e+000 4.085515e-001 1.183953e-001 1.060532e-001 -4.540083e-002 1.118764e-001 -2.407402e-002 -3.250265e-002 -2.008814e-002 9.992757e-002 -5.666013e-002 1.979143e-002 9.003779e-002 7.418439e-002 -1.077730e-001 -8.694757e-002 -7.843853e-003 1.122512e-001 3.787032e-002
<VARIANCE> 39
 2.127272e+001 2.874620e+001 2.388680e+001 3.355952e+001 5.369504e+001 4.429386e+001 4.388964e+001 6.640686e+001 5.392682e+001 3.577214e+001 3.829287e+001 3.020532e+001 1.216269e+001 8.416056e-001 1.670319e+000 1.418214e+000 2.293538e+000 2.714500e+000 3.222770e+000 2.463948e+000 4.346293e+000 3.849984e+000 2.871812e+000 3.270176e+000 2.338812e+000 5.444432e-001 9.371813e-002 2.556886e-001 2.172605e-001 2.842368e-001 4.866145e-001 4.874499e-001 4.636827e-001 7.115936e-001 5.466277e-001 4.814115e-001 4.696859e-001 3.627165e-001 8.323522e-002
<GCONST> 1.128829e+002
<TRANSP> 5
 0.000000e+000 1.000000e+000 0.000000e+000 0.000000e+000 0.000000e+000
 0.000000e+000 3.588631e-001 6.411369e-001 0.000000e+000 0.000000e+000
 0.000000e+000 0.000000e+000 2.117607e-001 7.882393e-001 0.000000e+000
 0.000000e+000 0.000000e+000 0.000000e+000 2.527144e-001 7.472857e-001
 0.000000e+000 0.000000e+000 0.000000e+000 0.000000e+000 0.000000e+000
<ENDHMM>
~h "m"
<BEGINHMM>
<NUMSTATES> 5
<STATE> 2
<MEAN> 39
 1.680887e+000 -2.305395e+000 4.661932e+000 -1.914237e+000 -9.281411e+000 -1.135111e+001 -1.166877e+001 -8.697842e+000 -1.688552e+001 -6.899981e+000 2.481274e+000 -8.622460e+000 7.237088e+001 9.143461e-002 4.774476e-001 2.976403e-001 4.620582e-001 1.792993e-001 3.831431e-002 8.546022e-002 -9.113733e-001 -4.631805e-001 -1.572395e-002 9.864070e-002 4.261543e-002 -2.451635e-001 -1.414122e-002 -3.291926e-001 -3.546996e-001 -3.029552e-001 -2.727754e-001 1.703176e-001 2.753658e-001 6.151710e-001 5.136015e-001 -4.509279e-002 -1.367111e-001 -1.226488e-001 1.356073e-001
<VARIANCE> 39
 1.199708e+001 2.659829e+001 1.955208e+001 3.513208e+001 2.653294e+001 4.531902e+001 3.980358e+001 4.982058e+001 3.773719e+001 2.630512e+001 4.113477e+001 3.394531e+001 7.877482e+000 7.037552e-001 1.398714e+000 1.552503e+000 1.675148e+000 1.724815e+000 2.257578e+000 2.044086e+000 3.251920e+000 3.030677e+000 2.012211e+000 2.248138e+000 1.974629e+000 3.805252e-001 7.707414e-002 1.454846e-001 2.650532e-001 2.897873e-001 2.931942e-001 3.776729e-001 3.617568e-001 4.977244e-001 5.130914e-001 3.986455e-001 4.089401e-001 3.496397e-001 4.288574e-002
<GCONST> 1.037379e+002
<STATE> 3
<MEAN> 39
 1.458589e+000 -1.667695e+000 4.322513e+000 -1.609091e+000 -9.462613e+000 -1.143113e+001 -1.032081e+001 -8.993001e+000 -1.616311e+001 -7.263106e+000 2.136027e+000 -8.514713e+000 7.203506e+001 6.078085e-002 -4.049044e-001 -6.406818e-001 -4.419627e-001 -4.135001e-001 5.427416e-001 6.087991e-001 6.358865e-001 8.549830e-001 -1.162670e-001 -3.034560e-001 -3.081043e-001 1.208208e-001 -6.824686e-002 -3.482367e-001 -2.652406e-001 -2.636261e-001 -1.686724e-001 2.017351e-001 1.005034e-001 6.406670e-001 5.120299e-001 6.582965e-003 -1.225069e-001 -1.359151e-001 1.464619e-001
<VARIANCE> 39
 1.408612e+001 2.506804e+001 1.831322e+001 3.310408e+001 2.720727e+001 3.850614e+001 3.360995e+001 4.680603e+001 3.656828e+001 2.632137e+001 3.455889e+001 3.283060e+001 7.844171e+000 9.312930e-001 1.712274e+000 1.979085e+000 2.273527e+000 1.846568e+000 2.576268e+000 2.138042e+000 3.212841e+000 2.935595e+000 2.031543e+000 2.264612e+000 2.169159e+000 4.500471e-001 8.059290e-002 1.527628e-001 2.633005e-001 2.665326e-001 2.913380e-001 3.844846e-001 3.808715e-001 5.296054e-001 4.953675e-001 4.378833e-001 4.110961e-001 3.978818e-001 4.122956e-002
<GCONST> 1.048948e+002
<STATE> 4
<MEAN> 39
 6.658072e-001 -2.554137e+000 2.526061e+000 -2.797107e+000 -1.031526e+001 -1.027937e+001 -8.850459e+000 -6.286136e+000 -1.325453e+001 -7.546376e+000 1.180753e+000 -9.160916e+000 7.204833e+001 -1.792538e-001 -8.381017e-001 -7.376320e-001 -5.558202e-001 -4.892494e-001 7.824151e-001 5.634300e-001 1.466008e+000 1.450071e+000 -3.697250e-002 -3.215688e-001 -3.727042e-001 3.000338e-001 -1.268609e-001 -8.337669e-002 8.468949e-002 5.758185e-002 6.080241e-002 4.722651e-002 -1.267902e-001 1.885870e-001 1.135440e-001 -1.664663e-003 4.547619e-003 6.516749e-002 4.261639e-002
<VARIANCE> 39
 2.599063e+001 2.673253e+001 2.418065e+001 4.345782e+001 3.132424e+001 4.411057e+001 3.597792e+001 4.569312e+001 3.990129e+001 2.664950e+001 3.287283e+001 2.967825e+001 1.387039e+001 1.304769e+000 2.031600e+000 2.326402e+000 2.376690e+000 2.036098e+000 3.124186e+000 2.612795e+000 4.120735e+000 3.531267e+000 2.548223e+000 2.611961e+000 2.555001e+000 5.059661e-001 1.047892e-001 1.855954e-001 2.656772e-001 3.087287e-001 3.571759e-001 3.973491e-001 4.305180e-001 5.963763e-001 4.958417e-001 4.548485e-001 4.368390e-001 3.969525e-001 5.813814e-002
<GCONST> 1.107823e+002
<TRANSP> 5
 0.000000e+000 1.000000e+000 0.000000e+000 0.000000e+000 0.000000e+000
 0.000000e+000 4.741125e-001 5.258876e-001 0.000000e+000 0.000000e+000
 0.000000e+000 0.000000e+000 3.032932e-001 6.967068e-001 0.000000e+000
 0.000000e+000 0.000000e+000 0.000000e+000 3.062190e-001 6.937810e-001
 0.000000e+000 0.000000e+000 0.000000e+000 0.000000e+000 0.000000e+000
<ENDHMM>
~h "n"
<BEGINHMM>
<NUMSTATES> 5
<STATE> 2
<MEAN> 39
 2.448516e+000 -6.512782e+000 5.676744e+000 -1.883744e+000 -1.396169e+001 -1.075663e+001 -1.449223e+001 -2.420197e+000 -1.269539e+001 -6.133179e+000 2.442049e-001 -1.028820e+001 7.409798e+001 4.483907e-002 9.039699e-001 5.683501e-001 3.720786e-001 4.558597e-001 -2.375232e-001 -7.146297e-001 -1.446551e+000 -8.608689e-001 7.589086e-001 3.455755e-001 2.452313e-002 -4.579143e-001 -3.507509e-002 -1.129987e-001 -2.178466e-001 -1.059236e-001 -5.985031e-002 7.951552e-002 3.117193e-001 2.213435e-001 1.666051e-001 -1.055357e-001 -2.916228e-002 4.477041e-002 4.410073e-002
<VARIANCE> 39
 1.214576e+001 3.115413e+001 1.803663e+001 2.982624e+001 4.196227e+001 3.965051e+001 5.572786e+001 9.036247e+001 4.200725e+001 3.835439e+001 4.432295e+001 2.817717e+001 6.918604e+000 3.243411e-001 1.378589e+000 1.050469e+000 1.093822e+000 1.797082e+000 1.693671e+000 2.600422e+000 5.063137e+000 2.326894e+000 2.645297e+000 2.143658e+000 1.866572e+000 2.908903e-001 5.678695e-002 2.279979e-001 1.812667e-001 2.026189e-001 2.976565e-001 2.981502e-001 4.485044e-001 9.547663e-001 4.124118e-001 4.949085e-001 4.409850e-001 3.411430e-001 4.565410e-002
<GCONST> 1.037938e+002
<STATE> 3
<MEAN> 39
 2.225383e+000 -3.590361e+000 6.342299e+000 -3.750387e-001 -1.232503e+001 -1.182862e+001 -1.339577e+001 -7.393923e+000 -1.394036e+001 -4.186530e+000 1.324564e+000 -9.927463e+000 7.259592e+001 1.716467e-002 8.542657e-002 -2.010642e-001 3.155747e-002 1.779046e-002 1.004525e-001 3.437224e-001 1.003661e-002 -1.342207e-001 -1.493643e-002 -1.172662e-002 9.362283e-002 -1.272601e-001 -4.354000e-002 -3.304752e-001 -3.462797e-001 -2.397868e-001 -1.307520e-001 2.015428e-001 3.005988e-001 7.242539e-001 2.949783e-001 -3.895903e-001 -1.019846e-001 4.174240e-002 1.451681e-001
<VARIANCE> 39
 1.200198e+001 2.350455e+001 1.676519e+001 2.304880e+001 3.012263e+001 3.205350e+001 4.372996e+001 5.975155e+001 3.934393e+001 3.411712e+001 3.939137e+001 2.820751e+001 6.457488e+000 4.380989e-001 1.638369e+000 1.074655e+000 1.133856e+000 1.872004e+000 1.718464e+000 2.151691e+000 4.801993e+000 2.362308e+000 2.565852e+000 2.177495e+000 1.862486e+000 3.098953e-001 6.232216e-002 1.804120e-001 1.888109e-001 2.184236e-001 2.964312e-001 2.845060e-001 4.217664e-001 6.706802e-001 4.219773e-001 4.568419e-001 4.290263e-001 3.804004e-001 4.752839e-002
<GCONST> 1.015807e+002
<STATE> 4
<MEAN> 39
 1.877144e+000 -3.955228e+000 4.442398e+000 -9.994584e-001 -1.204201e+001 -1.067269e+001 -1.192212e+001 -5.534898e+000 -1.275975e+001 -5.705607e+000 8.697560e-001 -9.806946e+000 7.240437e+001 -1.769877e-001 -4.222402e-001 -7.674733e-001 -5.413097e-001 -1.135316e-001 6.160462e-001 7.383195e-001 1.176520e+000 3.692646e-001 -6.449636e-001 -4.641052e-002 2.143607e-001 1.156901e-001 -8.840099e-002 -7.297536e-002 -8.956903e-002 -1.471659e-001 -5.580832e-002 1.555995e-001 9.554810e-002 1.991945e-001 7.868750e-002 -1.447364e-001 4.509709e-002 1.747268e-002 5.206962e-002
<VARIANCE> 39
 1.654517e+001 2.821756e+001 1.997707e+001 2.542510e+001 3.040606e+001 4.162093e+001 4.008462e+001 6.943862e+001 3.717539e+001 3.735292e+001 4.074942e+001 2.750440e+001 8.801332e+000 8.138962e-001 1.812348e+000 1.520418e+000 1.666578e+000 1.949589e+000 2.252809e+000 2.188696e+000 4.168129e+000 2.884262e+000 2.783298e+000 2.824925e+000 2.182466e+000 4.595731e-001 5.604690e-002 2.082641e-001 1.927349e-001 2.116021e-001 2.945000e-001 3.160772e-001 4.086469e-001 7.142156e-001 4.247650e-001 4.696607e-001 4.161149e-001 3.601981e-001 4.388215e-002
<GCONST> 1.058026e+002
<TRANSP> 5
 0.000000e+000 1.000000e+000 0.000000e+000 0.000000e+000 0.000000e+000
 0.000000e+000 5.704807e-001 4.295193e-001 0.000000e+000 0.000000e+000
 0.000000e+000 0.000000e+000 4.576322e-001 5.423678e-001 0.000000e+000
 0.000000e+000 0.000000e+000 0.000000e+000 4.549848e-001 5.450152e-001
 0.000000e+000 0.000000e+000 0.000000e+000 0.000000e+000 0.000000e+000
<ENDHMM>
~h "o"
<BEGINHMM>
<NUMSTATES> 5
<STATE> 2
<MEAN> 39
 2.303139e+000 -1.801244e+000 -2.942552e+000 -1.232000e+001 -1.195931e+001 -4.083194e+000 -9.795514e+000 -8.012951e+000 -9.677429e+000 -4.262268e+000 4.102152e+000 -4.883963e+000 7.438272e+001 2.747497e-001 2.221582e-001 -1.422668e-001 -6.521304e-001 -7.564979e-002 8.922125e-001 7.280137e-002 -4.116094e-001 -1.287197e-001 -2.696514e-001 1.713599e-001 5.124525e-001 -6.705150e-002 -3.676513e-001 -6.323642e-003 2.621555e-001 5.385846e-001 2.977256e-001 -2.617097e-001 -5.266562e-002 1.832953e-001 9.605611e-002 -1.108067e-001 -2.099444e-001 -8.543052e-002 -2.135578e-001
<VARIANCE> 39
 1.391602e+001 2.036605e+001 1.253634e+001 3.294053e+001 3.118755e+001 4.004618e+001 4.166246e+001 2.894852e+001 3.453001e+001 3.593782e+001 3.423318e+001 2.728789e+001 8.920611e+000 9.090201e-001 9.784998e-001 1.221273e+000 2.533496e+000 2.075566e+000 2.292458e+000 2.585634e+000 2.680972e+000 2.149946e+000 2.461709e+000 2.355667e+000 1.869307e+000 4.088719e-001 1.563600e-001 1.817929e-001 1.766116e-001 2.805527e-001 3.285089e-001 3.901795e-001 4.812042e-001 5.273086e-001 4.695805e-001 4.752537e-001 4.109758e-001 3.513251e-001 7.312924e-002
<GCONST> 1.044453e+002
<STATE> 3
<MEAN> 39
 1.982009e+000 -5.581713e-001 -1.965655e+000 -1.258192e+001 -1.194795e+001 -2.992487e+000 -9.511883e+000 -8.344824e+000 -9.326071e+000 -5.927316e+000 2.974394e+000 -3.931006e+000 7.327780e+001 -5.386218e-001 1.958157e-001 5.001677e-001 8.309892e-001 7.551171e-001 -1.717422e-001 -2.291023e-001 -4.725422e-002 1.442651e-001 -1.714280e-001 -2.772172e-001 -6.896102e-002 -4.665209e-001 -2.123388e-001 -4.113043e-002 1.051873e-001 3.053393e-001 1.347176e-001 -1.961059e-001 1.849339e-002 1.686272e-001 1.050645e-001 6.243606e-002 -3.446476e-002 -1.272535e-001 -8.480156e-002
<VARIANCE> 39
 1.565416e+001 1.834833e+001 1.433442e+001 3.820592e+001 3.890325e+001 3.888611e+001 4.108483e+001 3.189579e+001 3.316839e+001 3.478736e+001 3.281905e+001 2.911803e+001 8.235827e+000 6.372600e-001 8.250611e-001 8.793857e-001 1.753512e+000 1.810855e+000 1.712480e+000 2.109555e+000 2.256783e+000 2.264238e+000 2.194216e+000 1.868368e+000 1.731078e+000 3.521893e-001 9.247252e-002 1.340959e-001 1.729636e-001 2.995037e-001 2.918378e-001 3.384403e-001 4.628370e-001 4.564390e-001 3.962017e-001 4.284893e-001 3.537675e-001 3.525822e-001 4.650109e-002
<GCONST> 1.002372e+002
<STATE> 4
<MEAN> 39
 -1.830485e+000 3.727206e-001 -2.141540e-001 -7.344830e+000 -7.216710e+000 -4.955932e+000 -9.729643e+000 -7.718677e+000 -8.795899e+000 -5.473712e+000 2.234340e+000 -3.828474e+000 7.052152e+001 -7.902465e-001 -8.555255e-002 3.977320e-001 1.150704e+000 5.232173e-001 -4.132823e-001 1.574473e-001 4.993206e-001 3.298618e-001 1.893816e-002 -1.370050e-001 -1.025352e-001 -5.048563e-001 6.291528e-002 -1.531337e-001 -9.545679e-002 -7.661373e-002 -2.552028e-001 -1.002192e-001 6.929587e-002 1.012886e-001 -6.703328e-002 2.085620e-003 3.829205e-002 -3.753285e-002 1.322426e-001
<VARIANCE> 39
 2.142894e+001 1.669742e+001 1.391682e+001 3.240554e+001 3.543885e+001 3.338493e+001 3.360406e+001 3.410983e+001 2.877788e+001 2.755537e+001 2.872008e+001 2.695571e+001 1.338022e+001 7.615862e-001 8.553993e-001 1.026351e+000 1.685572e+000 1.853669e+000 1.855456e+000 2.460051e+000 2.705542e+000 2.454813e+000 2.056409e+000 1.844932e+000 1.657095e+000 3.707364e-001 9.188621e-002 1.447433e-001 1.767263e-001 2.733126e-001 3.083869e-001 3.611503e-001 4.632318e-001 4.670961e-001 4.091230e-001 3.505324e-001 3.350610e-001 3.344207e-001 5.925379e-002
<GCONST> 1.006721e+002
<TRANSP> 5
 0.000000e+000 1.000000e+000 0.000000e+000 0.000000e+000 0.000000e+000
 0.000000e+000 5.983202e-001 4.016798e-001 0.000000e+000 0.000000e+000
 0.000000e+000 0.000000e+000 5.458962e-001 4.541038e-001 0.000000e+000
 0.000000e+000 0.000000e+000 0.000000e+000 6.409959e-001 3.590041e-001
 0.000000e+000 0.000000e+000 0.000000e+000 0.000000e+000 0.000000e+000
<ENDHMM>
~h "p"
<BEGINHMM>
<NUMSTATES> 5
<STATE> 2
<MEAN> 39
 -1.126128e+001 -6.668777e-001 3.540341e+000 -5.197688e+000 -1.147515e+000 -1.151795e+001 -6.879074e+000 -3.451088e+000 -4.652394e+000 -9.580390e+000 1.386657e+000 -4.797851e+000 6.756370e+001 9.919452e-001 -4.647618e-001 -6.171473e-001 -4.117212e-001 -1.000784e+000 -2.325517e-001 2.193112e-001 -3.961710e-002 -3.698745e-001 -2.247166e-001 -3.613290e-001 -5.541876e-002 4.146580e-001 6.366422e-001 4.100405e-002 -8.631203e-003 -2.286437e-001 -5.540490e-001 -6.724538e-002 1.645025e-002 -9.689450e-002 -2.230448e-001 -3.698511e-002 1.352150e-001 -1.449722e-001 4.727417e-001
<VARIANCE> 39
 2.127367e+001 1.568534e+001 2.256156e+001 2.877757e+001 3.062924e+001 3.407841e+001 2.938758e+001 2.181799e+001 2.793718e+001 3.451865e+001 2.088568e+001 2.186686e+001 5.055674e+000 2.544823e+000 1.698593e+000 2.005435e+000 2.784976e+000 3.261730e+000 1.955238e+000 2.073975e+000 2.537750e+000 1.839913e+000 2.853416e+000 1.705722e+000 1.723723e+000 1.450980e+000 1.769903e-001 3.804860e-001 3.379053e-001 4.111327e-001 4.041568e-001 4.599589e-001 4.882053e-001 5.551069e-001 4.306076e-001 5.285482e-001 3.658281e-001 3.082588e-001 1.050974e-001
<GCONST> 1.082242e+002
<STATE> 3
<MEAN> 39
 -3.332308e+000 -1.533152e+000 5.014012e-001 -9.294336e+000 -8.142491e+000 -1.251855e+001 -5.925730e+000 -3.967959e+000 -6.415675e+000 -9.670050e+000 3.265415e-001 -7.131534e+000 7.205452e+001 3.163655e+000 4.331448e-001 -9.115263e-002 -1.288088e+000 -2.564479e+000 -8.691666e-002 -3.595139e-002 -6.006463e-001 -1.389545e+000 -4.464426e-001 3.003679e-001 -3.532667e-001 1.823576e+000 -1.704327e-001 6.621260e-002 3.381197e-001 2.364942e-001 2.797437e-001 2.577779e-001 -2.507954e-001 -1.950366e-001 -2.039688e-001 8.593231e-002 2.613467e-001 1.919241e-001 -1.612834e-001
<VARIANCE> 39
 1.461204e+001 3.088501e+001 2.241726e+001 6.572849e+001 5.507047e+001 3.555434e+001 3.438476e+001 2.663339e+001 2.431682e+001 3.825373e+001 2.296081e+001 3.222561e+001 1.722393e+001 1.667309e+000 4.674246e+000 2.586886e+000 4.232251e+000 2.383787e+000 2.837574e+000 3.282352e+000 4.050500e+000 2.778043e+000 3.759949e+000 3.120036e+000 2.563955e+000 1.071270e+000 3.338271e-001 2.638921e-001 1.803979e-001 4.011108e-001 5.492797e-001 3.498161e-001 3.005697e-001 4.546835e-001 5.338107e-001 7.453224e-001 5.493391e-001 3.188426e-001 1.943593e-001
<GCONST> 1.162153e+002
<STATE> 4
<MEAN> 39
 1.040311e+000 1.932383e-001 1.366279e+000 -1.063808e+001 -1.068309e+001 -1.131953e+001 -6.183589e+000 -6.994631e+000 -1.047136e+001 -1.091955e+001 1.879615e+000 -5.666632e+000 7.399232e+001 1.559223e+000 -2.543136e-001 2.989100e-001 -1.712281e-002 -9.596918e-001 5.189912e-001 -5.440368e-001 -9.370388e-001 -1.390821e+000 3.711028e-001 1.051087e+000 3.776581e-001 7.959955e-001 -8.686558e-001 -2.386890e-001 1.214769e-001 5.759656e-001 7.824774e-001 3.517871e-002 -3.173474e-001 2.039163e-001 3.927959e-001 2.613998e-001 -6.067183e-002 5.249175e-002 -5.407711e-001
<VARIANCE> 39
 1.109796e+001 5.008819e+001 2.355589e+001 7.822829e+001 5.131386e+001 3.292284e+001 3.401779e+001 4.502502e+001 4.562505e+001 3.785876e+001 3.182304e+001 4.945584e+001 1.279554e+001 1.532518e+000 2.071132e+000 1.383173e+000 2.242482e+000 3.039838e+000 3.046486e+000 2.382222e+000 4.210299e+000 4.405324e+000 3.249612e+000 3.656998e+000 2.265479e+000 8.953590e-001 2.479531e-001 5.330507e-001 2.380161e-001 5.190075e-001 4.465988e-001 4.148780e-001 4.006172e-001 6.516773e-001 6.704465e-001 7.824907e-001 7.357672e-001 4.634565e-001 1.611321e-001
<GCONST> 1.184410e+002
<TRANSP> 5
 0.000000e+000 1.000000e+000 0.000000e+000 0.000000e+000 0.000000e+000
 0.000000e+000 7.412758e-001 2.587242e-001 0.000000e+000 0.000000e+000
 0.000000e+000 0.000000e+000 2.542627e-001 7.457373e-001 0.000000e+000
 0.000000e+000 0.000000e+000 0.000000e+000 4.058261e-001 5.941740e-001
 0.000000e+000 0.000000e+000 0.000000e+000 0.000000e+000 0.000000e+000
<ENDHMM>
~h "s"
<BEGINHMM>
<NUMSTATES> 5
<STATE> 2
<MEAN> 39
 -1.524108e+001 2.690500e+000 -3.689111e+000 3.678970e+000 -6.388534e+000 -1.396062e+001 -5.414319e+000 -1.049271e-001 -8.763341e+000 -7.343505e+000 1.181982e+000 -5.665715e+000 7.347593e+001 -9.526273e-001 1.386663e-001 -4.003733e-001 -4.924559e-003 2.394864e-001 -1.163613e-001 4.345119e-001 -3.907636e-002 6.862540e-002 -5.903606e-002 -2.411227e-001 1.571676e-001 -2.070429e-001 3.138028e-001 -1.281137e-001 4.465198e-002 -1.452684e-001 -1.082713e-001 -3.633699e-002 -1.267426e-001 -7.386491e-002 -7.260293e-002 1.695890e-002 -4.164894e-002 -1.101280e-001 2.281000e-002
<VARIANCE> 39
 1.447079e+001 8.410249e+000 1.897130e+001 1.917115e+001 2.698551e+001 2.475819e+001 3.297974e+001 2.318393e+001 3.223022e+001 2.291776e+001 2.639254e+001 2.418056e+001 7.096565e+000 1.164049e+000 5.563278e-001 9.684865e-001 1.208300e+000 1.344414e+000 1.976699e+000 2.273362e+000 1.893010e+000 1.843759e+000 1.658550e+000 1.869388e+000 1.767055e+000 1.554928e-001 7.725942e-002 1.008091e-001 1.841361e-001 2.271529e-001 2.550098e-001 3.769808e-001 4.114256e-001 3.922237e-001 3.599658e-001 3.278662e-001 3.768832e-001 3.493373e-001 2.534311e-002
<GCONST> 9.311795e+001
<STATE> 3
<MEAN> 39
 -1.645167e+001 2.013199e+000 -5.098251e+000 1.305214e+000 -4.751166e+000 -1.360581e+001 -5.056163e+000 -6.368220e-001 -8.578141e+000 -6.686819e+000 -5.928318e-001 -6.578665e+000 7.189138e+001 9.931398e-001 -1.142076e-001 -1.792814e-001 -7.424555e-001 -1.599874e-001 -3.703938e-001 -2.100444e-001 -5.472997e-001 -2.772192e-001 3.131389e-001 -5.786675e-002 -5.321090e-001 1.237864e-001 6.128733e-001 6.863945e-002 1.150800e-001 -1.165806e-002 -2.998681e-001 -2.910715e-001 -2.375355e-001 -2.370047e-001 -9.210265e-002 7.727158e-002 1.374583e-001 -3.854168e-002 2.981807e-001
<VARIANCE> 39
 1.015559e+001 9.043270e+000 1.583630e+001 2.113166e+001 2.987615e+001 2.054519e+001 2.867089e+001 2.554465e+001 2.489999e+001 3.048083e+001 2.162853e+001 2.682535e+001 1.156998e+001 1.326253e+000 9.835261e-001 1.214515e+000 1.392119e+000 1.985131e+000 2.347733e+000 2.144596e+000 2.628003e+000 1.967782e+000 2.111975e+000 2.059215e+000 1.766005e+000 4.232831e-001 2.079645e-001 2.103399e-001 2.357682e-001 2.836768e-001 3.781050e-001 4.448246e-001 4.782811e-001 5.967566e-001 4.183141e-001 4.548841e-001 3.386881e-001 3.742120e-001 6.819848e-002
<GCONST> 1.011043e+002
<STATE> 4
<MEAN> 39
 -9.916817e+000 2.163210e+000 -5.824639e+000 -6.861549e-001 -7.749025e+000 -1.759729e+001 -7.711868e+000 -3.286993e+000 -1.014254e+001 -4.614283e+000 3.565556e-001 -9.288938e+000 7.519620e+001 2.315464e+000 1.691126e-002 2.251337e-001 -5.197227e-001 -7.263868e-001 -7.273135e-001 -7.233474e-001 -1.012088e+000 -2.221404e-001 3.148951e-001 3.801759e-001 -2.770001e-001 7.528744e-001 -1.537060e-001 -9.704986e-002 1.731633e-001 1.725340e-001 1.116808e-001 2.595156e-001 1.766629e-001 2.256405e-001 7.363045e-002 -1.659796e-001 1.120960e-001 1.710217e-001 -1.323035e-001
<VARIANCE> 39
 2.786674e+001 1.235088e+001 2.224470e+001 3.396894e+001 3.751977e+001 4.479449e+001 5.445614e+001 3.604067e+001 3.276695e+001 3.046519e+001 2.054797e+001 3.113885e+001 1.859785e+001 2.339381e+000 1.891960e+000 2.018918e+000 2.216810e+000 2.598455e+000 4.720058e+000 3.201998e+000 4.573637e+000 4.305635e+000 3.022204e+000 2.031918e+000 2.315610e+000 9.951605e-001 6.000025e-001 2.425559e-001 2.469990e-001 2.867432e-001 4.951574e-001 6.273868e-001 5.908173e-001 7.237877e-001 5.897753e-001 4.992592e-001 4.197780e-001 3.787245e-001 2.387288e-001
<GCONST> 1.166443e+002
<TRANSP> 5
 0.000000e+000 1.000000e+000 0.000000e+000 0.000000e+000 0.000000e+000
 0.000000e+000 8.783044e-001 1.216956e-001 0.000000e+000 0.000000e+000
 0.000000e+000 0.000000e+000 5.770653e-001 4.229346e-001 0.000000e+000
 0.000000e+000 0.000000e+000 0.000000e+000 5.989618e-001 4.010382e-001
 0.000000e+000 0.000000e+000 0.000000e+000 0.000000e+000 0.000000e+000
<ENDHMM>
~h "t"
<BEGINHMM>
<NUMSTATES> 5
<STATE> 2
<MEAN> 39
 -5.916152e+000 -1.616477e+000 1.231022e+000 -2.863630e+000 -5.528461e+000 -9.953955e+000 -9.273977e+000 -1.701442e+000 -5.841837e+000 -4.303346e+000 6.153887e-001 -6.070135e+000 6.806902e+001 -6.834434e-001 -1.789898e-001 -3.136184e-001 2.875200e-001 8.116361e-002 -6.264967e-002 5.244538e-001 2.137748e-001 3.876185e-002 -3.121148e-002 -7.818244e-002 2.361893e-001 -4.189271e-001 2.111992e-001 -2.411758e-001 -2.158693e-002 3.134415e-002 -3.689922e-001 -2.301921e-001 -4.373855e-002 3.576838e-002 -2.495657e-001 -2.050279e-001 -2.975938e-002 -4.094451e-002 3.077785e-001
<VARIANCE> 39
 1.097996e+001 1.475818e+001 1.852912e+001 2.870502e+001 2.562048e+001 3.903945e+001 2.421680e+001 3.059948e+001 3.671182e+001 2.841710e+001 2.700465e+001 2.193383e+001 8.597891e+000 6.176274e-001 1.033508e+000 9.638392e-001 1.367828e+000 1.798437e+000 2.374210e+000 2.211631e+000 2.343484e+000 2.297044e+000 2.001297e+000 1.864111e+000 1.662089e+000 4.654914e-001 9.595118e-002 1.787395e-001 1.913339e-001 2.728803e-001 3.635020e-001 4.424492e-001 4.569801e-001 4.335307e-001 3.768002e-001 3.998596e-001 3.800888e-001 3.424428e-001 6.661649e-002
<GCONST> 9.975419e+001
<STATE> 3
<MEAN> 39
 -7.330894e+000 -2.937431e+000 3.710579e-001 -2.049128e+000 -6.358017e+000 -1.090739e+001 -8.089470e+000 -1.258010e+000 -7.444257e+000 -5.873622e+000 2.948678e-001 -5.211533e+000 6.806193e+001 -1.379934e-001 -7.534707e-001 -2.802175e-001 3.452709e-001 -7.636250e-001 -6.582240e-001 3.564890e-001 3.799167e-001 -4.838979e-001 -5.079384e-001 -1.963646e-001 -2.752651e-002 4.707143e-001 4.562086e-001 6.242456e-003 1.187386e-001 -1.446877e-001 -3.099603e-001 -1.615164e-001 -2.270895e-001 -1.216344e-001 -1.729974e-001 4.521805e-004 4.427975e-002 -2.546364e-001 3.903789e-001
<VARIANCE> 39
 1.110987e+001 1.715808e+001 1.942023e+001 2.556696e+001 2.572032e+001 3.281175e+001 2.498656e+001 2.970827e+001 3.347652e+001 2.481055e+001 2.545756e+001 2.369131e+001 1.178115e+001 1.140226e+000 1.339467e+000 1.480517e+000 1.860929e+000 2.251376e+000 2.975409e+000 2.533933e+000 3.236454e+000 2.681545e+000 2.415806e+000 1.991593e+000 1.995323e+000 6.112016e-001 1.939445e-001 2.545902e-001 2.678734e-001 3.865404e-001 4.173974e-001 4.810380e-001 5.114402e-001 5.894757e-001 5.161006e-001 4.700189e-001 3.978727e-001 4.059320e-001 9.815170e-002
<GCONST> 1.066312e+002
<STATE> 4
<MEAN> 39
 -6.529088e+000 -4.470854e+000 -4.694872e-001 -2.074595e+000 -8.629951e+000 -1.269448e+001 -7.661128e+000 -5.035512e-001 -8.475306e+000 -6.809267e+000 -4.996280e-001 -6.092958e+000 7.019003e+001 1.421119e+000 -2.352885e-001 1.890474e-001 -2.691796e-001 -1.304907e+000 -7.989922e-001 -4.573490e-001 -2.650005e-001 -7.061906e-001 -3.554536e-002 1.698210e-001 -7.005447e-001 1.325638e+000 4.221545e-001 1.886196e-001 2.202641e-001 -1.579590e-001 -3.849219e-002 1.560596e-001 -2.410976e-001 -2.299667e-001 -8.256904e-002 1.183532e-001 2.201835e-001 -1.125928e-001 8.779802e-002
<VARIANCE> 39
 1.759867e+001 1.798913e+001 2.076565e+001 3.014085e+001 3.077065e+001 3.638385e+001 3.283324e+001 3.455896e+001 3.468596e+001 2.765617e+001 2.792269e+001 2.556224e+001 1.755488e+001 2.782160e+000 2.132794e+000 2.742956e+000 3.211492e+000 3.141981e+000 3.834104e+000 2.888593e+000 4.126508e+000 4.820078e+000 3.295767e+000 2.975996e+000 2.723943e+000 1.155462e+000 3.171258e-001 3.508520e-001 3.212412e-001 3.607808e-001 4.960633e-001 5.714062e-001 6.014280e-001 7.047637e-001 5.819660e-001 5.145349e-001 4.622190e-001 4.775113e-001 1.664167e-001
<GCONST> 1.171769e+002
<TRANSP> 5
 0.000000e+000 1.000000e+000 0.000000e+000 0.000000e+000 0.000000e+000
 0.000000e+000 5.808092e-001 4.191908e-001 0.000000e+000 0.000000e+000
 0.000000e+000 0.000000e+000 3.382668e-001 6.617332e-001 0.000000e+000
 0.000000e+000 0.000000e+000 0.000000e+000 4.726733e-001 5.273267e-001
 0.000000e+000 0.000000e+000 0.000000e+000 0.000000e+000 0.000000e+000
<ENDHMM>
~h "u"
<BEGINHMM>
<NUMSTATES> 5
<STATE> 2
<MEAN> 39
 2.600895e+000 2.258899e+000 -8.097613e-001 -9.391719e+000 -1.085781e+001 -7.340302e+000 -9.925392e+000 -8.819292e+000 -1.354706e+001 -8.979665e+000 1.745443e+000 -4.813323e+000 7.211586e+001 1.993974e-001 3.350756e-001 -1.332812e-001 -3.392409e-001 -8.198737e-002 4.516217e-001 -7.463686e-002 -2.027180e-001 -3.033906e-001 -3.512195e-001 5.090441e-002 3.717365e-001 -1.453063e-001 -2.733910e-001 -1.806455e-001 1.564408e-001 3.827506e-001 2.118674e-001 -5.302634e-002 -4.678902e-002 1.931045e-001 2.266232e-001 1.781144e-001 -5.820607e-003 -1.390734e-001 -8.124194e-002
<VARIANCE> 39
 9.515702e+000 1.237810e+001 1.315282e+001 3.001239e+001 2.851780e+001 2.319324e+001 3.590200e+001 3.309027e+001 2.684011e+001 3.001003e+001 3.777127e+001 2.700614e+001 5.534964e+000 6.748968e-001 8.468680e-001 1.093909e+000 2.218193e+000 1.571608e+000 1.586742e+000 2.178393e+000 2.261674e+000 2.365526e+000 2.370521e+000 2.385989e+000 1.816710e+000 2.687088e-001 1.000086e-001 1.479645e-001 1.748693e-001 2.820940e-001 2.764989e-001 2.808573e-001 4.278447e-001 4.688903e-001 4.521718e-001 4.535647e-001 4.891107e-001 3.522813e-001 4.319032e-002
<GCONST> 9.817172e+001
<STATE> 3
<MEAN> 39
 1.189837e+000 2.431497e+000 4.706986e-001 -7.467929e+000 -9.217671e+000 -7.073108e+000 -1.108769e+001 -8.820689e+000 -1.334028e+001 -8.888809e+000 1.770315e+000 -4.883744e+000 7.104805e+001 -8.137454e-001 -2.214907e-001 3.797248e-001 1.108701e+000 8.143889e-001 -1.891193e-003 -1.043461e-001 4.891903e-001 4.751965e-001 3.686489e-001 6.391853e-002 -1.591492e-001 -4.666144e-001 -2.317749e-001 -1.550293e-001 -7.758845e-006 1.481034e-001 6.494735e-002 -7.921354e-002 1.336597e-001 2.004588e-001 2.114086e-001 1.397433e-001 -2.746530e-002 -9.760974e-002 -4.425979e-002
<VARIANCE> 39
 1.154961e+001 1.292244e+001 1.509459e+001 3.094542e+001 2.929548e+001 2.584921e+001 3.521756e+001 3.104663e+001 2.634028e+001 2.373135e+001 3.058931e+001 2.279583e+001 6.554004e+000 6.467614e-001 8.991849e-001 1.037204e+000 1.715057e+000 1.723122e+000 1.520781e+000 2.306021e+000 2.338295e+000 2.092122e+000 2.167284e+000 2.264344e+000 1.685191e+000 3.450024e-001 9.064105e-002 1.386005e-001 1.633389e-001 2.524070e-001 2.557007e-001 2.832639e-001 4.043694e-001 4.538826e-001 3.985130e-001 3.918031e-001 4.459826e-001 3.518444e-001 4.328264e-002
<GCONST> 9.705502e+001
<STATE> 4
<MEAN> 39
 -2.849529e+000 1.838021e+000 1.354225e+000 -3.225864e+000 -5.666886e+000 -7.294581e+000 -1.040109e+001 -6.785295e+000 -1.177493e+001 -7.405843e+000 1.571963e+000 -4.879064e+000 6.851563e+001 -8.933292e-001 -4.528475e-001 7.412340e-002 8.661939e-001 3.808465e-001 -1.511327e-001 3.105129e-001 6.450126e-001 5.692850e-001 3.384446e-001 -1.645450e-001 -1.551550e-001 -3.409290e-001 9.761568e-002 -1.291422e-001 -1.000617e-001 -1.418762e-001 -2.280062e-001 -9.535691e-002 4.070034e-002 3.229816e-002 -5.531881e-002 -6.429030e-002 -2.400506e-002 -2.371025e-002 1.593782e-001
<VARIANCE> 39
 1.484142e+001 1.308894e+001 1.439864e+001 2.743198e+001 2.781787e+001 2.431690e+001 2.782668e+001 2.888343e+001 2.109856e+001 2.189631e+001 2.395179e+001 2.105056e+001 1.239899e+001 7.386736e-001 1.004296e+000 9.733145e-001 1.514822e+000 1.782713e+000 1.742269e+000 2.110018e+000 2.659824e+000 2.091798e+000 2.012916e+000 1.802498e+000 1.675728e+000 3.924598e-001 8.102208e-002 1.712828e-001 1.939406e-001 2.841537e-001 3.120858e-001 3.583577e-001 4.073666e-001 4.486787e-001 3.615767e-001 3.469126e-001 3.424262e-001 3.281481e-001 5.217118e-002
<GCONST> 9.728180e+001
<TRANSP> 5
 0.000000e+000 1.000000e+000 0.000000e+000 0.000000e+000 0.000000e+000
 0.000000e+000 7.231634e-001 2.768366e-001 0.000000e+000 0.000000e+000
 0.000000e+000 0.000000e+000 5.273905e-001 4.726095e-001 0.000000e+000
 0.000000e+000 0.000000e+000 0.000000e+000 6.614353e-001 3.385648e-001
 0.000000e+000 0.000000e+000 0.000000e+000 0.000000e+000 0.000000e+000
<ENDHMM>
~h "v"
<BEGINHMM>
<NUMSTATES> 5
<STATE> 2
<MEAN> 39
 -3.297454e+000 -3.318373e+000 4.378288e-001 -4.690786e-001 -8.605819e+000 -7.865862e+000 -8.957015e+000 -8.563809e-001 -6.169807e+000 -4.601712e+000 2.467247e+000 -5.467577e+000 7.135635e+001 1.331450e-001 -3.652135e-001 -2.775234e-001 -4.872540e-002 -4.053876e-001 -7.211315e-002 1.427631e-001 4.193428e-001 4.023205e-001 2.558897e-001 1.784214e-001 -1.056418e-001 3.148220e-001 4.054156e-001 -1.400736e-001 -1.730972e-001 -3.782524e-001 -2.995055e-001 -1.243253e-001 -1.573802e-001 -1.811259e-001 -9.739082e-002 3.020779e-002 -4.412924e-003 -2.271359e-001 2.749667e-001
<VARIANCE> 39
 9.843238e+000 1.622620e+001 1.459132e+001 2.610891e+001 2.772130e+001 3.216331e+001 2.393065e+001 2.811798e+001 3.424326e+001 2.785297e+001 2.279575e+001 2.086576e+001 9.281340e+000 1.382761e+000 1.192173e+000 1.118394e+000 2.083222e+000 2.074911e+000 2.008125e+000 1.934292e+000 2.332309e+000 2.101372e+000 2.229144e+000 2.160315e+000 1.413110e+000 7.937112e-001 1.744265e-001 1.811151e-001 1.866030e-001 3.492852e-001 3.815462e-001 4.160533e-001 3.646260e-001 4.629215e-001 4.070679e-001 4.343410e-001 3.460546e-001 3.196482e-001 8.863943e-002
<GCONST> 1.017970e+002
<STATE> 3
<MEAN> 39
 -1.900577e+000 -4.124695e+000 -4.643586e-001 -1.944702e+000 -1.026825e+001 -8.461580e+000 -9.023873e+000 -7.510675e-001 -5.732655e+000 -4.015632e+000 2.875725e+000 -6.272953e+000 7.257759e+001 8.090812e-001 -5.477452e-001 -5.384645e-001 -7.648993e-001 -8.003200e-001 -2.243098e-001 -1.758326e-001 -1.905114e-001 6.606565e-002 2.609550e-001 7.176533e-002 -4.010704e-001 6.999103e-001 1.267871e-001 -1.474545e-002 -2.247009e-003 -2.243121e-001 -5.495357e-002 9.382809e-002 -8.916021e-002 -1.539280e-001 -1.607436e-001 -1.280650e-001 -1.021961e-001 -8.319665e-002 4.203061e-002
<VARIANCE> 39
 1.442747e+001 2.011662e+001 1.620671e+001 2.888591e+001 2.717512e+001 3.630530e+001 2.814012e+001 3.423335e+001 3.789092e+001 2.705041e+001 2.484812e+001 2.453203e+001 1.143891e+001 1.491475e+000 1.387002e+000 1.480181e+000 2.335138e+000 2.363051e+000 2.776834e+000 2.053337e+000 2.856560e+000 2.181382e+000 2.748129e+000 2.353106e+000 1.878783e+000 6.889956e-001 2.379453e-001 2.429486e-001 2.050379e-001 3.987038e-001 4.278194e-001 4.309133e-001 4.055261e-001 5.958661e-001 4.672784e-001 3.772056e-001 4.038758e-001 3.249443e-001 1.155010e-001
<GCONST> 1.071748e+002
<STATE> 4
<MEAN> 39
 -4.594059e-001 -5.313729e+000 -1.399667e+000 -3.287646e+000 -1.183430e+001 -8.484641e+000 -9.609326e+000 -1.552174e+000 -6.076567e+000 -3.859834e+000 2.774654e+000 -7.420527e+000 7.374078e+001 7.081490e-001 -4.569858e-001 -3.484587e-001 -8.903823e-001 -7.130789e-001 1.801137e-002 -2.986740e-001 -2.207648e-001 -1.032016e-001 -7.220533e-002 -1.477790e-001 -3.941117e-001 5.570258e-001 -1.234002e-001 7.983443e-002 1.488048e-001 1.505651e-002 1.400844e-001 1.387095e-001 -4.988622e-004 2.808811e-002 -7.945769e-002 -1.462734e-001 -5.503002e-002 5.784679e-002 -1.292398e-001
<VARIANCE> 39
 1.925489e+001 2.759317e+001 2.031368e+001 3.404655e+001 2.822434e+001 4.104481e+001 3.386036e+001 4.399125e+001 4.372118e+001 3.039892e+001 2.747257e+001 3.158706e+001 1.443903e+001 1.396640e+000 1.735525e+000 1.550780e+000 2.398496e+000 2.303957e+000 2.809883e+000 2.211501e+000 3.811798e+000 2.583557e+000 2.460793e+000 2.024284e+000 2.279325e+000 6.060910e-001 2.142575e-001 2.416546e-001 1.969032e-001 3.539067e-001 4.466449e-001 4.344163e-001 4.065414e-001 5.835294e-001 3.979130e-001 4.183719e-001 4.905803e-001 3.280712e-001 1.134086e-001
<GCONST> 1.100579e+002
<TRANSP> 5
 0.000000e+000 1.000000e+000 0.000000e+000 0.000000e+000 0.000000e+000
 0.000000e+000 4.855843e-001 5.144157e-001 0.000000e+000 0.000000e+000
 0.000000e+000 0.000000e+000 2.173833e-001 7.826167e-001 0.000000e+000
 0.000000e+000 0.000000e+000 0.000000e+000 2.008001e-001 7.991999e-001
 0.000000e+000 0.000000e+000 0.000000e+000 0.000000e+000 0.000000e+000
<ENDHMM>
~h "z"
<BEGINHMM>
<NUMSTATES> 5
<STATE> 2
<MEAN> 39
 -8.458036e+000 3.802337e+000 -2.447000e+000 1.714092e+000 -4.777030e+000 -1.104971e+001 -8.267872e+000 -2.318947e+000 -6.628640e+000 -4.902777e+000 1.016204e+000 -7.606996e+000 7.311231e+001 -9.012416e-001 4.145029e-001 -1.860825e-001 6.414742e-001 4.555474e-001 -2.410885e-001 1.037206e+000 2.740377e-001 -1.509342e-001 2.068158e-001 -1.031668e-001 2.566399e-001 -9.067070e-002 2.661547e-001 -2.057180e-001 3.022687e-002 -1.389721e-001 -2.034277e-001 -1.160139e-001 -2.216196e-001 -9.877086e-002 -2.266070e-002 2.939643e-002 -5.904570e-002 -7.042695e-002 8.504543e-002
<VARIANCE> 39
 1.087052e+001 9.491961e+000 2.501989e+001 1.714378e+001 2.139894e+001 2.435085e+001 3.376351e+001 2.367457e+001 3.138050e+001 3.271086e+001 3.128321e+001 3.131221e+001 8.422395e+000 7.076078e-001 7.623247e-001 9.293200e-001 9.199288e-001 1.166139e+000 1.785135e+000 2.282716e+000 2.033226e+000 1.632539e+000 1.560236e+000 2.026256e+000 1.455403e+000 1.315400e-001 8.033480e-002 1.451010e-001 1.511455e-001 1.579379e-001 2.142421e-001 2.886117e-001 4.520708e-001 4.265984e-001 3.356738e-001 3.343503e-001 3.797224e-001 2.930626e-001 1.806950e-002
<GCONST> 9.173627e+001
<STATE> 3
<MEAN> 39
 -9.771863e+000 3.595772e+000 -2.374000e+000 3.003635e+000 -4.649777e+000 -1.334986e+001 -6.183787e+000 -2.124063e+000 -7.329785e+000 -3.055295e+000 6.185245e-001 -7.020617e+000 7.316431e+001 1.023282e+000 -2.735283e-001 -9.600487e-002 -5.530734e-001 -9.289206e-001 -1.068502e+000 -9.246013e-001 -7.613028e-001 4.160091e-002 2.840078e-001 -1.363583e-001 -3.888440e-001 5.019494e-001 4.082076e-001 -2.009573e-001 5.686333e-002 -2.413858e-001 -4.235024e-001 -1.263106e-001 -3.411960e-001 -9.608842e-002 1.225190e-001 -1.303706e-001 6.683868e-002 -6.750187e-002 1.426711e-001
<VARIANCE> 39
 1.000624e+001 9.241020e+000 2.061117e+001 2.502348e+001 2.575248e+001 2.611361e+001 2.420659e+001 2.887301e+001 3.171276e+001 1.982717e+001 2.786425e+001 2.567814e+001 6.872494e+000 9.184030e-001 8.487719e-001 7.578686e-001 1.375093e+000 1.930558e+000 3.258442e+000 2.316966e+000 2.488262e+000 1.849524e+000 1.587995e+000 2.078069e+000 2.015034e+000 2.672457e-001 8.544623e-002 1.854002e-001 1.730965e-001 2.804544e-001 3.545710e-001 4.349635e-001 4.196944e-001 5.762266e-001 3.541874e-001 2.926758e-001 3.148847e-001 3.566755e-001 2.877643e-002
<GCONST> 9.656702e+001
<STATE> 4
<MEAN> 39
 -3.737856e+000 5.125133e-001 -1.918203e+000 4.800873e-001 -1.152508e+001 -1.867769e+001 -1.067927e+001 -4.004439e+000 -4.935684e+000 -3.327977e+000 1.154450e-001 -8.979678e+000 7.593600e+001 1.203410e+000 -1.328942e+000 2.214101e-001 -9.003333e-001 -1.782164e+000 -7.800776e-001 -3.655914e-001 4.767291e-001 2.862005e-001 -7.218397e-001 6.601786e-002 -4.543236e-002 5.860174e-001 -2.457695e-001 -4.165149e-002 7.136852e-002 2.505354e-002 2.174121e-001 4.322210e-001 4.449760e-001 3.549277e-001 -1.867661e-001 -2.964951e-001 8.667623e-002 1.810561e-001 -2.016887e-001
<VARIANCE> 39
 1.031364e+001 1.705479e+001 2.351719e+001 3.285491e+001 3.823235e+001 4.571849e+001 2.293473e+001 3.174566e+001 3.386389e+001 2.685161e+001 3.268206e+001 2.990230e+001 9.404403e+000 6.319715e-001 1.125030e+000 9.226593e-001 2.213673e+000 1.788426e+000 3.176445e+000 2.250646e+000 3.617962e+000 2.512615e+000 2.154785e+000 1.494614e+000 2.020980e+000 3.084734e-001 7.589007e-002 1.697052e-001 1.462004e-001 1.972842e-001 2.887984e-001 3.818506e-001 4.442151e-001 3.902400e-001 3.461632e-001 4.031421e-001 2.845031e-001 3.563581e-001 5.075388e-002
<GCONST> 1.002236e+002
<TRANSP> 5
 0.000000e+000 1.000000e+000 0.000000e+000 0.000000e+000 0.000000e+000
 0.000000e+000 8.352591e-001 1.647409e-001 0.000000e+000 0.000000e+000
 0.000000e+000 0.000000e+000 6.740009e-001 3.259991e-001 0.000000e+000
 0.000000e+000 0.000000e+000 0.000000e+000 6.206607e-001 3.793393e-001
 0.000000e+000 0.000000e+000 0.000000e+000 0.000000e+000 0.000000e+000
<ENDHMM>
~h "dZ"
<BEGINHMM>
<NUMSTATES> 5
<STATE> 2
<MEAN> 39
 0.000000e+000 0.000000e+000 0.000000e+000 0.000000e+000 0.000000e+000 0.000000e+000 0.000000e+000 0.000000e+000 0.000000e+000 0.000000e+000 0.000000e+000 0.000000e+000 0.000000e+000 0.000000e+000 0.000000e+000 0.000000e+000 0.000000e+000 0.000000e+000 0.000000e+000 0.000000e+000 0.000000e+000 0.000000e+000 0.000000e+000 0.000000e+000 0.000000e+000 0.000000e+000 0.000000e+000 0.000000e+000 0.000000e+000 0.000000e+000 0.000000e+000 0.000000e+000 0.000000e+000 0.000000e+000 0.000000e+000 0.000000e+000 0.000000e+000 0.000000e+000 0.000000e+000
<VARIANCE> 39
 4.802870e+001 3.919962e+001 4.083347e+001 5.110464e+001 5.947346e+001 6.982193e+001 4.461862e+001 6.076912e+001 6.558930e+001 3.934811e+001 4.255383e+001 3.828574e+001 1.773774e+001 1.673751e+000 1.520754e+000 1.510600e+000 1.951665e+000 2.723080e+000 2.906663e+000 2.545575e+000 3.368784e+000 3.072292e+000 2.462801e+000 2.397094e+000 2.092973e+000 6.908072e-001 2.142570e-001 2.372774e-001 2.387956e-001 3.090875e-001 4.508726e-001 4.826550e-001 4.663026e-001 5.877293e-001 5.234756e-001 4.527536e-001 4.377139e-001 3.798661e-001 1.052875e-001
<GCONST> 1.168353e+002
<STATE> 3
<MEAN> 39
 0.000000e+000 0.000000e+000 0.000000e+000 0.000000e+000 0.000000e+000 0.000000e+000 0.000000e+000 0.000000e+000 0.000000e+000 0.000000e+000 0.000000e+000 0.000000e+000 0.000000e+000 0.000000e+000 0.000000e+000 0.000000e+000 0.000000e+000 0.000000e+000 0.000000e+000 0.000000e+000 0.000000e+000 0.000000e+000 0.000000e+000 0.000000e+000 0.000000e+000 0.000000e+000 0.000000e+000 0.000000e+000 0.000000e+000 0.000000e+000 0.000000e+000 0.000000e+000 0.000000e+000 0.000000e+000 0.000000e+000 0.000000e+000 0.000000e+000 0.000000e+000 0.000000e+000
<VARIANCE> 39
 4.802870e+001 3.919962e+001 4.083347e+001 5.110464e+001 5.947346e+001 6.982193e+001 4.461862e+001 6.076912e+001 6.558930e+001 3.934811e+001 4.255383e+001 3.828574e+001 1.773774e+001 1.673751e+000 1.520754e+000 1.510600e+000 1.951665e+000 2.723080e+000 2.906663e+000 2.545575e+000 3.368784e+000 3.072292e+000 2.462801e+000 2.397094e+000 2.092973e+000 6.908072e-001 2.142570e-001 2.372774e-001 2.387956e-001 3.090875e-001 4.508726e-001 4.826550e-001 4.663026e-001 5.877293e-001 5.234756e-001 4.527536e-001 4.377139e-001 3.798661e-001 1.052875e-001
<GCONST> 1.168353e+002
<STATE> 4
<MEAN> 39
 0.000000e+000 0.000000e+000 0.000000e+000 0.000000e+000 0.000000e+000 0.000000e+000 0.000000e+000 0.000000e+000 0.000000e+000 0.000000e+000 0.000000e+000 0.000000e+000 0.000000e+000 0.000000e+000 0.000000e+000 0.000000e+000 0.000000e+000 0.000000e+000 0.000000e+000 0.000000e+000 0.000000e+000 0.000000e+000 0.000000e+000 0.000000e+000 0.000000e+000 0.000000e+000 0.000000e+000 0.000000e+000 0.000000e+000 0.000000e+000 0.000000e+000 0.000000e+000 0.000000e+000 0.000000e+000 0.000000e+000 0.000000e+000 0.000000e+000 0.000000e+000 0.000000e+000
<VARIANCE> 39
 4.802870e+001 3.919962e+001 4.083347e+001 5.110464e+001 5.947346e+001 6.982193e+001 4.461862e+001 6.076912e+001 6.558930e+001 3.934811e+001 4.255383e+001 3.828574e+001 1.773774e+001 1.673751e+000 1.520754e+000 1.510600e+000 1.951665e+000 2.723080e+000 2.906663e+000 2.545575e+000 3.368784e+000 3.072292e+000 2.462801e+000 2.397094e+000 2.092973e+000 6.908072e-001 2.142570e-001 2.372774e-001 2.387956e-001 3.090875e-001 4.508726e-001 4.826550e-001 4.663026e-001 5.877293e-001 5.234756e-001 4.527536e-001 4.377139e-001 3.798661e-001 1.052875e-001
<GCONST> 1.168353e+002
<TRANSP> 5
 0.000000e+000 1.000000e+000 0.000000e+000 0.000000e+000 0.000000e+000
 0.000000e+000 6.000000e-001 4.000000e-001 0.000000e+000 0.000000e+000
 0.000000e+000 0.000000e+000 6.000000e-001 4.000000e-001 0.000000e+000
 0.000000e+000 0.000000e+000 0.000000e+000 7.000000e-001 3.000000e-001
 0.000000e+000 0.000000e+000 0.000000e+000 0.000000e+000 0.000000e+000
<ENDHMM>
~h "ts"
<BEGINHMM>
<NUMSTATES> 5
<STATE> 2
<MEAN> 39
 -1.358749e+001 5.863706e-001 -2.834982e+000 1.588565e+000 -8.340655e+000 -1.183576e+001 -6.698801e+000 1.039517e-001 -8.100989e+000 -5.638864e+000 1.120240e+000 -6.076582e+000 7.023840e+001 -1.039184e+000 -1.845192e-001 -5.034524e-001 5.290938e-001 -1.836326e-001 -5.523261e-001 5.179211e-001 2.222865e-001 -2.572646e-001 -5.378439e-001 -1.635666e-001 -1.066010e-001 3.318452e-001 2.940450e-001 -4.761549e-002 6.378352e-002 -1.370923e-001 5.363816e-002 -1.528531e-001 -1.039877e-001 -4.536210e-002 -4.517948e-002 -2.799780e-002 -8.130638e-002 -9.065563e-002 1.409768e-001
<VARIANCE> 39
 1.507993e+001 7.933978e+000 1.666608e+001 1.764248e+001 3.368320e+001 2.255673e+001 2.330758e+001 2.432563e+001 2.845470e+001 2.318753e+001 2.332478e+001 1.828459e+001 1.249593e+001 8.597527e-001 7.467147e-001 9.133617e-001 1.555870e+000 1.883608e+000 2.059425e+000 1.928072e+000 2.224756e+000 1.901404e+000 1.839523e+000 2.077223e+000 1.577291e+000 3.901748e-001 1.982245e-001 1.292174e-001 1.545260e-001 3.007148e-001 3.919027e-001 3.577213e-001 3.960073e-001 4.305102e-001 3.732912e-001 3.922280e-001 4.067512e-001 3.280521e-001 7.070558e-002
<GCONST> 9.735722e+001
<STATE> 3
<MEAN> 39
