~o
<STREAMINFO> 1 39
<VECSIZE> 39<NULLD><MFCC_D_A_0><DIAGC>
~s "silst"
<MEAN> 39
 -9.425683e+000 3.508914e-001 -1.600562e-001 6.143983e+000 6.126872e+000 4.894668e+000 3.149344e+000 4.764920e+000 3.285976e-001 4.589271e+000 2.773154e+000 7.543988e-001 5.573593e+001 -1.674565e-001 7.096879e-002 1.025518e-001 9.175888e-002 5.152046e-002 4.831682e-004 -2.267094e-002 -6.788369e-003 2.377980e-003 2.439523e-002 1.760784e-002 1.369016e-003 -1.737911e-001 8.665621e-002 -8.157538e-002 1.401264e-002 -9.775053e-003 -2.524897e-002 -9.902661e-002 -4.544066e-002 -5.739782e-002 -6.475841e-002 -4.292196e-002 -2.528390e-002 -3.321264e-002 1.583635e-001
<VARIANCE> 39
 3.354747e+001 8.998579e+001 5.021006e+001 3.528460e+001 3.745488e+001 3.038627e+001 3.222955e+001 3.241693e+001 3.157247e+001 2.752292e+001 2.218298e+001 2.676813e+001 4.317229e+001 2.094904e+000 5.248668e+000 3.525279e+000 2.764932e+000 2.310837e+000 2.719156e+000 2.453500e+000 2.604513e+000 2.506907e+000 2.400146e+000 1.829850e+000 1.914970e+000 3.274635e+000 3.451208e-001 9.345900e-001 6.443621e-001 5.227217e-001 4.503508e-001 5.442917e-001 4.802909e-001 4.998708e-001 4.760651e-001 4.568517e-001 3.539115e-001 3.600110e-001 5.153072e-001
<GCONST> 1.213777e+002
~h "B"
<BEGINHMM>
<NUMSTATES> 5
<STATE> 2
<MEAN> 39
 4.329672e+000 8.040004e+000 -1.632982e-001 6.910011e+000 5.188501e+000 5.883526e-001 1.699516e+000 1.742065e+000 -5.972063e+000 -1.423957e+000 -2.568024e+000 -3.821901e+000 6.590501e+001 -3.760124e-001 1.007954e+000 5.019341e-001 5.506919e-001 1.391698e-001 1.273528e+000 7.012329e-001 3.682826e-001 1.264783e-001 -4.418785e-001 -4.152103e-001 4.829686e-002 -1.202877e+000 1.071995e-002 -1.314242e+000 -6.265911e-002 -3.166770e-001 2.243160e-001 -8.163745e-001 -6.650531e-001 -3.277859e-001 -1.912706e-001 1.625994e-001 3.988522e-001 7.298788e-002 1.201070e+000
<VARIANCE> 39
 1.788041e+001 4.544389e+001 4.465982e+001 4.273219e+001 4.691773e+001 6.579477e+001 2.553550e+001 4.049089e+001 5.180240e+001 2.851624e+001 2.678613e+001 2.696948e+001 3.280548e+001 1.536094e+000 6.588186e+000 2.730333e+000 4.844361e+000 4.539395e+000 4.606804e+000 4.653761e+000 3.767715e+000 4.025867e+000 3.334624e+000 2.801204e+000 2.604173e+000 4.467878e+000 3.113457e-001 8.941309e-001 6.210067e-001 7.794020e-001 5.494044e-001 8.434331e-001 9.456061e-001 6.227702e-001 7.727137e-001 6.166401e-001 5.677167e-001 4.771053e-001 6.360825e-001
<GCONST> 1.293580e+002
<STATE> 3
<MEAN> 39
 4.370212e+000 4.014842e+000 -5.235330e-002 6.280077e+000 6.265601e+000 -1.320757e+000 1.502138e+000 4.864914e-002 -8.292024e+000 -2.454583e+000 -2.764212e+000 -2.506276e+000 6.870766e+001 2.680243e-001 -1.637342e+000 -3.596301e-001 -1.318409e-002 8.916888e-001 -9.400156e-001 -1.122079e+000 -9.099084e-001 -8.814350e-001 6.746113e-002 7.199338e-001 7.193822e-002 1.481728e+000 3.424573e-002 -7.825491e-001 -1.312007e-001 -1.055600e-002 9.606025e-002 -1.056368e+000 -5.582875e-001 -3.447911e-001 1.164362e-001 3.961427e-001 2.415623e-001 -1.080095e-001 8.221228e-001
<VARIANCE> 39
 2.008639e+001 2.591105e+001 4.769302e+001 4.657288e+001 6.151397e+001 7.003902e+001 2.843722e+001 4.062640e+001 5.976160e+001 3.127474e+001 3.022994e+001 2.495710e+001 2.018002e+001 1.145468e+000 4.010862e+000 2.273611e+000 4.198779e+000 4.960671e+000 4.254574e+000 3.835769e+000 3.104617e+000 3.534575e+000 2.534508e+000 2.387390e+000 2.586624e+000 2.908000e+000 2.494704e-001 3.654945e-001 5.539222e-001 5.277741e-001 4.586416e-001 8.433173e-001 7.438073e-001 6.028324e-001 7.209153e-001 5.742932e-001 6.067805e-001 4.693009e-001 2.534480e-001
<GCONST> 1.237231e+002
<STATE> 4
<MEAN> 39
 5.482379e+000 2.497430e-001 -1.777182e+000 6.374541e+000 7.783981e+000 -5.585446e+000 -2.035811e+000 -3.364884e+000 -1.028278e+001 -9.311145e-001 -5.703764e-001 -2.832114e+000 7.277805e+001 -2.655649e-002 -2.077878e+000 -5.496237e-002 2.643964e-001 7.426074e-001 -2.129028e+000 -1.596566e+000 -8.511453e-001 6.468004e-003 6.554821e-001 5.935820e-001 -3.247375e-001 1.912065e+000 -1.992844e-001 -5.172990e-003 2.437505e-001 8.034455e-002 -2.330147e-001 -2.861590e-001 2.807777e-002 2.376602e-001 4.475627e-001 1.140289e-001 -1.515764e-001 -7.431004e-002 -7.287804e-003
<VARIANCE> 39
 1.872212e+001 2.524493e+001 4.239653e+001 7.519795e+001 9.935321e+001 8.377924e+001 4.646306e+001 5.393549e+001 7.208252e+001 4.056280e+001 3.890691e+001 3.614368e+001 1.570782e+001 1.187245e+000 2.507800e+000 3.110919e+000 4.610535e+000 3.895113e+000 4.229100e+000 4.355436e+000 3.244741e+000 3.391264e+000 2.938486e+000 3.111745e+000 3.170480e+000 1.931046e+000 1.298545e-001 3.955039e-001 3.328348e-001 3.594300e-001 5.266114e-001 7.591820e-001 4.941707e-001 5.035952e-001 5.963966e-001 4.603327e-001 4.395619e-001 3.806665e-001 2.560863e-001
<GCONST> 1.233476e+002
<TRANSP> 5
 0.000000e+000 1.000000e+000 0.000000e+000 0.000000e+000 0.000000e+000
 0.000000e+000 4.567542e-001 5.432458e-001 0.000000e+000 0.000000e+000
 0.000000e+000 0.000000e+000 2.657652e-001 7.342349e-001 0.000000e+000
 0.000000e+000 0.000000e+000 0.000000e+000 3.162656e-001 6.837344e-001
 0.000000e+000 0.000000e+000 0.000000e+000 0.000000e+000 0.000000e+000
<ENDHMM>
~h "D"
<BEGINHMM>
<NUMSTATES> 5
<STATE> 2
<MEAN> 39
 1.764992e+000 3.171616e-002 3.154850e+000 3.647989e+000 5.259415e+000 -1.492793e+000 -1.171587e+000 -4.708004e+000 -8.086466e+000 -9.483666e-001 -2.253996e+000 -1.642002e+000 7.285741e+001 -2.021609e-001 1.048646e+000 6.609386e-001 5.888897e-001 4.336573e-001 1.528791e+000 3.245798e-001 -3.464880e-001 -2.343776e-001 -6.627136e-001 -3.752763e-001 -1.195493e-002 -1.087410e+000 2.668720e-002 -4.816279e-001 -1.363303e-001 -9.189836e-002 -4.817603e-002 -5.761561e-001 -1.704517e-001 1.267654e-001 1.351768e-001 2.082316e-001 1.969800e-001 3.493564e-002 4.223146e-001
<VARIANCE> 39
 2.657825e+001 2.123251e+001 4.527882e+001 5.247718e+001 6.332538e+001 6.073238e+001 5.036514e+001 7.898903e+001 5.308254e+001 4.049309e+001 3.056600e+001 3.091619e+001 2.240723e+001 3.976571e+000 2.317688e+000 3.934745e+000 3.885508e+000 2.918619e+000 4.505049e+000 4.266817e+000 3.630347e+000 4.143075e+000 3.096480e+000 2.709409e+000 2.305582e+000 2.995185e+000 2.573864e-001 3.645894e-001 3.671320e-001 3.966035e-001 3.848862e-001 6.442803e-001 5.194274e-001 5.003852e-001 6.240577e-001 4.515912e-001 3.921048e-001 3.373230e-001 3.222395e-001
<GCONST> 1.242516e+002
<STATE> 3
<MEAN> 39
 4.262657e-001 1.560604e+000 5.123556e+000 4.841171e+000 6.455951e+000 1.544594e+000 -6.511803e-001 -3.890207e+000 -7.156080e+000 -2.179781e+000 -2.448597e+000 -1.721597e+000 7.095280e+001 2.171881e-001 -5.803301e-001 -3.759626e-002 -6.655119e-002 -2.382078e-002 -5.054534e-001 -5.514082e-001 -5.223503e-001 -3.364558e-001 1.064900e-001 2.764952e-001 2.016173e-001 5.569509e-001 3.432324e-001 -6.921851e-001 -4.882472e-001 -2.827246e-001 -2.071605e-001 -1.089883e+000 -4.215255e-001 -1.547944e-002 -1.217328e-001 3.848552e-001 2.806588e-001 -3.458435e-003 7.831891e-001
<VARIANCE> 39
 2.429683e+001 2.398314e+001 4.236676e+001 4.010057e+001 5.826577e+001 6.178822e+001 4.569571e+001 7.173679e+001 4.630713e+001 3.550846e+001 2.705167e+001 2.350538e+001 2.480990e+001 2.660503e+000 2.046365e+000 2.827730e+000 2.980917e+000 2.465502e+000 3.792470e+000 3.194430e+000 2.667233e+000 3.327138e+000 2.417523e+000 2.106508e+000 2.030430e+000 2.304179e+000 4.889949e-001 4.704378e-001 6.081740e-001 5.566600e-001 4.516835e-001 7.400240e-001 7.310402e-001 6.007912e-001 7.919099e-001 5.696976e-001 4.947601e-001 4.038186e-001 3.823442e-001
<GCONST> 1.235756e+002
<STATE> 4
<MEAN> 39
 2.894294e+000 -2.604212e+000 1.938502e+000 3.192106e+000 4.124363e+000 -4.805670e+000 -3.110106e+000 -6.801007e+000 -9.329997e+000 3.375948e-001 -1.137517e+000 -7.850450e-001 7.547604e+001 5.075127e-001 -1.039976e+000 -7.771105e-001 -3.211952e-001 -1.794885e-001 -1.815691e+000 -7.459643e-001 -2.249537e-001 -1.228579e-001 7.182039e-001 6.012579e-001 5.164805e-002 1.219275e+000 -5.577746e-002 1.456905e-002 -9.100994e-002 1.408554e-002 -1.781588e-002 -1.446007e-001 1.446912e-001 2.998984e-001 2.327799e-001 4.878127e-002 -1.803979e-002 -7.057919e-002 -2.860607e-002
<VARIANCE> 39
 1.623672e+001 1.589902e+001 3.628703e+001 4.390082e+001 7.103241e+001 6.083039e+001 5.731437e+001 7.072845e+001 5.013750e+001 4.848771e+001 3.477236e+001 2.846322e+001 1.717593e+001 1.684239e+000 1.720104e+000 2.420161e+000 2.705392e+000 2.332087e+000 3.383564e+000 2.990693e+000 2.683516e+000 3.402336e+000 2.492337e+000 2.150659e+000 1.906230e+000 1.535367e+000 2.346216e-001 2.263616e-001 2.647412e-001 2.654839e-001 2.736620e-001 5.479051e-001 4.071097e-001 3.990344e-001 4.839476e-001 4.184487e-001 3.164019e-001 2.667616e-001 2.212763e-001
<GCONST> 1.150053e+002
<TRANSP> 5
 0.000000e+000 1.000000e+000 0.000000e+000 0.000000e+000 0.000000e+000
 0.000000e+000 2.086318e-001 7.913682e-001 0.000000e+000 0.000000e+000
 0.000000e+000 0.000000e+000 4.345807e-001 5.654193e-001 0.000000e+000
 0.000000e+000 0.000000e+000 0.000000e+000 4.348313e-001 5.651688e-001
 0.000000e+000 0.000000e+000 0.000000e+000 0.000000e+000 0.000000e+000
<ENDHMM>
~h "G"
<BEGINHMM>
<NUMSTATES> 5
<STATE> 2
<MEAN> 39
 1.040913e+000 -6.792912e-001 2.025673e+000 4.284635e+000 4.813721e+000 -2.605223e+000 1.874734e+000 -1.141850e+000 -7.490262e+000 -1.700594e+000 6.027949e-001 -5.259507e-001 7.159677e+001 -4.103435e-001 7.805328e-001 5.550001e-001 -7.034116e-001 -1.037813e+000 3.035690e-001 1.102902e+000 7.335910e-001 2.190980e-001 -2.553916e-001 -2.194759e-001 -1.332804e-001 -7.173936e-001 3.919925e-001 -2.000339e-001 -2.799831e-001 -1.400343e-001 -1.566653e-001 -6.345416e-001 -4.430213e-001 -1.166536e-002 2.333151e-001 3.162650e-001 -9.174493e-003 -1.342155e-001 4.443982e-001
<VARIANCE> 39
 3.403705e+001 3.249018e+001 5.643508e+001 6.608382e+001 7.685173e+001 1.004541e+002 6.001503e+001 6.267207e+001 6.099485e+001 4.558175e+001 4.528302e+001 3.548766e+001 2.871074e+001 2.935215e+000 3.645056e+000 4.332907e+000 3.818504e+000 4.745595e+000 4.550260e+000 4.827061e+000 5.322494e+000 4.289209e+000 3.820446e+000 3.836632e+000 2.896336e+000 2.485289e+000 8.273472e-001 5.991347e-001 1.119912e+000 7.853914e-001 6.691099e-001 8.653650e-001 8.390500e-001 7.513744e-001 8.440334e-001 6.756077e-001 7.638597e-001 5.843194e-001 5.872823e-001
<GCONST> 1.366346e+002
<STATE> 3
<MEAN> 39
 9.224907e-001 1.811425e+000 4.608960e+000 1.825979e+000 2.724169e-001 -5.329517e+000 3.184480e+000 2.063633e+000 -4.688031e+000 -1.937902e+000 -9.338634e-001 -2.485116e+000 7.098937e+001 4.410588e-001 6.451172e-001 2.070823e-001 -4.365515e-001 -1.002828e+000 -1.066521e+000 -4.803173e-001 1.518725e-001 5.536976e-001 6.751537e-001 3.210141e-001 -3.116609e-001 -3.637997e-002 4.912002e-001 -3.129408e-001 -5.953128e-001 1.245330e-001 3.355392e-001 -3.394090e-001 -5.880967e-001 -4.105813e-001 -1.858472e-001 2.836389e-001 1.443388e-001 1.214247e-001 4.264932e-001
<VARIANCE> 39
 2.560357e+001 3.536924e+001 5.616953e+001 5.719744e+001 7.445385e+001 1.021258e+002 5.234269e+001 6.551015e+001 6.129864e+001 4.367111e+001 4.305156e+001 3.828591e+001 1.938997e+001 3.700086e+000 4.377462e+000 6.815026e+000 3.363774e+000 4.198982e+000 3.991243e+000 4.456214e+000 5.119648e+000 4.787634e+000 3.884007e+000 4.533638e+000 3.331042e+000 3.401811e+000 5.974177e-001 4.968679e-001 9.499400e-001 7.409068e-001 7.406256e-001 8.033740e-001 9.017005e-001 1.033729e+000 9.400313e-001 8.152956e-001 8.736594e-001 6.004838e-001 3.580704e-001
<GCONST> 1.365337e+002
<STATE> 4
<MEAN> 39
 4.569676e+000 4.303344e+000 2.385491e+000 1.828493e+000 -2.928687e+000 -1.085978e+001 1.590449e-002 1.157713e+000 -4.798181e+000 7.816176e-001 5.960016e-001 -2.391951e+000 7.091560e+001 9.594924e-001 -2.563053e-001 -1.131473e+000 -3.474137e-001 8.055025e-003 -6.353375e-001 -5.952237e-001 -3.018300e-001 -6.562418e-002 4.673319e-001 -2.161873e-002 6.009896e-002 6.407860e-001 2.882619e-002 -2.986542e-001 -3.608083e-001 -5.184200e-002 2.847492e-001 2.303657e-001 1.467516e-001 5.993577e-002 -4.141401e-002 -1.270408e-001 -1.552580e-001 -5.006180e-003 1.784992e-001
<VARIANCE> 39
 1.492599e+001 5.330538e+001 5.977536e+001 5.966939e+001 8.470992e+001 1.000912e+002 5.375584e+001 6.752226e+001 6.539565e+001 3.932738e+001 4.969267e+001 3.681521e+001 2.060207e+001 2.245386e+000 2.727160e+000 4.876597e+000 3.156834e+000 3.370377e+000 3.961236e+000 3.967931e+000 3.289288e+000 3.417266e+000 3.159913e+000 3.510666e+000 2.519718e+000 1.946479e+000 2.881098e-001 3.829997e-001 5.744454e-001 4.354432e-001 4.216146e-001 5.617027e-001 5.780604e-001 6.803034e-001 6.430515e-001 5.111505e-001 5.810262e-001 4.124869e-001 2.839712e-001
<GCONST> 1.273359e+002
<TRANSP> 5
 0.000000e+000 1.000000e+000 0.000000e+000 0.000000e+000 0.000000e+000
 0.000000e+000 3.109486e-001 6.890514e-001 0.000000e+000 0.000000e+000
 0.000000e+000 0.000000e+000 3.632664e-001 6.367335e-001 0.000000e+000
 0.000000e+000 0.000000e+000 0.000000e+000 5.169713e-001 4.830287e-001
 0.000000e+000 0.000000e+000 0.000000e+000 0.000000e+000 0.000000e+000
<ENDHMM>
~h "J"
<BEGINHMM>
<NUMSTATES> 5
<STATE> 2
<MEAN> 39
 2.717197e+000 1.482309e+000 6.305162e+000 8.933423e+000 5.458916e+000 -5.777772e+000 -2.288450e-001 -1.368180e+000 -4.721603e+000 4.032974e+000 4.808767e-001 -6.486171e+000 7.221021e+001 4.120176e-001 1.861626e+000 3.094192e-001 3.014321e-001 -9.040188e-001 2.104601e+000 1.033049e+000 -1.677499e-001 -3.507300e-001 8.554954e-002 -3.505786e-001 -1.345853e+000 -1.458174e+000 1.101707e-001 -3.096980e-001 -5.034291e-001 -2.885472e-001 -1.773624e-002 4.343691e-002 7.532133e-003 -9.275418e-002 -7.981300e-002 1.757816e-002 1.652390e-001 1.735744e-001 2.250935e-001
<VARIANCE> 39
 1.285291e+001 2.714472e+001 2.748820e+001 3.658965e+001 6.240130e+001 8.492467e+001 4.488100e+001 3.557928e+001 7.819053e+001 4.583100e+001 6.682153e+001 2.784135e+001 1.537693e+001 6.314799e-001 1.417528e+000 3.185341e+000 3.345715e+000 2.411900e+000 3.658539e+000 3.100549e+000 5.033926e+000 3.091244e+000 4.217787e+000 4.635758e+000 2.736627e+000 5.513520e-001 1.640874e-001 3.623923e-001 4.106331e-001 5.051262e-001 4.840778e-001 1.199159e+000 6.679117e-001 7.016634e-001 4.969150e-001 6.114998e-001 5.819052e-001 4.441839e-001 1.675011e-001
<GCONST> 1.205078e+002
<STATE> 3
<MEAN> 39
 1.805463e+000 1.965328e+000 7.273392e+000 1.038912e+001 4.640971e+000 -6.350553e+000 -6.071302e-001 5.334812e-002 -4.807174e+000 3.418686e+000 4.491076e-001 -8.052072e+000 7.211325e+001 -3.568048e-001 -9.817091e-001 -9.173756e-002 2.222585e-001 4.928148e-001 -1.485041e+000 -1.016031e+000 2.930984e-001 3.526728e-001 -7.114737e-002 2.156125e-001 5.757737e-001 7.033986e-001 6.093754e-002 -2.294549e-001 -2.405467e-001 -1.732458e-001 1.751917e-001 -6.582130e-002 -1.671006e-001 -1.169140e-001 -2.198133e-002 3.486067e-002 1.395627e-001 2.905760e-001 1.433570e-001
<VARIANCE> 39
 2.106690e+001 2.534549e+001 3.533727e+001 3.829311e+001 6.357940e+001 1.194986e+002 4.718608e+001 4.085070e+001 8.475166e+001 5.818262e+001 6.552631e+001 3.283761e+001 1.902371e+001 1.552031e+000 1.766535e+000 3.798744e+000 2.764073e+000 2.088001e+000 5.684144e+000 3.481452e+000 4.258978e+000 2.880275e+000 3.413638e+000 3.568917e+000 2.515270e+000 7.952105e-001 3.867713e-001 4.027902e-001 7.995465e-001 6.802117e-001 3.922139e-001 1.798769e+000 7.700113e-001 9.546070e-001 6.397632e-001 7.380192e-001 6.197450e-001 4.659693e-001 1.977558e-001
<GCONST> 1.268336e+002
<STATE> 4
<MEAN> 39
 1.931074e+000 -3.852120e+000 7.733594e-001 7.076176e+000 1.093069e+001 -7.074162e+000 -6.782896e+000 8.043117e-003 -2.498842e+000 3.909757e+000 5.276904e+000 -1.074275e+000 7.491557e+001 6.302204e-001 -2.462237e-001 -1.881996e+000 -1.820027e+000 -1.070133e-001 1.357095e+000 1.086662e+000 -1.710988e-001 -1.033932e+000 -2.802562e-001 7.126132e-001 1.261806e+000 3.491630e-002 -4.628116e-002 3.364483e-001 2.521540e-001 -4.982733e-002 -5.326883e-001 2.026196e-001 6.744117e-001 4.525965e-001 -7.068193e-002 -3.005324e-001 -3.789018e-001 -1.774573e-001 -2.503008e-001
<VARIANCE> 39
 1.152005e+001 1.804111e+001 2.932710e+001 3.664147e+001 6.010468e+001 1.083307e+002 6.240562e+001 3.895735e+001 5.831873e+001 5.052291e+001 3.086441e+001 2.631042e+001 2.840339e+001 5.376405e-001 1.131967e+000 1.994132e+000 2.300966e+000 2.294277e+000 3.101993e+000 3.572233e+000 3.464488e+000 2.775744e+000 3.033420e+000 3.145506e+000 2.296373e+000 5.212288e-001 1.146969e-001 1.959110e-001 3.657162e-001 4.539310e-001 3.171243e-001 7.678613e-001 8.154962e-001 6.012186e-001 6.144855e-001 5.707173e-001 4.626849e-001 4.020657e-001 5.835706e-002
<GCONST> 1.142795e+002
<TRANSP> 5
 0.000000e+000 1.000000e+000 0.000000e+000 0.000000e+000 0.000000e+000
 0.000000e+000 7.312539e-001 2.687461e-001 0.000000e+000 0.000000e+000
 0.000000e+000 0.000000e+000 8.668497e-001 1.331503e-001 0.000000e+000
 0.000000e+000 0.000000e+000 0.000000e+000 6.669342e-001 3.330658e-001
 0.000000e+000 0.000000e+000 0.000000e+000 0.000000e+000 0.000000e+000
<ENDHMM>
~h "L"
<BEGINHMM>
<NUMSTATES> 5
<STATE> 2
<MEAN> 39
 -3.514074e-001 -5.636249e+000 9.878548e+000 1.533793e+001 9.571213e+000 -1.058467e+001 -7.448929e+000 -3.239468e+000 -7.510574e+000 -9.143692e-001 -2.047171e+000 -4.638230e+000 7.608614e+001 -1.000596e+000 7.017496e-001 2.072042e+000 1.310674e+000 2.661799e-001 9.990605e-001 8.038605e-001 6.349240e-001 -2.476948e-002 -6.557108e-001 -3.929859e-001 -4.680085e-001 -1.145494e+000 -3.886503e-002 5.013981e-002 -1.956320e-001 -3.284040e-001 -1.337694e-001 2.256903e-001 2.722037e-001 -1.069712e-002 1.109332e-001 1.729741e-001 1.689260e-001 1.432602e-001 -7.852184e-002
<VARIANCE> 39
 1.201959e+001 2.113362e+001 5.376443e+001 4.405577e+001 4.460760e+001 1.020776e+002 4.747308e+001 5.697745e+001 7.511353e+001 5.056289e+001 5.187407e+001 2.177528e+001 2.080187e+001 9.584243e-001 1.460266e+000 2.891615e+000 2.953920e+000 1.710621e+000 3.101009e+000 3.212833e+000 2.152291e+000 2.862046e+000 2.951304e+000 2.204176e+000 1.785159e+000 1.332109e+000 1.095024e-001 2.177438e-001 3.315952e-001 3.523083e-001 2.846507e-001 4.794272e-001 5.318943e-001 4.288223e-001 4.289769e-001 4.412719e-001 3.039822e-001 2.567638e-001 1.659780e-001
<GCONST> 1.141280e+002
<STATE> 3
<MEAN> 39
 -5.353285e+000 -2.716020e+000 1.755285e+001 1.704863e+001 1.041681e+001 -4.351223e+000 -1.641691e+000 -1.028668e+000 -5.485775e+000 -2.743034e+000 -2.237607e+000 -4.965582e+000 7.173123e+001 3.896938e-001 -6.120722e-001 -8.734369e-001 -2.840300e-001 -4.436263e-002 -8.462310e-001 -9.710717e-001 -6.130854e-001 -2.348760e-001 -1.428659e-001 6.636979e-002 7.532702e-002 8.003129e-001 5.779434e-001 -2.865071e-001 -9.528967e-001 -3.650391e-001 -3.579061e-002 -6.182410e-001 -5.909922e-001 -2.780344e-001 -2.572598e-001 2.667629e-001 2.065466e-001 1.183696e-001 4.702320e-001
<VARIANCE> 39
 2.093107e+001 2.156503e+001 3.755359e+001 3.751210e+001 3.539516e+001 7.898874e+001 6.396767e+001 4.345196e+001 7.751451e+001 2.652219e+001 3.754275e+001 1.813975e+001 2.305483e+001 3.490052e+000 2.635882e+000 5.726593e+000 2.657009e+000 1.998493e+000 6.100276e+000 8.450617e+000 3.000383e+000 3.192456e+000 3.229115e+000 2.308768e+000 1.489253e+000 2.451926e+000 4.155509e-001 4.538844e-001 6.196204e-001 6.259276e-001 3.672662e-001 9.255318e-001 1.212883e+000 5.675623e-001 7.007822e-001 7.646466e-001 5.296580e-001 3.362282e-001 3.237984e-001
<GCONST> 1.257911e+002
<STATE> 4
<MEAN> 39
 1.252889e+000 -6.705469e+000 4.962815e+000 1.158398e+001 9.174474e+000 -1.310789e+001 -1.082116e+001 -6.489903e+000 -9.287049e+000 4.285300e-001 3.900378e-001 -3.632532e+000 7.843973e+001 1.194551e+000 -4.737878e-001 -2.982222e+000 -2.505101e+000 -6.959419e-001 -7.519519e-001 -2.182215e-001 -4.342863e-001 -1.778864e-001 1.515779e+000 1.433384e+000 1.164717e+000 1.063110e+000 -2.595980e-001 2.879034e-001 2.391784e-001 -3.050609e-001 -1.988148e-001 7.702231e-001 9.806131e-001 5.205357e-001 3.455000e-001 -1.224474e-002 -6.175969e-002 1.140099e-001 -3.746390e-001
<VARIANCE> 39
 1.056224e+001 1.348526e+001 3.881110e+001 4.456152e+001 5.659737e+001 9.275606e+001 4.972208e+001 4.330449e+001 5.653654e+001 5.020557e+001 4.895033e+001 2.353314e+001 1.601533e+001 7.973507e-001 1.165052e+000 2.316103e+000 3.167701e+000 1.821886e+000 4.391942e+000 4.316603e+000 3.036860e+000 3.989810e+000 3.399067e+000 2.569307e+000 1.876273e+000 7.034783e-001 1.438712e-001 1.707012e-001 3.624177e-001 4.448024e-001 3.515643e-001 6.723926e-001 8.218222e-001 5.249606e-001 4.458129e-001 7.305706e-001 4.786486e-001 3.406473e-001 9.328154e-002
<GCONST> 1.153844e+002
<TRANSP> 5
 0.000000e+000 1.000000e+000 0.000000e+000 0.000000e+000 0.000000e+000
 0.000000e+000 7.329101e-001 2.670899e-001 0.000000e+000 0.000000e+000
 0.000000e+000 0.000000e+000 7.897014e-001 2.102986e-001 0.000000e+000
 0.000000e+000 0.000000e+000 0.000000e+000 6.341274e-001 3.658727e-001
 0.000000e+000 0.000000e+000 0.000000e+000 0.000000e+000 0.000000e+000
<ENDHMM>
~h "N"
<BEGINHMM>
<NUMSTATES> 5
<STATE> 2
<MEAN> 39
 5.180172e+000 6.441925e-001 1.214388e+000 5.581639e+000 3.471728e+000 -6.474863e+000 -9.908419e-001 2.250923e-001 -2.632823e+000 4.915255e+000 2.639209e-003 -7.851423e+000 7.435037e+001 1.853805e-001 1.170380e+000 5.193741e-001 1.102441e+000 -5.142953e-002 9.769825e-001 -4.647361e-001 -1.423917e-002 7.165375e-001 6.092640e-001 -3.705852e-001 -1.237854e+000 -1.239194e+000 -2.223754e-001 9.359993e-003 1.222046e-001 6.347676e-002 1.788070e-001 1.239198e-001 -1.773875e-001 -5.796641e-002 5.709034e-002 -2.357089e-001 -9.427098e-002 2.250662e-001 -1.161003e-001
<VARIANCE> 39
 1.450370e+001 1.529169e+001 3.525802e+001 5.349466e+001 6.212516e+001 6.790186e+001 6.621802e+001 4.468658e+001 5.577273e+001 5.213770e+001 6.355109e+001 3.848475e+001 9.088647e+000 6.270997e-001 1.774529e+000 2.460898e+000 3.508461e+000 2.845316e+000 3.986892e+000 4.710750e+000 3.742700e+000 3.652056e+000 4.140830e+000 3.860801e+000 3.208233e+000 5.772499e-001 1.414987e-001 2.510342e-001 3.001983e-001 5.178696e-001 4.387881e-001 5.833816e-001 6.655998e-001 5.813164e-001 5.693923e-001 5.701331e-001 5.439171e-001 4.661503e-001 9.576090e-002
<GCONST> 1.188352e+002
<STATE> 3
<MEAN> 39
 4.759031e+000 3.949256e+000 3.307822e+000 8.796896e+000 4.922481e+000 -4.608770e+000 -3.132714e+000 2.097858e-001 1.871886e-001 4.571476e+000 -1.049722e+000 -8.862853e+000 7.090858e+001 -7.708747e-001 1.142690e+000 1.087169e+000 6.896876e-001 2.347230e-001 9.736820e-001 -1.830056e-001 -1.339150e-001 6.559849e-001 -5.542248e-002 -4.529405e-001 -9.536106e-002 -1.277654e+000 -5.812808e-001 -1.304892e-001 6.777662e-002 -1.876920e-001 1.018531e-001 9.041045e-002 4.527219e-001 1.176128e-002 -1.410314e-001 -2.146981e-001 1.077626e-001 4.348716e-001 -1.105922e-001
<VARIANCE> 39
 1.296671e+001 1.480838e+001 2.956213e+001 4.332397e+001 5.675829e+001 4.917258e+001 4.370849e+001 2.862121e+001 5.338138e+001 6.547286e+001 6.402553e+001 4.326584e+001 7.275802e+000 1.023215e+000 1.424118e+000 1.596815e+000 1.794109e+000 1.843549e+000 2.471985e+000 3.700472e+000 2.630705e+000 2.122447e+000 2.327397e+000 2.598583e+000 1.859662e+000 5.968034e-001 1.950846e-001 3.783394e-001 3.475806e-001 4.068037e-001 3.898663e-001 5.144096e-001 6.547390e-001 4.366698e-001 5.133860e-001 6.929945e-001 6.190916e-001 5.561300e-001 1.682376e-001
<GCONST> 1.138007e+002
<STATE> 4
<MEAN> 39
 8.116128e-001 6.536515e+000 6.216385e+000 9.300537e+000 5.502146e+000 -2.098402e+000 -1.415470e+000 -7.107107e-001 9.318284e-001 4.157458e+000 -2.495540e+000 -7.774774e+000 6.771205e+001 -2.414752e+000 4.422521e-001 4.810062e-001 2.951249e-001 5.310954e-001 1.391742e+000 1.581336e+000 3.268476e-001 2.479710e-001 -5.879431e-001 9.838246e-002 9.905949e-001 -1.849749e+000 -2.961816e-001 -6.540563e-001 -5.289806e-001 -5.068780e-001 -1.609098e-001 -9.635166e-002 3.687020e-001 3.162664e-001 -2.469710e-001 -1.228962e-001 2.971309e-001 3.486451e-001 9.679092e-002
<VARIANCE> 39
 1.583816e+001 2.123037e+001 2.728868e+001 3.286533e+001 4.500189e+001 3.595497e+001 4.677185e+001 4.044430e+001 5.017616e+001 4.458884e+001 4.340552e+001 2.944765e+001 1.549160e+001 1.972256e+000 3.653871e+000 2.522472e+000 2.695808e+000 2.521211e+000 3.073973e+000 4.179600e+000 2.795496e+000 2.789361e+000 3.920362e+000 4.026235e+000 3.039724e+000 2.041467e+000 2.940468e-001 5.332575e-001 4.946971e-001 6.279321e-001 5.682409e-001 5.650384e-001 8.404680e-001 7.283181e-001 5.762044e-001 6.851010e-001 5.408897e-001 4.897411e-001 3.828887e-001
<GCONST> 1.229761e+002
<TRANSP> 5
 0.000000e+000 1.000000e+000 0.000000e+000 0.000000e+000 0.000000e+000
 0.000000e+000 4.730311e-001 5.269689e-001 0.000000e+000 0.000000e+000
 0.000000e+000 0.000000e+000 5.440879e-001 4.559122e-001 0.000000e+000
 0.000000e+000 0.000000e+000 0.000000e+000 4.721328e-001 5.278672e-001
 0.000000e+000 0.000000e+000 0.000000e+000 0.000000e+000 0.000000e+000
<ENDHMM>
~h "T"
<BEGINHMM>
<NUMSTATES> 5
<STATE> 2
<MEAN> 39
 -8.862160e+000 -1.197480e+000 7.215927e+000 4.059962e+000 9.358866e+000 3.864053e+000 3.255882e+000 3.519352e-001 2.521053e+000 2.652205e+000 1.058091e+000 4.329875e-002 7.188898e+001 -3.997824e+000 -3.213546e-001 6.615338e-001 -2.259602e-001 1.132556e+000 1.031819e+000 8.878186e-001 1.027021e+000 1.280205e+000 -3.151446e-001 9.029532e-001 5.635417e-001 -2.954001e-001 2.062977e-001 -3.695505e-001 -4.747402e-001 -1.838034e-001 -2.675942e-001 -6.737621e-001 -3.128930e-001 -2.667744e-001 -3.316346e-001 8.578782e-002 1.648825e-002 -8.353843e-002 3.655679e-001
<VARIANCE> 39
 3.967063e+001 2.142005e+001 2.660355e+001 3.303620e+001 4.418987e+001 2.487718e+001 4.311600e+001 3.822378e+001 3.132892e+001 2.433444e+001 2.275015e+001 2.063692e+001 2.310506e+001 3.684774e+000 2.965149e+000 3.966339e+000 4.507421e+000 5.115355e+000 3.666930e+000 3.985177e+000 4.417824e+000 3.968685e+000 3.345775e+000 3.794891e+000 2.787870e+000 1.875507e+000 7.645470e-001 5.097563e-001 4.829203e-001 4.861119e-001 5.700291e-001 4.926552e-001 6.082884e-001 6.485923e-001 5.586639e-001 5.563058e-001 5.219907e-001 3.387164e-001 2.889044e-001
<GCONST> 1.234526e+002
<STATE> 3
<MEAN> 39
 -1.884227e+001 -4.283868e+000 6.050099e+000 2.439709e+000 1.097816e+001 3.296654e+000 2.913677e+000 1.376627e+000 3.961976e+000 2.880122e+000 3.524648e+000 2.100710e+000 7.409023e+001 -3.923065e-001 -8.463794e-001 -1.864781e-001 -2.211662e-001 -1.721946e-001 -3.611527e-001 -4.933654e-001 -3.704350e-001 1.818399e-001 3.046556e-001 1.630839e-001 2.039980e-001 1.439656e-001 1.127291e+000 -7.565568e-002 4.797869e-002 2.892583e-001 -1.578937e-001 -2.282853e-001 -3.406848e-001 -2.426442e-001 -1.767748e-001 5.315034e-002 -3.057880e-001 -1.821854e-001 -7.561149e-002
<VARIANCE> 39
 1.646074e+001 1.755498e+001 2.289549e+001 2.678984e+001 3.646931e+001 2.528294e+001 4.117761e+001 2.779984e+001 2.032410e+001 1.522485e+001 1.472490e+001 1.836605e+001 1.842706e+001 3.943038e+000 1.882610e+000 1.457597e+000 2.018489e+000 1.876841e+000 1.789370e+000 2.056407e+000 1.931203e+000 1.705521e+000 1.626917e+000 1.538211e+000 1.308825e+000 9.593526e-001 4.038866e-001 3.720320e-001 3.923877e-001 4.792526e-001 5.194086e-001 4.769697e-001 4.730844e-001 4.733723e-001 4.370069e-001 3.896071e-001 4.076675e-001 3.109930e-001 2.255279e-001
<GCONST> 1.074506e+002
<STATE> 4
<MEAN> 39
 -1.292684e+001 -9.462532e+000 6.423677e+000 3.330042e+000 8.581271e+000 1.030565e+000 -1.233094e+000 -1.778043e+000 4.910327e+000 4.652532e+000 1.663061e+000 8.572828e-001 7.290610e+001 3.259469e+000 -2.739685e-001 3.832850e-001 1.698541e+000 -1.190172e-001 -1.266519e+000 -1.410027e+000 -8.745921e-001 -7.976797e-001 -1.770540e-001 -1.457729e+000 -9.528433e-001 -2.139013e-001 6.559967e-001 7.610554e-001 5.881780e-003 3.631479e-001 5.377611e-002 -4.395276e-001 -7.749090e-002 -5.887112e-002 -8.236691e-001 -4.162007e-001 -2.404752e-001 -3.645569e-001 1.564537e-001
<VARIANCE> 39
 2.525195e+001 2.523343e+001 2.211647e+001 3.496940e+001 4.533129e+001 3.157561e+001 5.040471e+001 3.200766e+001 2.230593e+001 1.804760e+001 2.051125e+001 2.182516e+001 1.686328e+001 3.500274e+000 3.602827e+000 3.285336e+000 3.866331e+000 3.822618e+000 3.630357e+000 3.529772e+000 3.418647e+000 4.507967e+000 3.128342e+000 3.046373e+000 2.210196e+000 1.654278e+000 4.401758e-001 5.143687e-001 5.766061e-001 5.828130e-001 5.572229e-001 7.708923e-001 6.814586e-001 6.096962e-001 7.251717e-001 5.367404e-001 5.558548e-001 3.935685e-001 3.197042e-001
<GCONST> 1.217155e+002
<TRANSP> 5
 0.000000e+000 1.000000e+000 0.000000e+000 0.000000e+000 0.000000e+000
 0.000000e+000 6.090602e-001 3.909399e-001 0.000000e+000 0.000000e+000
 0.000000e+000 0.000000e+000 7.632057e-001 2.367943e-001 0.000000e+000
 0.000000e+000 0.000000e+000 0.000000e+000 6.003411e-001 3.996589e-001
 0.000000e+000 0.000000e+000 0.000000e+000 0.000000e+000 0.000000e+000
<ENDHMM>
~h "a"
<BEGINHMM>
<NUMSTATES> 5
<STATE> 2
<MEAN> 39
 5.607641e+000 -5.341646e+000 -5.951780e+000 -2.551784e+000 2.680811e+000 -7.717725e+000 7.266308e-002 -1.558241e+000 -6.104001e+000 3.196146e+000 2.892091e+000 8.719235e-001 7.895470e+001 1.359328e+000 -6.189393e-001 -2.138037e+000 -1.704922e+000 -7.971092e-001 -7.888390e-001 9.076548e-001 3.865890e-001 8.453320e-002 9.564492e-001 5.671107e-001 4.342647e-001 1.207096e+000 -6.047696e-001 1.916064e-001 5.258851e-001 4.946226e-001 2.569486e-001 6.436306e-001 1.735442e-001 9.017242e-002 2.440291e-001 -1.523723e-001 -2.670866e-001 -2.305069e-001 -6.283669e-001
<VARIANCE> 39
 1.213398e+001 1.584677e+001 3.140513e+001 5.476683e+001 5.610525e+001 6.525954e+001 7.310204e+001 6.608662e+001 5.304184e+001 4.027178e+001 4.776528e+001 2.589145e+001 1.487531e+001 2.986000e+000 2.223438e+000 2.682650e+000 4.141460e+000 2.924665e+000 4.640145e+000 3.967692e+000 3.881761e+000 4.411456e+000 4.189032e+000 3.738115e+000 3.291672e+000 1.793804e+000 4.831582e-001 3.951275e-001 5.213701e-001 6.620584e-001 5.236304e-001 6.300714e-001 6.616331e-001 6.740159e-001 6.968600e-001 6.852688e-001 6.599716e-001 5.447190e-001 4.421622e-001
<GCONST> 1.270012e+002
<STATE> 3
<MEAN> 39
 6.415878e+000 -6.509806e+000 -8.941002e+000 -4.471297e+000 1.200033e+000 -6.366808e+000 3.098091e+000 -8.817942e-001 -4.089378e+000 4.009912e+000 2.450564e+000 8.586113e-001 7.953743e+001 -6.993385e-002 3.110594e-001 1.541427e-001 1.283047e-001 4.890236e-002 3.381584e-001 1.092613e-001 -1.437229e-001 4.811869e-002 -6.119268e-002 -1.845080e-001 -3.954144e-002 -2.953649e-001 -2.828374e-001 3.948113e-001 7.042648e-001 6.326851e-001 2.842447e-001 2.252803e-001 -3.221518e-001 -1.225096e-001 -1.649457e-001 -2.752893e-001 -1.897587e-001 -1.525543e-001 -4.704389e-001
<VARIANCE> 39
 8.317889e+000 1.427202e+001 2.374814e+001 6.389081e+001 5.384571e+001 6.133112e+001 6.560601e+001 6.716599e+001 4.959822e+001 4.054856e+001 4.506911e+001 2.628680e+001 1.096056e+001 3.756976e-001 1.133914e+000 1.667547e+000 2.057904e+000 1.851759e+000 2.450148e+000 2.999173e+000 2.308571e+000 2.566851e+000 2.373013e+000 1.931437e+000 1.595685e+000 5.285858e-001 2.203176e-001 2.332947e-001 4.029510e-001 4.703609e-001 3.355882e-001 5.755964e-001 4.677703e-001 4.689705e-001 5.013225e-001 5.217808e-001 4.536034e-001 4.205169e-001 1.632698e-001
<GCONST> 1.108690e+002
<STATE> 4
<MEAN> 39
 4.845864e+000 -3.258914e+000 -5.708659e+000 -2.133983e+000 3.030543e+000 -4.933147e+000 1.941129e+000 -1.664050e+000 -5.163719e+000 3.186196e+000 1.917992e+000 8.530345e-001 7.629790e+001 -1.039644e+000 1.499871e+000 2.058697e+000 1.919539e+000 8.904954e-001 1.508153e+000 -3.046302e-001 3.881836e-002 -1.146198e-001 -7.302157e-001 -6.064337e-001 -4.148650e-001 -1.990617e+000 -5.208685e-001 6.128002e-002 5.377148e-001 4.226033e-001 2.276828e-001 3.632530e-001 3.520110e-002 2.330546e-001 1.579357e-001 -1.610307e-001 -5.256738e-002 -1.535807e-001 -3.899315e-001
<VARIANCE> 39
 1.452563e+001 1.860792e+001 2.950509e+001 5.483337e+001 5.874297e+001 7.618099e+001 6.598811e+001 7.347897e+001 5.977985e+001 4.404895e+001 4.580832e+001 3.060627e+001 2.694922e+001 1.715194e+000 3.189290e+000 3.331314e+000 3.892261e+000 2.748515e+000 4.243489e+000 3.973903e+000 3.842178e+000 4.081254e+000 3.431020e+000 3.366528e+000 2.866168e+000 2.385121e+000 4.029578e-001 5.590323e-001 5.934074e-001 5.631567e-001 5.716820e-001 6.808774e-001 6.106005e-001 6.986671e-001 6.369679e-001 6.076245e-001 5.840649e-001 5.162634e-001 4.139356e-001
<GCONST> 1.277811e+002
<TRANSP> 5
 0.000000e+000 1.000000e+000 0.000000e+000 0.000000e+000 0.000000e+000
 0.000000e+000 4.682959e-001 5.317041e-001 0.000000e+000 0.000000e+000
 0.000000e+000 0.000000e+000 6.880609e-001 3.119391e-001 0.000000e+000
 0.000000e+000 0.000000e+000 0.000000e+000 4.019665e-001 5.980335e-001
 0.000000e+000 0.000000e+000 0.000000e+000 0.000000e+000 0.000000e+000
<ENDHMM>
~h "b"
<BEGINHMM>
<NUMSTATES> 5
<STATE> 2
<MEAN> 39
 3.051729e+000 1.654843e+000 2.155417e+000 1.069104e+001 9.253228e+000 2.395460e+000 2.465254e+000 -5.767839e-001 -6.054078e+000 2.558247e+000 -2.029305e+000 -1.030952e+001 6.825870e+001 -3.102161e-001 1.078000e+000 4.763883e-001 1.406777e-001 1.732194e-001 4.344639e-001 -2.201180e-001 -1.182726e-001 3.376923e-001 5.289028e-002 -3.989400e-001 2.416736e-003 -7.567783e-001 -1.360740e-001 -5.101917e-002 -2.512593e-002 -1.978430e-001 -1.669263e-001 -2.318584e-001 -5.108830e-002 4.315611e-002 1.142255e-001 -9.755832e-002 8.781356e-002 4.277772e-001 6.914660e-002
<VARIANCE> 39
 1.722878e+001 5.692295e+001 2.809941e+001 3.574703e+001 4.493250e+001 3.860607e+001 2.939008e+001 3.457959e+001 6.343916e+001 4.450608e+001 4.559077e+001 4.820243e+001 2.140868e+001 3.660337e-001 1.102264e+000 8.008638e-001 9.726581e-001 8.998696e-001 1.378898e+000 1.747695e+000 1.478829e+000 1.525435e+000 1.297558e+000 1.648861e+000 1.387123e+000 5.740198e-001 7.708097e-002 4.369211e-001 1.980155e-001 2.709644e-001 2.932297e-001 3.710645e-001 3.226980e-001 3.044856e-001 3.752665e-001 3.141571e-001 3.828950e-001 4.062840e-001 2.077506e-001
<GCONST> 1.031032e+002
<STATE> 3
<MEAN> 39
 2.960420e+000 7.654536e+000 3.399425e+000 1.087059e+001 1.027498e+001 3.328925e+000 1.947543e+000 -1.295058e+000 -5.225320e+000 2.438318e+000 -5.171237e+000 -1.089882e+001 6.584851e+001 -9.112579e-001 2.488456e-001 4.945527e-001 -4.913439e-001 -2.712266e-001 -2.097382e-001 -3.502302e-001 2.318149e-001 7.017201e-001 -6.872411e-001 1.790222e-001 1.751384e+000 -1.908804e-001 4.591523e-002 -1.184636e+000 -3.144230e-001 -4.854450e-001 -1.621523e-001 -8.162791e-001 -3.923702e-001 -1.364337e-001 -2.948792e-001 -2.715620e-001 5.105969e-001 7.390335e-001 9.882577e-001
<VARIANCE> 39
 1.381496e+001 2.825730e+001 2.539431e+001 3.341012e+001 4.115773e+001 3.539357e+001 2.572985e+001 3.241610e+001 5.876315e+001 3.866898e+001 4.536599e+001 3.329458e+001 2.179519e+001 9.218131e-001 4.046141e+000 2.015552e+000 3.084019e+000 2.522330e+000 2.933812e+000 3.112820e+000 2.566088e+000 3.368327e+000 3.151356e+000 3.569892e+000 3.568935e+000 2.463260e+000 1.561869e-001 4.340107e-001 3.449965e-001 6.927194e-001 5.510359e-001 6.762154e-001 7.252696e-001 5.265976e-001 5.480820e-001 5.676482e-001 5.584280e-001 5.217488e-001 2.812595e-001
<GCONST> 1.198180e+002
<STATE> 4
<MEAN> 39
 -8.322833e-001 5.331567e+000 4.634329e+000 9.094666e+000 9.782464e+000 3.646661e+000 1.994653e+000 -8.531119e-003 -3.936326e+000 2.969176e-001 -3.149315e+000 -4.812499e+000 6.522300e+001 1.318372e-001 -2.572807e+000 -4.273856e-001 -1.369669e+000 -2.358360e-001 -2.073671e+000 -1.497235e+000 -8.678154e-001 -6.566458e-001 -8.555920e-001 9.579757e-001 1.965626e+000 2.805371e+000 3.671429e-001 -6.616186e-001 -3.415458e-001 4.161173e-002 2.651355e-002 -8.054769e-001 -3.497713e-001 -1.884907e-001 -2.934831e-001 2.095380e-001 2.610610e-001 -1.767803e-001 6.392387e-001
<VARIANCE> 39
 2.593122e+001 5.015357e+001 3.222131e+001 3.479116e+001 3.780491e+001 4.135434e+001 3.246838e+001 3.458149e+001 3.883860e+001 3.137733e+001 2.592910e+001 2.951791e+001 6.302549e+001 2.265757e+000 5.724908e+000 3.059582e+000 6.594431e+000 5.109279e+000 5.682922e+000 4.941090e+000 4.320391e+000 4.332443e+000 4.367937e+000 4.871233e+000 5.870501e+000 3.743638e+000 4.093432e-001 9.860322e-001 7.800332e-001 7.912341e-001 5.664299e-001 8.505151e-001 8.156176e-001 6.951460e-001 7.366860e-001 7.009982e-001 7.046030e-001 7.520944e-001 6.899119e-001
<GCONST> 1.333931e+002
<TRANSP> 5
 0.000000e+000 1.000000e+000 0.000000e+000 0.000000e+000 0.000000e+000
 0.000000e+000 5.821619e-001 4.178381e-001 0.000000e+000 0.000000e+000
 0.000000e+000 0.000000e+000 3.719059e-001 6.280942e-001 0.000000e+000
 0.000000e+000 0.000000e+000 0.000000e+000 4.953932e-001 5.046067e-001
 0.000000e+000 0.000000e+000 0.000000e+000 0.000000e+000 0.000000e+000
<ENDHMM>
~h "d"
<BEGINHMM>
<NUMSTATES> 5
<STATE> 2
<MEAN> 39
 2.580212e+000 1.076964e+000 3.944059e+000 1.263447e+001 9.107887e+000 -5.800027e-001 -2.023529e+000 -2.697243e+000 -4.450678e+000 1.353232e+000 -2.848627e+000 -7.949606e+000 6.911369e+001 -4.340801e-001 9.152167e-001 6.636676e-001 1.604035e-001 2.508425e-001 4.655296e-001 -8.167227e-002 -1.203147e-001 5.255483e-001 6.141512e-002 -4.184777e-001 -1.216183e-001 -6.336203e-001 -2.256305e-001 -1.310266e-001 4.118030e-002 -4.375518e-001 -2.051663e-001 1.871177e-002 2.125778e-001 2.459859e-002 -3.691644e-002 -1.174401e-001 2.045642e-001 3.602137e-001 1.954080e-001
<VARIANCE> 39
 1.912327e+001 4.285850e+001 4.081834e+001 3.875495e+001 5.562989e+001 3.315041e+001 3.480039e+001 4.286947e+001 5.748555e+001 6.352742e+001 4.526640e+001 4.469921e+001 2.683148e+001 7.912250e-001 1.447833e+000 1.119644e+000 1.289421e+000 1.125869e+000 1.435339e+000 2.134161e+000 1.571442e+000 1.783378e+000 1.740060e+000 1.684215e+000 1.494438e+000 8.668315e-001 1.499939e-001 4.580614e-001 2.544680e-001 4.011940e-001 3.604658e-001 3.250239e-001 4.692907e-001 3.661224e-001 5.050005e-001 4.512112e-001 4.517407e-001 4.362155e-001 2.573038e-001
<GCONST> 1.104646e+002
<STATE> 3
<MEAN> 39
 1.808735e+000 5.770967e+000 6.046708e+000 1.241696e+001 1.026177e+001 6.310784e-001 -3.024618e+000 -4.056380e+000 -3.604862e+000 2.736760e+000 -5.487780e+000 -9.034732e+000 6.696608e+001 -1.374798e+000 -9.150356e-002 1.031395e+000 -8.976467e-001 -3.996584e-001 8.479016e-001 9.533440e-001 1.576762e-001 4.244344e-001 -8.183641e-001 3.714235e-001 1.361471e+000 1.902527e-001 -3.276582e-002 -1.048734e+000 -2.806136e-001 -6.231927e-001 -4.450441e-001 -5.350046e-001 3.605320e-002 -2.964411e-002 -3.815216e-001 -2.487878e-001 5.175357e-001 5.939211e-001 8.981946e-001
<VARIANCE> 39
 2.062826e+001 2.924762e+001 3.296033e+001 3.399105e+001 4.069106e+001 3.780146e+001 4.433624e+001 4.094180e+001 5.313276e+001 4.790758e+001 4.045072e+001 4.198768e+001 2.999387e+001 1.894283e+000 4.924256e+000 2.281037e+000 3.338189e+000 3.177559e+000 2.322534e+000 3.956865e+000 3.058079e+000 3.871844e+000 3.959829e+000 3.606681e+000 3.718951e+000 3.049245e+000 2.496378e-001 5.327002e-001 4.269291e-001 5.427028e-001 5.261946e-001 5.595878e-001 9.022849e-001 6.235572e-001 7.083809e-001 5.746831e-001 5.015911e-001 4.701038e-001 2.866763e-001
<GCONST> 1.249495e+002
<STATE> 4
<MEAN> 39
 -2.838144e+000 2.445145e+000 8.160611e+000 9.590955e+000 8.247852e+000 3.064052e+000 4.089053e-001 -1.594891e+000 -2.353662e+000 3.073542e-001 -2.811324e+000 -4.097326e+000 6.820004e+001 -6.730003e-002 -2.459002e+000 -2.673588e-001 -1.711659e+000 -7.685999e-001 -1.350933e+000 -5.383515e-001 -5.339065e-001 -8.613715e-001 -8.605614e-001 9.626440e-001 1.218697e+000 2.697576e+000 6.233534e-001 -3.430389e-001 -5.477875e-001 -7.093187e-003 2.296340e-002 -8.617127e-001 -5.624741e-001 -2.001628e-001 -5.492587e-001 9.772296e-002 9.406342e-002 -2.136295e-001 4.517451e-001
<VARIANCE> 39
 2.428129e+001 6.676868e+001 3.525011e+001 4.196470e+001 4.464226e+001 4.235633e+001 4.638058e+001 4.161035e+001 3.485712e+001 3.629657e+001 2.451860e+001 2.722014e+001 6.946925e+001 3.031715e+000 6.185798e+000 3.309422e+000 4.912408e+000 4.212049e+000 3.882741e+000 5.808219e+000 4.694366e+000 5.927229e+000 4.706620e+000 3.825136e+000 4.384863e+000 4.338549e+000 5.715835e-001 1.418303e+000 7.363697e-001 1.016624e+000 7.136412e-001 7.429678e-001 1.099236e+000 7.340029e-001 8.734906e-001 8.663439e-001 7.553580e-001 7.874788e-001 8.712335e-001
<GCONST> 1.365160e+002
<TRANSP> 5
 0.000000e+000 1.000000e+000 0.000000e+000 0.000000e+000 0.000000e+000
 0.000000e+000 5.289168e-001 4.710833e-001 0.000000e+000 0.000000e+000
 0.000000e+000 0.000000e+000 3.260485e-001 6.739515e-001 0.000000e+000
 0.000000e+000 0.000000e+000 0.000000e+000 5.960177e-001 4.039823e-001
 0.000000e+000 0.000000e+000 0.000000e+000 0.000000e+000 0.000000e+000
<ENDHMM>
~h "e"
<BEGINHMM>
<NUMSTATES> 5
<STATE> 2
<MEAN> 39
 1.248073e+000 -4.739182e+000 1.856864e+000 5.957531e+000 8.657117e+000 -7.935608e+000 -5.703404e+000 -6.253704e+000 -7.321366e+000 2.087133e+000 1.194585e+000 -1.609649e+000 7.586531e+001 1.771279e+000 -2.294519e-001 -6.844482e-001 3.379856e-001 3.067588e-001 -2.241953e+000 -1.323012e+000 -1.100483e+000 -1.274445e+000 4.233232e-001 3.100548e-001 -7.639194e-002 1.555141e+000 -4.462016e-001 2.252708e-001 1.981039e-001 7.908449e-002 -7.512988e-002 5.564448e-001 4.393928e-001 4.692626e-001 3.233129e-001 6.246137e-003 -7.415608e-002 -5.073180e-002 -5.044628e-001
<VARIANCE> 39
 3.240274e+001 2.042853e+001 4.337350e+001 4.085751e+001 5.762863e+001 7.789330e+001 6.191247e+001 5.366726e+001 4.951796e+001 5.031147e+001 4.397839e+001 2.720969e+001 4.262440e+001 4.699272e+000 4.350345e+000 3.766571e+000 3.819339e+000 3.724643e+000 6.595942e+000 5.218117e+000 4.515162e+000 5.454993e+000 4.653400e+000 4.467374e+000 3.193363e+000 4.025492e+000 6.900201e-001 6.705373e-001 5.918000e-001 6.565033e-001 5.503318e-001 9.963816e-001 7.705306e-001 7.267377e-001 7.523649e-001 7.077672e-001 6.913931e-001 5.424832e-001 8.674662e-001
<GCONST> 1.355102e+002
<STATE> 3
<MEAN> 39
 3.574313e+000 -6.216298e+000 2.000367e-001 6.068705e+000 8.326917e+000 -1.172205e+001 -7.604611e+000 -6.756057e+000 -8.743659e+000 3.452066e+000 1.743232e+000 -1.736269e+000 7.896550e+001 1.476694e-001 1.935999e-001 5.868654e-003 2.091042e-001 1.004915e-002 1.376936e-002 -9.218685e-003 2.780240e-002 -5.193008e-002 1.890591e-001 -3.783847e-003 -7.217613e-002 -1.156359e-001 -4.611887e-001 3.598258e-001 4.149287e-001 7.338634e-002 -7.286920e-002 1.054875e+000 5.678188e-001 3.522395e-001 3.609193e-001 -3.000422e-001 -2.285143e-001 -9.064272e-002 -6.659091e-001
<VARIANCE> 39
 1.190078e+001 1.504859e+001 3.985263e+001 3.866714e+001 6.145332e+001 8.095758e+001 6.982252e+001 5.260093e+001 4.742287e+001 5.278283e+001 4.813457e+001 2.711892e+001 1.083326e+001 1.112231e+000 1.442517e+000 2.226270e+000 1.992772e+000 1.934261e+000 3.895607e+000 2.974084e+000 2.394335e+000 2.878123e+000 2.847287e+000 2.226622e+000 1.807026e+000 9.720552e-001 5.191216e-001 4.202104e-001 5.651233e-001 4.956360e-001 5.232269e-001 7.717336e-001 7.437024e-001 7.028977e-001 7.771196e-001 6.757730e-001 6.827186e-001 4.851284e-001 2.976601e-001
<GCONST> 1.204092e+002
<STATE> 4
<MEAN> 39
 2.809899e+000 -3.858865e+000 1.420611e+000 6.484007e+000 8.886114e+000 -8.280989e+000 -5.982743e+000 -6.503830e+000 -8.167655e+000 2.571188e+000 1.403570e+000 -1.765423e+000 7.662203e+001 -7.908664e-001 1.127801e+000 1.119866e+000 4.865178e-001 -5.340158e-002 2.465865e+000 1.284325e+000 8.065057e-001 7.378336e-001 -5.461553e-001 -4.070269e-001 -1.992271e-001 -1.636685e+000 -5.970699e-001 3.742965e-002 3.917949e-001 3.298520e-002 -7.274944e-002 5.778210e-001 4.481110e-001 4.220442e-001 3.687753e-001 -1.652084e-001 -1.014563e-001 -6.788657e-002 -3.876174e-001
<VARIANCE> 39
 1.527533e+001 1.620742e+001 4.426160e+001 3.857008e+001 6.217956e+001 7.790307e+001 6.248363e+001 5.385270e+001 4.974293e+001 5.112197e+001 4.942449e+001 2.920016e+001 1.766043e+001 2.600875e+000 3.493817e+000 4.127463e+000 3.101856e+000 2.976212e+000 4.662910e+000 4.268271e+000 3.684406e+000 3.916953e+000 3.990781e+000 3.379902e+000 2.757130e+000 2.678428e+000 5.991712e-001 5.759656e-001 6.330296e-001 5.332077e-001 5.543232e-001 7.693638e-001 7.376440e-001 6.806940e-001 6.857208e-001 6.308590e-001 6.960332e-001 5.187418e-001 3.852083e-001
<GCONST> 1.288321e+002
<TRANSP> 5
 0.000000e+000 1.000000e+000 0.000000e+000 0.000000e+000 0.000000e+000
 0.000000e+000 2.926504e-001 7.073496e-001 0.000000e+000 0.000000e+000
 0.000000e+000 0.000000e+000 5.356790e-001 4.643210e-001 0.000000e+000
 0.000000e+000 0.000000e+000 0.000000e+000 2.559576e-001 7.440424e-001
 0.000000e+000 0.000000e+000 0.000000e+000 0.000000e+000 0.000000e+000
<ENDHMM>
~h "f"
<BEGINHMM>
<NUMSTATES> 5
<STATE> 2
<MEAN> 39
 -1.035574e+001 -7.937369e-001 4.397723e+000 6.717319e+000 1.146677e+001 3.756548e+000 5.599655e+000 1.871806e+000 1.335768e+000 1.172047e+000 1.228388e+000 -6.687943e-001 7.292593e+001 -4.205725e+000 -8.356826e-001 -1.954214e-001 -3.326135e-001 1.099743e+000 1.400543e+000 1.400694e+000 9.376761e-001 1.344192e+000 1.129991e-001 1.026280e+000 9.974264e-001 3.886663e-001 3.236542e-001 -4.619622e-001 -4.732710e-001 -3.342429e-001 -3.631563e-001 -7.783166e-001 -5.047048e-001 -2.592456e-001 -4.149933e-001 1.956749e-002 -2.781398e-002 1.705847e-002 3.091789e-001
<VARIANCE> 39
 4.492776e+001 2.670904e+001 2.395183e+001 3.890298e+001 3.482869e+001 2.483946e+001 3.705211e+001 3.257955e+001 2.897050e+001 2.565185e+001 2.353952e+001 1.971074e+001 2.371240e+001 4.093178e+000 2.989682e+000 4.080264e+000 4.552965e+000 3.904801e+000 4.969223e+000 4.312500e+000 3.443985e+000 3.801097e+000 3.285943e+000 3.773516e+000 2.642498e+000 1.754948e+000 9.002842e-001 4.666452e-001 5.144405e-001 5.442716e-001 5.525059e-001 6.630085e-001 5.823619e-001 5.144206e-001 5.061470e-001 5.247297e-001 5.019193e-001 3.928299e-001 2.478778e-001
<GCONST> 1.231630e+002
<STATE> 3
<MEAN> 39
 -1.875240e+001 -6.104832e+000 2.627260e-001 2.173255e+000 1.076700e+001 2.868548e+000 5.032351e+000 2.656796e+000 2.079161e+000 1.727901e+000 3.014950e+000 2.159774e+000 7.607932e+001 9.525388e-003 -8.269832e-001 -6.178744e-001 -8.191067e-001 -4.960574e-001 -3.413704e-001 -3.115501e-001 -1.391695e-001 -9.595501e-003 1.182099e-001 1.918174e-001 2.148343e-001 2.346858e-001 1.312361e+000 2.489443e-001 2.588152e-001 2.435854e-001 -1.658369e-001 -2.319106e-001 -3.356305e-001 -1.478684e-001 -2.214060e-001 7.009978e-003 -2.205117e-001 -2.765024e-001 -2.222238e-001
<VARIANCE> 39
 1.327954e+001 1.680431e+001 1.866275e+001 3.484288e+001 2.668271e+001 2.485407e+001 3.497934e+001 2.986296e+001 2.240498e+001 1.814842e+001 1.839897e+001 1.413723e+001 1.468613e+001 4.212574e+000 1.664199e+000 1.402717e+000 1.791812e+000 1.806464e+000 1.588740e+000 1.850862e+000 1.802578e+000 1.602961e+000 1.660564e+000 1.410526e+000 1.408804e+000 1.053301e+000 4.577295e-001 3.778142e-001 4.014498e-001 5.057271e-001 5.204558e-001 5.685473e-001 5.128187e-001 4.372956e-001 4.436262e-001 3.897047e-001 4.270386e-001 3.442459e-001 2.023512e-001
<GCONST> 1.067805e+002
<STATE> 4
<MEAN> 39
 -1.075357e+001 -7.613822e+000 6.340617e-001 1.995245e+000 9.283206e+000 2.213650e+000 3.807075e+000 1.846920e+000 2.200147e+000 2.833391e+000 3.493597e+000 1.558895e+000 7.433522e+001 5.025260e+000 1.297614e+000 6.810443e-001 9.157349e-001 -6.817350e-001 -1.607997e+000 -1.724916e+000 -7.542266e-001 -1.197022e+000 1.217668e-001 -9.349425e-001 -1.170476e+000 -7.622728e-001 5.684831e-001 6.091896e-001 5.312278e-002 3.019950e-001 -9.934777e-002 -7.999082e-001 -4.531871e-001 -2.567299e-001 -5.838163e-001 -1.927571e-001 -3.637622e-001 -4.024503e-001 1.750761e-001
<VARIANCE> 39
 3.619920e+001 1.730820e+001 2.296816e+001 4.535407e+001 3.921882e+001 2.290334e+001 3.511193e+001 3.348791e+001 1.978826e+001 2.052708e+001 1.699885e+001 1.570005e+001 1.992785e+001 2.902191e+000 2.695613e+000 3.481234e+000 4.112044e+000 5.173579e+000 5.444580e+000 3.311038e+000 3.629800e+000 3.864478e+000 2.730149e+000 3.657862e+000 2.648693e+000 1.253996e+000 7.897879e-001 4.915869e-001 6.032898e-001 5.689298e-001 5.562795e-001 7.285773e-001 5.210465e-001 5.613841e-001 6.219386e-001 5.470998e-001 5.215174e-001 4.389813e-001 3.278611e-001
<GCONST> 1.211031e+002
<TRANSP> 5
 0.000000e+000 1.000000e+000 0.000000e+000 0.000000e+000 0.000000e+000
 0.000000e+000 5.905392e-001 4.094608e-001 0.000000e+000 0.000000e+000
 0.000000e+000 0.000000e+000 7.707452e-001 2.292549e-001 0.000000e+000
 0.000000e+000 0.000000e+000 0.000000e+000 5.676601e-001 4.323400e-001
 0.000000e+000 0.000000e+000 0.000000e+000 0.000000e+000 0.000000e+000
<ENDHMM>
~h "g"
<BEGINHMM>
<NUMSTATES> 5
<STATE> 2
<MEAN> 39
 4.435699e+000 2.675039e+000 3.110227e+000 9.436965e+000 5.097450e+000 -6.169586e+000 -2.281190e+000 1.515355e+000 1.179974e+000 2.876930e+000 -9.276387e-001 -7.961396e+000 7.142118e+001 -2.057729e-001 6.553289e-001 5.562974e-001 1.346788e-001 4.223603e-002 1.593150e-001 -5.343016e-001 -2.500848e-001 3.674941e-001 2.425933e-001 -2.575654e-001 -2.415269e-001 -5.199312e-001 -2.414198e-001 5.481944e-002 8.084896e-002 -2.496752e-001 9.040578e-002 -2.692554e-002 1.677106e-001 -2.585926e-001 -1.757678e-001 1.653121e-001 1.047254e-001 1.573020e-001 5.088606e-002
<VARIANCE> 39
 1.149656e+001 1.731777e+001 2.717967e+001 3.889320e+001 5.191040e+001 5.296499e+001 4.776175e+001 2.072549e+001 4.296957e+001 5.412085e+001 4.595864e+001 3.250622e+001 1.321948e+001 2.511604e-001 7.970834e-001 5.684446e-001 8.905519e-001 9.469540e-001 1.139744e+000 1.356794e+000 1.319966e+000 1.373952e+000 1.288110e+000 1.128272e+000 1.120023e+000 2.300123e-001 1.026038e-001 1.800950e-001 2.027433e-001 2.619238e-001 2.843561e-001 3.723302e-001 4.362264e-001 3.521203e-001 3.355534e-001 4.171184e-001 3.961872e-001 2.956468e-001 9.761247e-002
<GCONST> 9.661556e+001
<STATE> 3
<MEAN> 39
 4.273518e+000 5.900087e+000 3.308387e+000 8.294797e+000 6.154988e+000 -4.246327e+000 -6.612514e+000 -1.889867e+000 1.145163e+000 5.589636e+000 -3.319328e+000 -9.970057e+000 6.948274e+001 -1.278500e+000 8.479679e-001 9.099037e-001 -4.672260e-001 2.153781e-001 7.114247e-001 9.620865e-001 -9.439130e-001 -5.003919e-001 1.174986e-002 -6.050759e-002 7.896773e-001 -6.223699e-001 -2.185869e-001 -6.103496e-001 -9.982282e-002 -4.968222e-001 -3.650882e-001 -1.022109e-001 7.091593e-001 1.805319e-001 -5.480804e-001 -3.973357e-001 3.745595e-001 5.656034e-001 4.393624e-001
<VARIANCE> 39
 1.707652e+001 1.601889e+001 3.090565e+001 3.817472e+001 4.581859e+001 6.123158e+001 5.380158e+001 2.538985e+001 5.428712e+001 5.134654e+001 4.826777e+001 3.704706e+001 1.580995e+001 7.095714e-001 2.534625e+000 1.734387e+000 2.627835e+000 2.550167e+000 4.014192e+000 4.408796e+000 2.584393e+000 2.745036e+000 3.710105e+000 3.299904e+000 2.297047e+000 1.412814e+000 2.021163e-001 4.896906e-001 3.290683e-001 5.432565e-001 8.501614e-001 7.406472e-001 6.834022e-001 7.501950e-001 6.186411e-001 6.923898e-001 6.145140e-001 4.677187e-001 2.163012e-001
<GCONST> 1.204671e+002
<STATE> 4
<MEAN> 39
 -2.086429e-001 5.816906e+000 5.856572e+000 6.717032e+000 5.167075e+000 -1.332249e+000 -7.117096e-001 -2.038369e+000 -8.373994e-001 3.640467e+000 -1.804927e+000 -5.793314e+000 6.860184e+001 -7.042674e-001 -1.255345e+000 1.847166e-002 -1.793735e+000 -1.095940e+000 -5.592981e-001 1.187307e+000 2.528601e-001 -1.380812e+000 -1.039510e+000 7.067137e-001 1.541993e+000 1.165451e+000 5.918269e-001 -4.894390e-001 -5.072045e-001 -1.290790e-001 -1.538878e-001 -5.410827e-001 -3.532093e-001 2.609188e-001 -1.584870e-001 -1.173628e-001 9.713833e-002 -6.616648e-002 4.783716e-001
<VARIANCE> 39
 1.635165e+001 4.249183e+001 3.165617e+001 4.753337e+001 5.553686e+001 6.888483e+001 4.979687e+001 5.384694e+001 4.735586e+001 4.001765e+001 3.314252e+001 3.176181e+001 3.604749e+001 2.216285e+000 4.890353e+000 2.915993e+000 5.452159e+000 8.277712e+000 5.758110e+000 6.380606e+000 6.571892e+000 4.908132e+000 6.365998e+000 5.306406e+000 3.901838e+000 2.760131e+000 2.946427e-001 6.846425e-001 5.287219e-001 8.503875e-001 8.542089e-001 9.827403e-001 9.755103e-001 9.986197e-001 7.203826e-001 7.739795e-001 6.682385e-001 5.715778e-001 5.189062e-001
<GCONST> 1.352047e+002
<TRANSP> 5
 0.000000e+000 1.000000e+000 0.000000e+000 0.000000e+000 0.000000e+000
 0.000000e+000 6.362474e-001 3.637526e-001 0.000000e+000 0.000000e+000
 0.000000e+000 0.000000e+000 3.961001e-001 6.038998e-001 0.000000e+000
 0.000000e+000 0.000000e+000 0.000000e+000 5.222483e-001 4.777518e-001
 0.000000e+000 0.000000e+000 0.000000e+000 0.000000e+000 0.000000e+000
<ENDHMM>
~h "i"
<BEGINHMM>
<NUMSTATES> 5
<STATE> 2
<MEAN> 39
 -1.719766e+000 -4.738951e+000 9.308375e+000 1.499185e+001 1.280128e+001 -7.494458e+000 -6.884676e+000 -3.320941e+000 -3.714117e+000 -4.717881e-001 -3.343738e+000 -6.287100e+000 7.342564e+001 1.612832e+000 5.652168e-002 1.019034e+000 2.334759e+000 7.357220e-001 -3.085157e+000 -1.756605e+000 1.365329e-001 -1.089219e+000 -8.391926e-001 -1.191865e+000 -1.206075e+000 9.959685e-001 -3.547402e-001 2.504152e-001 -1.873051e-001 -4.785562e-001 -3.353150e-001 4.395419e-001 5.335481e-001 3.002713e-001 5.054740e-002 1.401508e-001 2.381665e-001 2.748170e-001 -3.097061e-001
<VARIANCE> 39
 2.955980e+001 1.957807e+001 4.942196e+001 3.851274e+001 5.430811e+001 8.933598e+001 5.267878e+001 5.389819e+001 6.660597e+001 4.480415e+001 4.884232e+001 2.502324e+001 2.958613e+001 5.183393e+000 5.063400e+000 4.780669e+000 4.194248e+000 3.573050e+000 6.273299e+000 4.597651e+000 5.351301e+000 7.740596e+000 5.009116e+000 5.201705e+000 3.337198e+000 3.369817e+000 6.491597e-001 6.447611e-001 6.786173e-001 7.301307e-001 5.718993e-001 1.231568e+000 8.013369e-001 7.496201e-001 8.307193e-001 7.411994e-001 7.613702e-001 4.922459e-001 7.057991e-001
<GCONST> 1.365816e+002
<STATE> 3
<MEAN> 39
 -3.706149e-002 -5.248527e+000 1.114238e+001 1.757243e+001 1.197616e+001 -1.329516e+001 -8.397878e+000 -4.484546e-001 -6.057451e+000 -2.077655e+000 -4.587338e+000 -7.217885e+000 7.534167e+001 4.668742e-002 2.472055e-001 -1.092380e-002 -6.377081e-002 -9.454127e-002 2.702627e-002 -1.401013e-001 -1.497021e-001 -1.512935e-003 1.890368e-001 -3.847206e-002 -2.024552e-002 -5.093668e-002 -2.127123e-001 2.582504e-001 -4.320942e-001 -6.648378e-001 -1.255498e-001 1.194097e+000 4.868102e-001 -3.161474e-001 2.031642e-001 2.914479e-001 3.720943e-001 2.607575e-001 -3.571177e-001
<VARIANCE> 39
 1.292787e+001 1.602577e+001 4.903920e+001 4.035280e+001 5.515120e+001 9.870457e+001 5.342292e+001 6.028955e+001 9.803681e+001 5.499876e+001 6.343309e+001 2.786036e+001 9.849560e+000 9.393497e-001 1.285073e+000 2.933143e+000 2.020242e+000 1.952371e+000 4.796833e+000 2.769321e+000 3.097497e+000 3.034635e+000 2.441842e+000 2.242387e+000 1.655325e+000 7.948107e-001 4.661651e-001 3.816044e-001 5.496360e-001 5.115746e-001 4.922284e-001 1.026105e+000 8.447924e-001 7.736344e-001 8.984575e-001 6.920977e-001 7.054144e-001 5.173180e-001 2.563374e-001
<GCONST> 1.221283e+002
<STATE> 4
<MEAN> 39
 -1.679694e-001 -3.029371e+000 8.285875e+000 1.488636e+001 1.311121e+001 -6.858249e+000 -8.205621e+000 -4.366710e+000 -4.623675e+000 2.054178e-001 -2.712715e+000 -6.495782e+000 7.369991e+001 -5.479828e-001 1.329243e+000 -8.874908e-001 -1.599685e+000 -4.660112e-001 3.173346e+000 1.797976e+000 -3.876020e-001 2.355293e-001 6.542931e-001 9.484771e-001 7.854191e-001 -1.377503e+000 -3.760420e-001 6.255089e-002 -6.411155e-002 -3.434005e-001 -3.175038e-001 3.390125e-001 6.382152e-001 3.853067e-001 8.938312e-002 -5.983061e-002 1.275833e-001 2.513027e-001 -2.742714e-001
<VARIANCE> 39
 1.941763e+001 1.800190e+001 4.854959e+001 3.720371e+001 4.951712e+001 9.692731e+001 4.860548e+001 4.980739e+001 7.004488e+001 4.324571e+001 5.102433e+001 2.402192e+001 1.787843e+001 3.468887e+000 3.965334e+000 4.578508e+000 3.234653e+000 3.194646e+000 5.398797e+000 4.561371e+000 4.601600e+000 5.246080e+000 4.192830e+000 4.184801e+000 3.036585e+000 3.129780e+000 4.147061e-001 5.479288e-001 6.139337e-001 5.641182e-001 4.931582e-001 1.051165e+000 7.408765e-001 6.849305e-001 6.809115e-001 6.272495e-001 6.390606e-001 4.517549e-001 4.185986e-001
<GCONST> 1.304529e+002
<TRANSP> 5
 0.000000e+000 1.000000e+000 0.000000e+000 0.000000e+000 0.000000e+000
 0.000000e+000 4.450400e-001 5.549600e-001 0.000000e+000 0.000000e+000
 0.000000e+000 0.000000e+000 6.692708e-001 3.307293e-001 0.000000e+000
 0.000000e+000 0.000000e+000 0.000000e+000 4.175419e-001 5.824581e-001
 0.000000e+000 0.000000e+000 0.000000e+000 0.000000e+000 0.000000e+000
<ENDHMM>
~h "j"
<BEGINHMM>
<NUMSTATES> 5
<STATE> 2
<MEAN> 39
 -5.578922e+000 -5.937868e+000 1.143318e+001 1.513010e+001 1.258075e+001 -3.932985e+000 -4.348577e+000 -1.517555e+000 -2.798094e-001 -9.660030e-002 -3.052268e+000 -4.494686e+000 7.075805e+001 2.129337e+000 4.069122e-001 8.580384e-001 1.992761e+000 5.191783e-001 -2.394056e+000 -1.617253e+000 -5.826483e-001 -1.563320e+000 -1.013253e+000 -9.517958e-001 -1.251431e+000 1.045766e+000 1.046510e-001 2.586944e-001 -6.103867e-001 -6.385084e-001 -2.505929e-001 -1.575840e-001 4.029173e-002 -1.238034e-001 -4.040969e-001 1.220514e-001 4.150874e-001 2.134829e-001 2.165881e-001
<VARIANCE> 39
 3.270991e+001 2.805744e+001 4.707182e+001 3.561880e+001 4.762607e+001 7.578957e+001 6.899406e+001 5.329871e+001 5.950163e+001 4.014511e+001 3.476328e+001 2.434600e+001 3.989307e+001 6.133743e+000 5.379087e+000 4.906096e+000 4.072912e+000 4.358870e+000 7.162483e+000 5.912525e+000 4.951739e+000 7.546417e+000 4.517424e+000 4.312887e+000 3.068600e+000 3.163001e+000 4.627870e-001 6.188325e-001 6.014323e-001 6.720019e-001 5.743916e-001 9.245713e-001 1.061667e+000 7.050285e-001 7.357063e-001 6.974989e-001 6.847523e-001 5.031427e-001 6.178362e-001
<GCONST> 1.358098e+002
<STATE> 3
<MEAN> 39
 1.506343e-001 -5.424960e+000 1.061783e+001 1.704447e+001 1.227272e+001 -1.034873e+001 -9.369965e+000 -2.710034e+000 -6.782346e+000 -2.040561e+000 -3.494239e+000 -7.179876e+000 7.484493e+001 1.337852e+000 1.227231e-001 -1.016232e+000 -4.307057e-001 -2.027458e-001 -1.659102e+000 -1.145227e+000 -8.728365e-001 -1.478927e+000 1.948468e-001 4.645229e-001 -2.109077e-001 1.113641e+000 -3.583445e-001 -7.189125e-002 -6.405312e-001 -1.048040e+000 -2.837983e-001 6.597243e-001 4.802156e-001 -4.178944e-002 2.938742e-001 4.446803e-001 5.871806e-001 5.952507e-001 -4.497446e-002
<VARIANCE> 39
 1.143148e+001 1.479112e+001 4.240159e+001 4.109683e+001 5.466774e+001 1.044506e+002 4.649542e+001 6.224032e+001 7.838540e+001 4.977954e+001 5.579847e+001 2.691891e+001 1.154868e+001 2.761425e+000 1.943977e+000 3.620603e+000 3.383024e+000 2.461343e+000 5.268007e+000 4.261952e+000 3.542159e+000 5.292125e+000 3.532482e+000 3.127903e+000 2.206258e+000 1.336164e+000 4.330718e-001 3.770500e-001 4.321308e-001 5.406973e-001 4.803006e-001 7.666751e-001 7.329535e-001 7.592039e-001 7.980860e-001 5.867844e-001 7.028452e-001 4.667016e-001 2.140765e-001
<GCONST> 1.252678e+002
<STATE> 4
<MEAN> 39
 2.444800e+000 -6.063403e+000 3.899112e+000 1.071048e+001 1.068918e+001 -1.118334e+001 -1.045551e+001 -6.726282e+000 -8.777937e+000 1.428108e+000 8.785928e-001 -4.372215e+000 7.783160e+001 7.504575e-001 1.104401e-001 -1.972261e+000 -2.612216e+000 -1.073920e+000 2.411155e-001 8.144473e-001 -1.458670e-001 -4.081196e-001 7.212011e-001 1.343159e+000 1.401161e+000 6.282728e-001 -2.318424e-001 1.265306e-001 7.953037e-002 -2.065869e-001 -2.251839e-001 6.297961e-001 7.464592e-001 5.775971e-001 4.058561e-001 -1.618930e-001 -1.600731e-001 1.482133e-001 -3.744096e-001
<VARIANCE> 39
 1.154317e+001 1.514291e+001 3.955039e+001 5.356215e+001 5.467884e+001 9.896328e+001 5.509224e+001 4.540038e+001 6.895744e+001 5.933230e+001 5.165403e+001 2.896010e+001 1.362836e+001 5.991990e-001 1.096338e+000 1.981787e+000 2.442693e+000 2.042649e+000 3.365882e+000 3.293438e+000 3.281976e+000 3.376415e+000 3.246483e+000 3.068058e+000 2.089108e+000 7.597967e-001 2.217725e-001 2.221083e-001 3.583691e-001 5.225698e-001 4.415260e-001 7.372159e-001 6.358567e-001 6.447073e-001 7.180266e-001 6.623551e-001 6.690296e-001 5.027148e-001 1.193670e-001
<GCONST> 1.179436e+002
<TRANSP> 5
 0.000000e+000 1.000000e+000 0.000000e+000 0.000000e+000 0.000000e+000
 0.000000e+000 4.136961e-001 5.863039e-001 0.000000e+000 0.000000e+000
 0.000000e+000 0.000000e+000 5.597947e-001 4.402054e-001 0.000000e+000
 0.000000e+000 0.000000e+000 0.000000e+000 5.806945e-001 4.193055e-001
 0.000000e+000 0.000000e+000 0.000000e+000 0.000000e+000 0.000000e+000
<ENDHMM>
~h "k"
<BEGINHMM>
<NUMSTATES> 5
<STATE> 2
<MEAN> 39
 -5.432028e+000 6.914437e+000 4.309776e+000 7.710364e+000 7.737081e+000 5.882657e+000 1.770333e+000 -1.229937e-001 -3.845193e+000 3.531659e-001 3.374445e-002 -1.483048e+000 6.027265e+001 -2.315938e+000 2.316524e+000 6.035528e-001 8.307300e-001 5.282576e-001 2.195924e+000 8.550041e-001 1.468417e+000 1.262397e+000 2.334459e-001 1.272704e-001 5.500702e-001 -4.094496e+000 1.410879e-001 -1.248730e+000 -4.373404e-001 -7.223648e-001 -5.112002e-001 -9.513124e-001 -7.610343e-002 7.186596e-002 1.058278e-001 2.105762e-001 1.832335e-001 8.474445e-002 1.214006e+000
<VARIANCE> 39
 2.874623e+001 8.304757e+001 4.380918e+001 4.702846e+001 6.081879e+001 5.552242e+001 7.138458e+001 6.434252e+001 5.115837e+001 4.164869e+001 4.256594e+001 3.546480e+001 4.672518e+001 3.417520e+000 8.851624e+000 4.802074e+000 5.380653e+000 4.631072e+000 6.339039e+000 5.630918e+000 5.493259e+000 3.957355e+000 4.630958e+000 4.438493e+000 3.207224e+000 5.780677e+000 4.846817e-001 1.893664e+000 1.027250e+000 1.167303e+000 8.339258e-001 1.080206e+000 1.028565e+000 1.024652e+000 8.067133e-001 7.816830e-001 7.757497e-001 6.081690e-001 1.674645e+000
<GCONST> 1.426092e+002
<STATE> 3
<MEAN> 39
 -1.225958e+001 6.071974e+000 5.940765e+000 8.999424e+000 9.092997e+000 7.365920e+000 5.063118e+000 5.361754e+000 1.364528e+000 4.149261e+000 2.330756e+000 8.756330e-001 5.329480e+001 -3.228300e-001 -2.715193e+000 -1.444419e+000 -2.522289e+000 -1.706237e+000 -1.544658e+000 2.899492e-001 1.953822e-001 4.079597e-001 1.627359e-001 4.793367e-001 1.556844e-001 2.215802e+000 1.039143e+000 -1.014788e+000 -3.218245e-001 -9.056017e-001 -6.656256e-001 -1.229466e+000 -3.930455e-001 -8.241451e-001 -6.358187e-001 -3.947106e-001 -2.102615e-001 -4.009791e-001 2.314023e+000
<VARIANCE> 39
 2.555433e+001 8.865042e+001 2.590974e+001 2.823023e+001 4.732283e+001 2.956191e+001 4.270391e+001 4.116915e+001 3.452942e+001 3.693521e+001 2.855759e+001 2.546132e+001 2.848680e+001 3.124413e+000 9.401078e+000 4.299115e+000 6.923858e+000 6.961461e+000 7.058171e+000 5.419287e+000 6.477485e+000 4.786420e+000 4.122252e+000 3.838664e+000 3.668525e+000 1.218384e+001 6.347589e-001 1.694086e+000 7.872857e-001 1.043470e+000 9.424686e-001 1.010113e+000 8.934991e-001 9.252328e-001 7.222918e-001 7.664607e-001 7.206463e-001 5.865991e-001 1.075697e+000
<GCONST> 1.384134e+002
<STATE> 4
<MEAN> 39
 -7.770112e+000 -5.766598e+000 -3.928976e-001 -4.823612e+000 -3.550863e-001 -1.824717e+000 4.347884e+000 1.418060e+000 -1.181174e+000 8.619320e-001 1.749325e+000 -1.107600e+000 7.207249e+001 2.353798e+000 -1.220502e+000 -4.210845e-002 -1.483311e+000 -1.275081e+000 -2.786522e+000 -9.921629e-001 -1.365413e+000 -1.299879e+000 -3.792962e-001 -3.585226e-001 -7.867833e-001 4.134669e+000 7.694877e-001 1.215377e+000 4.617881e-001 1.365186e+000 7.373435e-001 1.545178e-001 -3.987396e-001 -1.263350e-001 -3.801078e-001 2.303580e-001 -1.602088e-001 -1.554859e-001 -8.872088e-001
<VARIANCE> 39
 1.810108e+001 5.061514e+001 3.487625e+001 5.308168e+001 9.822590e+001 7.057399e+001 6.853178e+001 6.344850e+001 3.612274e+001 3.812641e+001 3.079913e+001 2.986197e+001 4.490463e+001 4.524570e+000 9.778404e+000 4.707534e+000 9.872565e+000 7.411380e+000 5.658783e+000 5.217984e+000 5.314854e+000 4.608157e+000 4.259113e+000 4.776518e+000 3.420508e+000 7.986807e+000 5.215359e-001 1.094170e+000 9.687672e-001 9.910228e-001 1.461165e+000 1.260693e+000 1.070361e+000 1.238970e+000 1.054010e+000 8.746787e-001 9.147510e-001 7.282159e-001 1.231257e+000
<GCONST> 1.436465e+002
<TRANSP> 5
 0.000000e+000 1.000000e+000 0.000000e+000 0.000000e+000 0.000000e+000
 0.000000e+000 5.680521e-001 4.319479e-001 0.000000e+000 0.000000e+000
 0.000000e+000 0.000000e+000 5.785769e-001 4.214231e-001 0.000000e+000
 0.000000e+000 0.000000e+000 0.000000e+000 6.187540e-001 3.812460e-001
 0.000000e+000 0.000000e+000 0.000000e+000 0.000000e+000 0.000000e+000
<ENDHMM>
~h "l"
<BEGINHMM>
<NUMSTATES> 5
<STATE> 2
<MEAN> 39
 4.905851e+000 -2.672481e+000 6.865746e-001 7.003342e+000 8.077818e+000 -2.901912e+000 -3.390278e+000 -3.458839e+000 -1.054046e+001 -3.718925e+000 -2.413954e+000 -1.243486e+000 7.344643e+001 2.446620e-001 6.804092e-001 8.999954e-001 1.390252e+000 6.767803e-001 9.181540e-001 5.441638e-002 2.522501e-001 -1.012007e+000 -1.433571e+000 -9.731019e-001 -4.478651e-001 -8.874713e-001 -2.055154e-001 -2.916209e-002 -1.449162e-001 -4.240986e-001 -2.157440e-001 -3.407711e-001 1.994758e-001 2.458040e-001 3.886120e-001 2.928712e-001 2.663432e-001 6.248632e-002 1.661064e-001
<VARIANCE> 39
 1.927454e+001 1.939847e+001 4.803456e+001 4.364925e+001 5.723691e+001 6.762933e+001 4.019892e+001 5.891817e+001 5.254927e+001 4.883567e+001 4.039418e+001 2.885354e+001 1.949112e+001 1.891267e+000 1.918680e+000 3.519157e+000 3.184216e+000 2.951075e+000 5.778435e+000 4.412300e+000 3.969560e+000 4.702555e+000 3.705864e+000 3.527224e+000 2.814337e+000 2.056444e+000 2.235858e-001 3.028836e-001 5.324489e-001 4.664812e-001 4.970831e-001 8.419267e-001 6.876315e-001 5.553014e-001 7.601426e-001 5.843045e-001 6.217790e-001 4.727812e-001 2.167255e-001
<GCONST> 1.249565e+002
<STATE> 3
<MEAN> 39
 5.124918e+000 -1.396903e+000 1.697132e+000 8.588952e+000 8.864306e+000 -1.866464e+000 -2.380184e+000 -7.008004e-001 -1.203117e+001 -6.669395e+000 -3.806781e+000 -1.845364e+000 7.234830e+001 -1.172017e-001 1.343694e-001 5.703891e-002 -2.135423e-001 -1.689313e-002 -2.874017e-001 3.543359e-002 3.404187e-001 2.575102e-001 -3.591924e-001 6.684414e-002 1.487474e-001 8.110499e-002 -2.100515e-001 -2.950889e-001 -3.777663e-001 -7.732874e-001 -3.442191e-001 -4.898836e-001 -7.673758e-003 -5.635643e-002 6.407117e-001 7.586698e-001 5.561262e-001 1.970747e-001 4.537915e-001
<VARIANCE> 39
 1.466744e+001 1.831943e+001 4.707034e+001 4.277382e+001 5.696757e+001 7.214380e+001 4.512071e+001 7.300144e+001 5.128122e+001 5.747858e+001 4.162915e+001 2.967817e+001 1.251009e+001 1.502054e+000 1.542676e+000 2.997024e+000 3.070281e+000 2.247525e+000 4.758233e+000 3.163366e+000 2.805711e+000 3.657089e+000 3.000561e+000 3.307278e+000 2.283724e+000 1.879720e+000 2.128727e-001 3.455886e-001 6.141108e-001 5.191916e-001 5.783440e-001 1.016348e+000 1.065960e+000 7.760732e-001 8.639657e-001 7.836168e-001 8.015053e-001 5.687587e-001 2.337227e-001
<GCONST> 1.244922e+002
<STATE> 4
<MEAN> 39
 4.217833e+000 -2.023795e+000 1.097119e+000 6.020855e+000 8.532001e+000 -3.954709e+000 -3.646553e+000 -1.767142e+000 -9.327297e+000 -5.898032e+000 -2.179606e+000 -4.377630e-001 7.380656e+001 -4.311913e-001 -4.389626e-001 -6.320436e-001 -1.546167e+000 -7.019261e-001 -9.768644e-001 2.074630e-001 1.396717e-001 1.310964e+000 1.450881e+000 1.053008e+000 3.378923e-001 8.568230e-001 -1.610454e-001 -1.271133e-001 -1.317310e-001 -2.365312e-001 -3.100959e-001 -5.759755e-002 3.661107e-001 6.033973e-002 2.833673e-001 6.906281e-001 1.619774e-001 -1.069751e-001 5.776596e-002
<VARIANCE> 39
 1.837296e+001 1.889121e+001 5.239604e+001 4.752693e+001 5.361571e+001 7.033510e+001 4.504816e+001 5.931245e+001 5.057753e+001 4.679453e+001 3.989108e+001 2.770291e+001 1.958103e+001 2.037425e+000 2.476425e+000 5.028855e+000 3.971342e+000 3.635045e+000 6.771760e+000 6.159649e+000 4.091333e+000 4.722870e+000 4.659280e+000 4.623472e+000 3.290385e+000 2.872803e+000 2.400499e-001 3.538347e-001 5.898280e-001 5.453191e-001 4.645993e-001 8.047396e-001 7.513613e-001 6.429346e-001 7.986221e-001 6.484355e-001 6.133311e-001 4.640521e-001 2.497906e-001
<GCONST> 1.285226e+002
<TRANSP> 5
 0.000000e+000 1.000000e+000 0.000000e+000 0.000000e+000 0.000000e+000
 0.000000e+000 2.981271e-001 7.018729e-001 0.000000e+000 0.000000e+000
 0.000000e+000 0.000000e+000 4.450992e-001 5.549008e-001 0.000000e+000
 0.000000e+000 0.000000e+000 0.000000e+000 2.349560e-001 7.650440e-001
 0.000000e+000 0.000000e+000 0.000000e+000 0.000000e+000 0.000000e+000
<ENDHMM>
~h "m"
<BEGINHMM>
<NUMSTATES> 5
<STATE> 2
<MEAN> 39
 5.968448e+000 2.691842e+000 -4.053976e-001 6.701241e+000 6.567282e+000 -9.407204e-001 1.609509e+000 -1.394082e+000 -5.933190e+000 1.941434e+000 -2.992681e+000 -7.765674e+000 7.142037e+001 9.086095e-002 6.344152e-001 5.800954e-001 1.859449e+000 9.173617e-001 2.134442e+000 1.107817e+000 -1.037560e-001 -1.395238e-001 1.789517e-001 -1.233612e+000 -2.256459e+000 -1.105970e+000 -2.798174e-001 -4.724528e-001 1.162071e-001 -2.766103e-001 8.858465e-003 -4.223897e-001 -1.856618e-001 1.376710e-001 6.367171e-002 -6.058360e-002 2.583783e-001 2.648891e-001 3.770460e-001
<VARIANCE> 39
 1.163271e+001 2.111270e+001 2.975394e+001 4.800799e+001 5.317233e+001 4.874800e+001 3.812426e+001 4.174871e+001 6.033548e+001 4.164493e+001 6.095972e+001 4.168109e+001 1.238168e+001 1.112821e+000 2.467500e+000 2.672627e+000 5.306387e+000 4.951416e+000 4.622091e+000 4.449835e+000 3.667988e+000 3.731743e+000 4.574728e+000 4.595348e+000 3.411762e+000 1.489939e+000 1.624521e-001 3.903146e-001 3.426684e-001 6.622905e-001 5.242136e-001 5.704541e-001 5.849275e-001 4.982467e-001 4.939453e-001 5.437776e-001 6.135065e-001 5.776189e-001 1.861318e-001
<GCONST> 1.227225e+002
<STATE> 3
<MEAN> 39
 5.232504e+000 9.395909e-001 1.005639e+000 1.008419e+001 8.188283e+000 1.273113e+000 3.578809e+000 -1.531724e-001 -5.992186e+000 2.497410e+000 -2.590172e+000 -1.123325e+001 7.113927e+001 -8.667698e-002 -2.565438e-001 7.808381e-002 -9.027842e-003 1.596754e-001 1.168712e-001 5.462669e-002 8.544515e-002 9.547133e-002 -5.435495e-002 -3.897374e-002 -1.224975e-001 1.973832e-001 -6.760348e-002 -1.521364e-001 -2.039743e-001 -7.067176e-001 -3.783130e-001 -8.247987e-001 -4.210535e-001 4.211740e-002 1.839766e-001 -1.018021e-003 3.495927e-001 8.432432e-001 3.995430e-001
<VARIANCE> 39
 8.721534e+000 1.969484e+001 2.656232e+001 3.692698e+001 4.820768e+001 4.047795e+001 3.532691e+001 3.626497e+001 6.638117e+001 4.893215e+001 6.193515e+001 4.175536e+001 8.544423e+000 4.656482e-001 1.001030e+000 1.212152e+000 2.334966e+000 1.958925e+000 2.255584e+000 1.928458e+000 1.613707e+000 1.744221e+000 1.500186e+000 1.720242e+000 2.336694e+000 8.424654e-001 1.278184e-001 3.205690e-001 2.623474e-001 5.813047e-001 5.872217e-001 4.952296e-001 4.925996e-001 4.716120e-001 4.801407e-001 4.936257e-001 6.538761e-001 4.679895e-001 1.587348e-001
<GCONST> 1.093780e+002
<STATE> 4
<MEAN> 39
 5.442014e+000 1.025260e+000 -2.487690e-001 6.190482e+000 6.609310e+000 -2.077411e+000 1.698314e+000 -8.060099e-001 -4.695876e+000 1.722801e+000 -3.027330e+000 -7.523205e+000 7.296362e+001 -2.524545e-001 -5.865205e-001 -3.559768e-001 -1.346067e+000 -6.335145e-001 -2.203205e+000 -8.846643e-001 2.619086e-001 6.039805e-001 9.178551e-002 9.698882e-001 1.855592e+000 1.074760e+000 -1.533251e-001 -1.296762e-001 -1.517783e-002 -4.280468e-002 -4.592574e-002 -4.709302e-001 -6.491034e-002 1.663277e-001 6.175272e-002 7.961813e-002 1.851248e-001 2.085131e-001 7.039768e-002
<VARIANCE> 39
 1.141209e+001 1.927525e+001 3.192978e+001 4.585426e+001 5.283127e+001 5.158309e+001 4.185667e+001 3.553999e+001 5.888024e+001 4.384190e+001 5.126006e+001 4.376059e+001 1.182292e+001 9.509969e-001 2.057988e+000 2.337887e+000 4.615604e+000 3.854889e+000 4.900016e+000 3.871054e+000 3.373773e+000 2.778195e+000 2.919868e+000 3.808751e+000 3.253145e+000 1.501322e+000 1.170955e-001 2.227524e-001 3.216909e-001 4.945814e-001 4.108178e-001 6.360972e-001 4.952150e-001 4.530907e-001 4.409266e-001 4.397994e-001 4.921555e-001 5.626813e-001 1.357093e-001
<GCONST> 1.179490e+002
<TRANSP> 5
 0.000000e+000 1.000000e+000 0.000000e+000 0.000000e+000 0.000000e+000
 0.000000e+000 3.867687e-001 6.132313e-001 0.000000e+000 0.000000e+000
 0.000000e+000 0.000000e+000 6.181534e-001 3.818466e-001 0.000000e+000
 0.000000e+000 0.000000e+000 0.000000e+000 4.551823e-001 5.448176e-001
 0.000000e+000 0.000000e+000 0.000000e+000 0.000000e+000 0.000000e+000
<ENDHMM>
~h "n"
<BEGINHMM>
<NUMSTATES> 5
<STATE> 2
<MEAN> 39
 5.012771e+000 5.348582e-001 7.586674e-001 7.372546e+000 7.485428e+000 -3.498935e+000 -1.716776e+000 -2.871774e+000 -5.078104e+000 2.852344e+000 -1.004823e+000 -6.341059e+000 7.338076e+001 1.949137e-001 9.556679e-001 8.049831e-001 2.012683e+000 2.420909e-001 1.615538e+000 -4.511654e-002 -6.174932e-001 4.050089e-001 7.629097e-001 -1.010559e+000 -1.817855e+000 -1.408768e+000 -1.755714e-001 -1.651466e-001 9.174350e-002 -1.512122e-001 -7.303346e-002 -2.895952e-001 -1.147211e-001 1.051719e-001 7.148975e-002 -1.631620e-004 9.421549e-002 1.684182e-001 1.223335e-001
<VARIANCE> 39
 1.116087e+001 1.679783e+001 3.129088e+001 5.020186e+001 5.129028e+001 5.177857e+001 4.575988e+001 4.301893e+001 4.711171e+001 4.863887e+001 5.649678e+001 4.250747e+001 1.156457e+001 7.589963e-001 1.991979e+000 2.503518e+000 4.348912e+000 2.904954e+000 3.753315e+000 4.524559e+000 3.660506e+000 3.678415e+000 4.217950e+000 3.640092e+000 3.599508e+000 1.042710e+000 1.224486e-001 2.705159e-001 2.854331e-001 5.379078e-001 3.638598e-001 4.900090e-001 5.131720e-001 4.492398e-001 4.646158e-001 5.104566e-001 5.211704e-001 4.805294e-001 1.431109e-001
<GCONST> 1.178215e+002
<STATE> 3
<MEAN> 39
 5.112859e+000 1.829234e+000 2.742344e+000 1.111144e+001 7.562780e+000 -1.466098e+000 -2.855008e+000 -3.637932e+000 -3.978063e+000 5.392108e+000 -2.134889e+000 -1.040225e+001 7.117885e+001 -3.381036e-001 3.276167e-001 5.412930e-001 4.629514e-001 1.357361e-001 4.262667e-001 -1.446175e-002 -5.427235e-002 2.350388e-001 4.626436e-002 -1.891008e-001 -1.636345e-001 -4.765185e-001 -3.148202e-001 -3.211074e-001 -2.007091e-001 -6.989623e-001 -3.911345e-002 -4.965348e-001 1.637790e-001 3.757000e-001 -1.016270e-001 -4.453833e-001 3.620998e-001 8.493197e-001 3.781103e-001
<VARIANCE> 39
 1.074279e+001 2.017954e+001 2.536252e+001 4.009239e+001 4.690028e+001 3.625550e+001 4.076991e+001 3.766297e+001 5.194933e+001 5.865621e+001 5.289292e+001 5.199229e+001 1.087044e+001 6.753814e-001 1.584718e+000 1.691842e+000 2.334892e+000 1.473861e+000 2.226915e+000 2.333063e+000 2.014129e+000 2.293499e+000 2.316469e+000 2.148412e+000 2.526548e+000 1.146587e+000 1.875660e-001 3.913134e-001 4.123854e-001 5.866729e-001 4.200723e-001 7.672882e-001 6.846966e-001 5.748919e-001 5.962112e-001 7.325044e-001 6.278082e-001 6.514849e-001 2.506534e-001
<GCONST> 1.155576e+002
<STATE> 4
<MEAN> 39
 3.561304e+000 1.819686e+000 2.880627e+000 9.821587e+000 8.277965e+000 -1.972001e+000 -1.796690e+000 -3.060896e+000 -3.982035e+000 2.988203e+000 -2.213482e+000 -7.104377e+000 7.119798e+001 -8.904393e-001 -5.027316e-001 -2.608281e-001 -1.158184e+000 -2.452142e-002 -5.644913e-001 5.636318e-001 9.762843e-001 -4.606302e-002 -9.863877e-001 7.365913e-001 1.699573e+000 3.774839e-001 -1.665209e-001 -3.147128e-001 -2.797679e-001 -5.272697e-001 -1.881897e-001 -3.506086e-001 1.390059e-001 3.083308e-001 -2.689373e-002 -5.292219e-002 2.559232e-001 3.575747e-001 2.320789e-001
<VARIANCE> 39
 1.420487e+001 2.957035e+001 3.289606e+001 3.802913e+001 4.308262e+001 3.997963e+001 4.363382e+001 3.408513e+001 4.671658e+001 4.758873e+001 4.574672e+001 3.873533e+001 2.315048e+001 1.941400e+000 2.719662e+000 3.364741e+000 4.093712e+000 2.134122e+000 4.595532e+000 3.800743e+000 3.026161e+000 3.607863e+000 3.907056e+000 3.320113e+000 3.917915e+000 2.976644e+000 2.507967e-001 4.410335e-001 4.022102e-001 5.339457e-001 3.773018e-001 5.633874e-001 6.389245e-001 4.699553e-001 5.444941e-001 5.393013e-001 5.011254e-001 5.179471e-001 2.734779e-001
<GCONST> 1.228864e+002
<TRANSP> 5
 0.000000e+000 1.000000e+000 0.000000e+000 0.000000e+000 0.000000e+000
 0.000000e+000 4.179214e-001 5.820786e-001 0.000000e+000 0.000000e+000
 0.000000e+000 0.000000e+000 5.287251e-001 4.712748e-001 0.000000e+000
 0.000000e+000 0.000000e+000 0.000000e+000 3.723708e-001 6.276292e-001
 0.000000e+000 0.000000e+000 0.000000e+000 0.000000e+000 0.000000e+000
<ENDHMM>
~h "o"
<BEGINHMM>
<NUMSTATES> 5
<STATE> 2
<MEAN> 39
 5.525596e+000 -4.189380e-001 -2.414257e-002 -1.001170e+000 2.549758e-001 -9.067080e+000 -3.632509e-001 2.812643e-001 -7.758790e+000 -1.511547e+000 -1.306651e+000 -2.470196e+000 7.564838e+001 2.011305e+000 8.877918e-001 -1.215068e+000 -1.070008e+000 -1.229216e+000 -1.910029e+000 3.070292e-002 6.363650e-001 -9.059069e-001 1.854015e-002 -3.087543e-001 -1.218042e-001 6.239638e-001 -7.380321e-001 -1.267981e-001 2.900522e-001 4.535552e-001 2.920226e-001 7.036279e-001 2.657951e-001 1.945076e-001 4.850877e-001 1.476087e-001 1.004184e-002 -4.900529e-002 -5.199057e-001
<VARIANCE> 39
 1.361219e+001 2.791334e+001 4.002981e+001 5.598069e+001 6.615720e+001 7.487981e+001 6.002485e+001 6.600372e+001 7.218098e+001 5.355409e+001 4.124815e+001 3.661956e+001 1.936786e+001 3.568821e+000 3.473755e+000 2.709462e+000 5.124929e+000 4.800257e+000 5.236892e+000 5.935209e+000 5.172389e+000 5.335433e+000 4.478284e+000 4.295117e+000 3.978784e+000 1.757493e+000 5.137845e-001 6.208658e-001 5.489396e-001 6.735252e-001 7.402154e-001 9.626059e-001 7.564085e-001 7.243938e-001 8.158776e-001 7.255107e-001 6.943604e-001 7.095321e-001 4.984892e-001
<GCONST> 1.340343e+002
<STATE> 3
<MEAN> 39
 6.852034e+000 -8.567458e-002 -2.224228e+000 -2.668825e+000 -2.291049e+000 -1.070335e+001 1.135979e+000 2.189715e+000 -7.706156e+000 -1.216693e+000 -1.696000e+000 -2.831792e+000 7.606818e+001 -4.901522e-002 2.831306e-001 5.403154e-002 1.145665e-001 -1.233448e-001 4.737866e-001 3.391637e-001 2.196313e-001 3.591769e-001 -2.775745e-002 -3.226952e-001 -6.040022e-002 -3.699012e-001 -5.931688e-001 -1.150388e-001 5.316437e-001 6.100883e-001 6.008877e-001 8.585297e-001 -4.380190e-002 -1.962838e-001 2.917270e-001 -4.419312e-002 -2.148669e-002 -4.175362e-002 -3.838099e-001
<VARIANCE> 39
 9.343161e+000 2.444716e+001 3.612672e+001 6.537650e+001 5.707610e+001 7.409023e+001 6.584608e+001 6.245172e+001 7.393503e+001 5.783675e+001 4.545860e+001 4.397774e+001 1.422005e+001 5.869841e-001 1.422290e+000 2.071240e+000 2.307590e+000 3.810032e+000 2.933736e+000 3.056579e+000 3.173940e+000 3.230614e+000 3.265573e+000 2.295368e+000 2.601719e+000 8.363160e-001 3.975001e-001 4.651404e-001 4.990929e-001 6.007348e-001 5.319979e-001 7.868112e-001 7.837043e-001 6.673501e-001 7.243015e-001 6.598020e-001 6.783837e-001 6.475086e-001 2.153420e-001
<GCONST> 1.226892e+002
<STATE> 4
<MEAN> 39
 4.453737e+000 1.766042e+000 -6.908797e-001 2.708959e-002 1.205488e-001 -6.505004e+000 1.472736e+000 2.637677e+000 -4.929487e+000 -8.383319e-001 -2.383024e+000 -2.887670e+000 7.207150e+001 -1.420748e+000 -3.649363e-002 1.203962e+000 1.483466e+000 1.316686e+000 2.379869e+000 2.958585e-001 7.649107e-002 9.135883e-001 9.255474e-003 -1.210758e-001 -5.433220e-002 -1.333506e+000 -6.366895e-001 -3.937040e-001 4.174014e-001 3.478037e-001 3.875532e-001 3.791234e-001 2.902990e-002 -2.533007e-002 1.029356e-001 4.019993e-002 2.067247e-001 6.481474e-003 -1.066016e-001
<VARIANCE> 39
 2.033465e+001 3.292851e+001 4.604515e+001 5.138802e+001 5.748092e+001 7.762769e+001 5.797644e+001 7.237429e+001 7.753233e+001 5.928856e+001 4.162084e+001 4.359130e+001 4.121629e+001 2.351890e+000 5.171964e+000 4.489197e+000 4.056931e+000 4.302592e+000 4.750312e+000 4.916407e+000 4.233986e+000 4.420227e+000 4.450684e+000 4.152867e+000 4.026893e+000 2.980613e+000 5.877470e-001 7.357855e-001 6.914710e-001 5.992898e-001 6.893888e-001 7.819198e-001 6.656396e-001 7.725623e-001 7.127890e-001 6.782776e-001 6.439144e-001 6.338910e-001 3.787849e-001
<GCONST> 1.350996e+002
<TRANSP> 5
 0.000000e+000 1.000000e+000 0.000000e+000 0.000000e+000 0.000000e+000
 0.000000e+000 3.776293e-001 6.223708e-001 0.000000e+000 0.000000e+000
 0.000000e+000 0.000000e+000 5.931839e-001 4.068160e-001 0.000000e+000
 0.000000e+000 0.000000e+000 0.000000e+000 3.366667e-001 6.633332e-001
 0.000000e+000 0.000000e+000 0.000000e+000 0.000000e+000 0.000000e+000
<ENDHMM>
~h "p"
<BEGINHMM>
<NUMSTATES> 5
<STATE> 2
<MEAN> 39
 -2.197961e+000 1.104557e+001 3.196332e+000 8.744457e+000 5.782341e+000 3.983315e+000 2.045656e+000 2.061797e+000 -2.926986e+000 6.808785e-001 -2.265979e+000 -3.334749e+000 5.910114e+001 -2.344954e+000 2.809873e+000 1.283067e+000 1.279763e+000 7.108233e-001 2.383350e+000 6.548583e-001 9.005469e-001 9.781607e-001 3.284708e-001 3.954146e-001 6.988223e-001 -4.338983e+000 -2.742850e-001 -1.315153e+000 -8.432819e-002 -5.384802e-001 -8.366879e-002 -5.415336e-001 -7.060741e-002 -9.659788e-003 -2.266229e-002 9.243531e-002 3.421734e-001 2.850234e-001 9.567330e-001
<VARIANCE> 39
 3.343120e+001 6.367845e+001 4.510200e+001 3.022913e+001 3.845478e+001 3.125686e+001 3.010243e+001 3.341379e+001 3.596956e+001 2.910332e+001 2.863898e+001 3.011642e+001 4.388874e+001 3.703939e+000 7.691940e+000 4.514726e+000 3.727179e+000 3.589151e+000 5.299759e+000 3.425121e+000 4.316632e+000 2.844841e+000 3.477914e+000 3.167235e+000 2.971332e+000 5.507551e+000 5.426527e-001 1.299588e+000 7.196556e-001 7.048028e-001 4.700791e-001 7.917280e-001 5.847943e-001 6.451504e-001 5.061275e-001 5.893318e-001 4.413836e-001 4.430160e-001 1.389645e+000
<GCONST> 1.306064e+002
<STATE> 3
<MEAN> 39
 -1.127285e+001 9.677801e+000 6.689014e+000 1.020818e+001 8.435715e+000 7.348456e+000 5.099570e+000 6.969193e+000 1.336725e+000 4.523591e+000 2.214451e+000 1.122990e+000 5.099181e+001 -5.211348e-001 -2.570526e+000 -6.559400e-001 -1.252159e+000 -2.578123e-001 -5.902470e-001 -2.432995e-001 -2.799592e-001 1.892920e-001 -6.985629e-002 4.035176e-001 5.428218e-001 1.728637e+000 1.236829e+000 -1.101225e+000 -6.120222e-001 -7.383078e-001 -3.753269e-001 -1.042976e+000 -4.100411e-001 -7.173001e-001 -4.612347e-001 -4.497746e-001 -3.011310e-001 -3.017073e-001 2.312413e+000
<VARIANCE> 39
 1.957664e+001 6.900956e+001 1.898635e+001 1.547510e+001 3.158091e+001 1.220296e+001 2.055967e+001 2.441603e+001 2.171076e+001 2.736243e+001 1.969381e+001 1.831827e+001 1.654403e+001 4.101677e+000 7.692704e+000 2.570317e+000 3.682638e+000 2.374225e+000 3.504925e+000 2.605311e+000 4.440604e+000 2.884473e+000 3.181857e+000 2.449669e+000 2.421294e+000 1.559703e+001 7.028588e-001 1.292344e+000 6.056638e-001 6.585696e-001 5.644739e-001 6.900065e-001 4.956432e-001 7.009795e-001 5.163484e-001 5.739233e-001 4.298342e-001 4.277506e-001 1.012914e+000
<GCONST> 1.229211e+002
<STATE> 4
<MEAN> 39
 -5.801955e+000 -4.369045e+000 1.735436e+000 1.564573e+000 5.427934e+000 8.322983e-001 1.683760e+000 5.493004e-001 -1.124204e+000 -2.964946e-001 4.956779e-001 8.185477e-001 7.136791e+001 4.039611e+000 -2.224354e+000 -1.800539e+000 -2.163368e+000 -1.061634e+000 -3.046247e+000 -1.086119e+000 -1.538218e+000 -1.317684e+000 -7.717101e-001 -3.166671e-001 -4.187599e-001 5.838164e+000 6.536168e-001 1.287390e+000 -8.726029e-002 4.906186e-001 2.494370e-002 -2.997051e-001 -6.193641e-002 2.028517e-001 -2.616899e-001 3.133938e-001 -8.529395e-002 -2.965091e-001 -9.128403e-001
<VARIANCE> 39
 2.177006e+001 2.532410e+001 2.681773e+001 2.867295e+001 3.202521e+001 3.125927e+001 3.232478e+001 3.193626e+001 2.698202e+001 2.426762e+001 1.855716e+001 1.524568e+001 5.599326e+001 4.102795e+000 8.715401e+000 3.760268e+000 6.751834e+000 5.801536e+000 5.690714e+000 4.468323e+000 5.358298e+000 4.695175e+000 3.638423e+000 3.792269e+000 3.822107e+000 6.726548e+000 8.287292e-001 9.897358e-001 7.207998e-001 8.382556e-001 8.205786e-001 1.096928e+000 7.753313e-001 9.109433e-001 8.494549e-001 6.630468e-001 7.220481e-001 5.973230e-001 1.533116e+000
<GCONST> 1.333965e+002
<TRANSP> 5
 0.000000e+000 1.000000e+000 0.000000e+000 0.000000e+000 0.000000e+000
 0.000000e+000 5.968035e-001 4.031965e-001 0.000000e+000 0.000000e+000
 0.000000e+000 0.000000e+000 6.817220e-001 3.182779e-001 0.000000e+000
 0.000000e+000 0.000000e+000 0.000000e+000 5.455183e-001 4.544817e-001
 0.000000e+000 0.000000e+000 0.000000e+000 0.000000e+000 0.000000e+000
<ENDHMM>
~h "r"
<BEGINHMM>
<NUMSTATES> 5
<STATE> 2
<MEAN> 39
 -1.985570e+000 -5.581445e+000 6.070301e-001 1.772243e+000 7.844910e+000 -2.886485e-002 8.581995e-001 7.154198e-001 -2.003504e+000 -1.485572e+000 5.912662e-001 3.090525e+000 7.413693e+001 -1.292275e+000 -1.155312e+000 1.112852e+000 1.116691e+000 4.562296e-001 3.372389e-001 4.140303e-001 2.782617e-001 6.165974e-001 -6.357230e-001 3.892732e-001 5.957963e-001 -6.836437e-002 6.935277e-001 3.614868e-001 -3.310939e-001 -2.261216e-001 -2.322432e-001 -4.676646e-001 -1.503607e-001 -2.249829e-001 -4.656947e-001 3.187874e-001 -1.182345e-001 -3.736511e-001 1.715306e-001
<VARIANCE> 39
 3.447542e+001 2.662422e+001 4.076974e+001 4.166511e+001 4.446881e+001 5.791224e+001 2.709638e+001 4.577681e+001 3.964604e+001 4.233627e+001 2.565933e+001 2.756566e+001 1.878511e+001 3.932438e+000 2.666411e+000 4.767934e+000 5.009294e+000 2.696194e+000 3.779852e+000 3.167634e+000 4.065582e+000 3.691915e+000 3.415441e+000 3.373115e+000 3.063151e+000 1.679091e+000 6.755017e-001 6.257631e-001 8.197880e-001 8.783994e-001 5.619031e-001 7.152649e-001 7.023023e-001 7.439657e-001 6.220192e-001 6.533624e-001 6.625349e-001 5.907832e-001 2.945704e-001
<GCONST> 1.278114e+002
<STATE> 3
<MEAN> 39
 -7.016146e-001 -5.442717e+000 1.853731e+000 2.523170e+000 7.573365e+000 -1.123721e+000 1.501684e+000 7.221579e-001 -2.212145e+000 -1.241607e+000 5.021397e-002 2.223649e+000 7.485468e+001 1.154257e+000 7.116616e-001 -6.044132e-001 -4.264217e-001 -1.757567e-001 -4.561084e-001 -3.633977e-001 -3.336994e-001 -7.732431e-001 -1.228472e-002 -1.563777e-001 -2.664363e-001 5.410703e-003 5.298730e-001 3.379079e-001 -6.840709e-001 -4.278645e-001 4.031224e-002 -2.305930e-001 -2.964364e-001 -1.649757e-001 -3.650277e-001 2.190834e-001 5.018561e-002 -1.686988e-001 9.662987e-002
<VARIANCE> 39
 2.620361e+001 1.703629e+001 2.832007e+001 3.255295e+001 4.144667e+001 6.659227e+001 2.012252e+001 3.824832e+001 3.423923e+001 3.813567e+001 2.438191e+001 2.059930e+001 1.481476e+001 2.575070e+000 1.584161e+000 2.881062e+000 2.398485e+000 2.102926e+000 1.980680e+000 2.054129e+000 2.324381e+000 2.351058e+000 1.866442e+000 2.052171e+000 1.550246e+000 5.779806e-001 3.962175e-001 3.111545e-001 5.613514e-001 5.692854e-001 4.263882e-001 4.337188e-001 4.855513e-001 5.131013e-001 4.720356e-001 4.759287e-001 5.464533e-001 3.453819e-001 1.434307e-001
<GCONST> 1.122660e+002
<STATE> 4
<MEAN> 39
 6.229802e+000 -1.095418e+000 -5.275348e+000 -2.719028e+000 6.954470e+000 -2.508388e+000 -2.038887e+000 -1.653111e+000 -8.306043e+000 -1.502641e+000 1.450157e+000 1.101611e+000 7.504993e+001 1.393875e+000 6.933863e-001 -1.726734e+000 -8.218865e-001 5.705513e-001 -1.067613e+000 -1.062577e+000 -4.131243e-001 -1.284232e+000 6.014239e-001 4.412355e-001 -6.713467e-001 4.610066e-001 -4.613954e-001 -3.859046e-001 3.702596e-001 3.970187e-001 -1.772822e-002 -1.255195e-001 1.132561e-001 1.124398e-001 3.434399e-001 2.093119e-001 -6.520628e-002 -5.339959e-002 8.947720e-002
<VARIANCE> 39
 1.846375e+001 1.582688e+001 4.320896e+001 6.384875e+001 5.021177e+001 8.391087e+001 3.685812e+001 8.665714e+001 5.781688e+001 3.919657e+001 5.156817e+001 3.244364e+001 1.441780e+001 2.270549e+000 2.189666e+000 4.611726e+000 4.629879e+000 2.718795e+000 3.292351e+000 3.782053e+000 4.162942e+000 3.936432e+000 3.448132e+000 4.346831e+000 2.567342e+000 8.113154e-001 2.710253e-001 3.126466e-001 5.712994e-001 4.801509e-001 4.572322e-001 5.202720e-001 5.215752e-001 5.336800e-001 5.754065e-001 4.224954e-001 5.884955e-001 4.248629e-001 1.290937e-001
<GCONST> 1.226094e+002
<TRANSP> 5
 0.000000e+000 1.000000e+000 0.000000e+000 0.000000e+000 0.000000e+000
 0.000000e+000 5.176226e-001 4.823774e-001 0.000000e+000 0.000000e+000
 0.000000e+000 0.000000e+000 6.623755e-001 3.376245e-001 0.000000e+000
 0.000000e+000 0.000000e+000 0.000000e+000 5.644655e-001 4.355345e-001
 0.000000e+000 0.000000e+000 0.000000e+000 0.000000e+000 0.000000e+000
<ENDHMM>
~h "s"
<BEGINHMM>
<NUMSTATES> 5
<STATE> 2
<MEAN> 39
 -6.749529e+000 -9.308263e+000 1.238657e+001 4.873723e+000 4.725353e+000 1.098979e+000 2.100339e+000 1.337319e-001 -2.138801e+000 -1.498968e-001 1.201341e+000 -8.523159e-001 7.613109e+001 -5.483879e+000 -3.077379e+000 3.794211e+000 -4.727054e-001 4.440133e-001 1.670666e+000 1.585575e+000 1.554524e+000 1.495226e+000 -1.929070e-001 1.084860e+000 3.148700e-001 1.047940e+000 -3.307457e-001 -2.186762e-002 -6.938780e-001 -4.723633e-001 -7.561230e-002 -5.946127e-001 -2.860436e-002 -2.276213e-002 -2.096969e-001 1.608469e-001 5.820464e-002 -3.858562e-002 1.147021e-001
<VARIANCE> 39
 5.374742e+001 3.938411e+001 5.970786e+001 3.925551e+001 3.722300e+001 3.427797e+001 6.689596e+001 6.847119e+001 5.525066e+001 4.792342e+001 3.486525e+001 3.049935e+001 2.425127e+001 3.368394e+000 4.201763e+000 6.217721e+000 5.375025e+000 5.087636e+000 5.386105e+000 4.112661e+000 4.197754e+000 4.559273e+000 3.878926e+000 4.243129e+000 3.311839e+000 1.230812e+000 1.121992e+000 8.376556e-001 1.157012e+000 4.794211e-001 5.476524e-001 5.536039e-001 6.817021e-001 6.533198e-001 6.306910e-001 6.615970e-001 5.277553e-001 4.898423e-001 2.472494e-001
<GCONST> 1.324783e+002
<STATE> 3
<MEAN> 39
 -2.220741e+001 -1.652276e+001 1.626119e+001 3.747843e-001 4.070942e+000 1.029939e+000 5.189272e+000 2.880718e+000 5.379271e-001 1.167502e+000 3.784136e+000 -1.949566e-001 7.949033e+001 -9.033537e-001 -5.310714e-001 -4.989552e-001 -6.643517e-001 -1.986287e-001 -1.354130e-001 -3.696114e-002 1.064099e-003 1.723894e-001 2.509313e-001 1.929858e-001 1.888613e-001 -7.301616e-002 1.556085e+000 8.021353e-001 -8.128885e-001 3.795080e-001 6.109329e-002 -1.279277e-001 -3.578707e-001 -2.949346e-001 -2.612026e-001 3.313915e-002 -2.815904e-001 -3.482654e-003 -5.689541e-001
<VARIANCE> 39
 2.047951e+001 3.369650e+001 2.533096e+001 6.683366e+001 2.880969e+001 2.826551e+001 5.773470e+001 5.531139e+001 4.556209e+001 3.462281e+001 2.709721e+001 2.640497e+001 1.714749e+001 7.815649e+000 1.881909e+000 2.740954e+000 2.773771e+000 2.068738e+000 1.929151e+000 2.323853e+000 2.332113e+000 2.119871e+000 2.211285e+000 1.853580e+000 1.594972e+000 1.165838e+000 5.273762e-001 5.618212e-001 7.371076e-001 6.304565e-001 5.657985e-001 5.539022e-001 4.547108e-001 4.864387e-001 5.101809e-001 4.401684e-001 4.474027e-001 3.483773e-001 2.505360e-001
<GCONST> 1.183829e+002
<STATE> 4
<MEAN> 39
 -1.373463e+001 -1.231123e+001 8.869886e+000 2.279074e+000 4.721885e+000 2.095041e+000 3.465317e+000 2.070350e+000 -3.976833e-002 1.815873e+000 2.635177e+000 7.979075e-001 7.257330e+001 3.432377e+000 3.157075e+000 -2.377170e+000 1.136615e+000 3.744040e-001 1.136507e-001 -3.970615e-001 -3.764506e-001 -3.949068e-001 2.987646e-001 -7.872876e-001 -1.689750e-001 -2.485821e+000 3.571597e-001 6.189213e-001 -4.983364e-002 1.710960e-001 -4.874894e-002 -2.650308e-001 -1.000076e-001 7.385843e-003 -1.788198e-001 -6.267159e-002 -1.033493e-001 -1.934940e-001 -1.006107e-001
<VARIANCE> 39
 5.184642e+001 6.916125e+001 5.279810e+001 5.333005e+001 3.653835e+001 3.721195e+001 6.130187e+001 5.966743e+001 4.092151e+001 4.060236e+001 3.376516e+001 2.986707e+001 7.139018e+001 7.113524e+000 6.381485e+000 4.856267e+000 5.114223e+000 3.963680e+000 4.849514e+000 4.179529e+000 5.048374e+000 4.279509e+000 3.533217e+000 3.701860e+000 2.929942e+000 5.613776e+000 1.057462e+000 1.347095e+000 9.127656e-001 7.826703e-001 5.989845e-001 8.275989e-001 7.037468e-001 7.440632e-001 7.286274e-001 6.443385e-001 6.148656e-001 5.099666e-001 1.036195e+000
<GCONST> 1.384709e+002
<TRANSP> 5
 0.000000e+000 1.000000e+000 0.000000e+000 0.000000e+000 0.000000e+000
 0.000000e+000 5.958712e-001 4.041288e-001 0.000000e+000 0.000000e+000
 0.000000e+000 0.000000e+000 7.589585e-001 2.410415e-001 0.000000e+000
 0.000000e+000 0.000000e+000 0.000000e+000 6.402614e-001 3.597386e-001
 0.000000e+000 0.000000e+000 0.000000e+000 0.000000e+000 0.000000e+000
<ENDHMM>
~h "t"
<BEGINHMM>
<NUMSTATES> 5
<STATE> 2
<MEAN> 39
 -6.913710e+000 9.611948e+000 8.020767e+000 1.045550e+001 7.814428e+000 5.346960e+000 2.293208e+000 6.598801e-001 -1.940026e+000 1.188439e+000 -9.969245e-001 -2.010252e+000 5.868906e+001 -1.708593e+000 1.342906e+000 -1.377314e-001 5.798510e-001 -9.977619e-002 1.420127e+000 9.504548e-001 1.471860e+000 8.475695e-001 1.986301e-001 6.321308e-001 7.601767e-001 -3.323413e+000 2.025801e-001 -1.465829e+000 -4.760615e-001 -7.112655e-001 -3.226016e-001 -7.240519e-001 -3.426954e-001 -1.511693e-001 2.688262e-002 8.924424e-002 1.319615e-001 4.002753e-002 1.387281e+000
<VARIANCE> 39
 3.753897e+001 7.406487e+001 3.472435e+001 3.287130e+001 4.034872e+001 3.080170e+001 4.471015e+001 3.933446e+001 3.452918e+001 2.718099e+001 2.845228e+001 2.605922e+001 4.758252e+001 4.301724e+000 1.012757e+001 3.860523e+000 4.812950e+000 3.184719e+000 3.977763e+000 3.864258e+000 4.172406e+000 3.012511e+000 3.654748e+000 2.566963e+000 2.591762e+000 6.703472e+000 4.199959e-001 1.843786e+000 7.326118e-001 8.544126e-001 5.640438e-001 7.511276e-001 7.608637e-001 8.091442e-001 5.768127e-001 5.863955e-001 5.009356e-001 4.234163e-001 1.841354e+000
<GCONST> 1.326804e+002
<STATE> 3
<MEAN> 39
 -1.203821e+001 5.605184e+000 6.866438e+000 9.716817e+000 7.866067e+000 6.709289e+000 4.948263e+000 5.744041e+000 1.873714e+000 3.978583e+000 2.118619e+000 7.192554e-001 5.406103e+001 -1.404339e-001 -4.228115e+000 -1.513514e+000 -2.291347e+000 -1.236079e+000 -1.672885e+000 -7.398827e-001 -6.348868e-001 2.627011e-001 -3.024093e-001 4.049383e-001 3.984984e-001 3.725891e+000 1.000671e+000 -8.650475e-001 -6.046863e-003 -6.072074e-001 -9.452127e-002 -1.058904e+000 -6.640383e-001 -1.095340e+000 -6.649951e-001 -4.210394e-001 -2.998340e-001 -3.167902e-001 2.379667e+000
<VARIANCE> 39
 2.416904e+001 8.763578e+001 2.398577e+001 2.762157e+001 3.747753e+001 2.311102e+001 3.221553e+001 2.875274e+001 2.438862e+001 2.669788e+001 2.275074e+001 2.044775e+001 4.667102e+001 3.400291e+000 8.543961e+000 3.038995e+000 4.165244e+000 2.704635e+000 3.773789e+000 3.310253e+000 4.605742e+000 3.522313e+000 3.045709e+000 2.411101e+000 2.568198e+000 1.109853e+001 6.530075e-001 1.778135e+000 6.907111e-001 9.535307e-001 6.333395e-001 7.022665e-001 6.883807e-001 7.442621e-001 6.390117e-001 7.125479e-001 4.534516e-001 4.323492e-001 1.307378e+000
<GCONST> 1.295535e+002
<STATE> 4
<MEAN> 39
 -9.467496e+000 -8.403460e+000 3.577800e+000 -1.038709e-003 4.007949e+000 -1.836727e+000 1.783870e-001 -1.463668e+000 6.093816e-002 5.392516e-001 1.692158e+000 2.417829e-001 7.524008e+001 2.934768e+000 -1.654021e+000 -2.986123e-001 -1.302881e+000 -2.109973e-001 -2.554651e+000 -1.607327e+000 -2.256510e+000 -1.881002e+000 -7.641019e-001 -3.952801e-001 -2.600379e-001 4.815852e+000 9.031740e-001 1.524757e+000 1.999731e-001 9.844303e-001 3.822568e-001 6.488206e-002 5.173744e-002 1.686097e-001 -5.584267e-001 1.689089e-001 -2.949591e-001 -2.638448e-001 -1.228063e+000
<VARIANCE> 39
 2.093744e+001 2.413603e+001 2.432934e+001 2.850374e+001 3.869341e+001 2.965179e+001 4.463931e+001 3.457587e+001 2.802369e+001 2.079629e+001 1.966767e+001 1.632110e+001 2.691996e+001 4.379973e+000 9.266944e+000 4.223082e+000 7.399203e+000 4.489986e+000 4.639641e+000 4.406975e+000 4.513632e+000 4.891636e+000 4.128022e+000 3.846760e+000 3.082522e+000 7.803990e+000 5.668322e-001 1.037485e+000 8.448122e-001 9.435822e-001 8.438911e-001 9.320918e-001 8.147475e-001 1.081994e+000 1.013031e+000 7.605947e-001 6.639464e-001 5.984066e-001 1.154076e+000
<GCONST> 1.328042e+002
<TRANSP> 5
 0.000000e+000 1.000000e+000 0.000000e+000 0.000000e+000 0.000000e+000
 0.000000e+000 6.130894e-001 3.869105e-001 0.000000e+000 0.000000e+000
 0.000000e+000 0.000000e+000 5.157781e-001 4.842219e-001 0.000000e+000
 0.000000e+000 0.000000e+000 0.000000e+000 5.785522e-001 4.214478e-001
 0.000000e+000 0.000000e+000 0.000000e+000 0.000000e+000 0.000000e+000
<ENDHMM>
~h "u"
<BEGINHMM>
<NUMSTATES> 5
<STATE> 2
<MEAN> 39
 2.039399e+000 3.837802e+000 5.316951e+000 3.057878e+000 2.337184e+000 -5.369132e+000 -5.213509e-001 1.746260e+000 -4.965017e+000 -1.895782e+000 -3.224313e+000 -5.138922e+000 6.969756e+001 2.267046e+000 1.903197e+000 1.749811e-001 2.142542e-001 -8.668849e-001 -2.049146e+000 -9.674301e-001 8.811300e-002 -4.481219e-001 -1.090450e-001 -1.073352e+000 -1.636194e+000 5.475441e-001 -4.622087e-001 -3.701865e-001 -5.552709e-002 2.323263e-001 1.563613e-001 1.804048e-001 9.333303e-002 1.645407e-001 3.272801e-001 2.519251e-001 2.102890e-001 1.214024e-001 -6.527339e-002
<VARIANCE> 39
 3.329849e+001 4.075469e+001 5.534731e+001 3.987589e+001 5.466954e+001 8.444852e+001 5.008369e+001 5.076630e+001 7.493684e+001 6.407791e+001 4.299270e+001 3.908748e+001 5.088517e+001 4.422854e+000 6.785833e+000 3.835706e+000 4.238782e+000 4.718505e+000 6.442772e+000 5.404160e+000 5.194452e+000 6.606061e+000 5.083071e+000 5.839306e+000 4.689288e+000 4.444228e+000 7.498164e-001 7.544314e-001 6.451018e-001 6.792779e-001 6.561221e-001 1.268651e+000 7.860869e-001 7.981377e-001 9.410778e-001 8.704572e-001 7.143723e-001 6.946391e-001 6.995290e-001
<GCONST> 1.406541e+002
<STATE> 3
<MEAN> 39
 5.743743e+000 5.838326e+000 4.551380e+000 3.282946e+000 -8.454863e-001 -1.073025e+001 -2.056297e+000 3.424133e+000 -4.072251e+000 -5.678508e-001 -3.540461e+000 -8.661780e+000 7.207807e+001 2.459352e-001 9.369314e-002 -2.762416e-001 2.038547e-001 1.961868e-001 4.708381e-002 6.060342e-002 2.744193e-001 2.486216e-001 -1.935222e-002 -3.334908e-001 -2.457155e-001 4.749418e-002 -5.045273e-001 -5.418449e-001 -7.656042e-002 1.931540e-001 5.842002e-001 9.341560e-001 3.171927e-001 -1.928201e-001 -1.359726e-002 -1.493046e-001 8.110372e-002 4.660937e-001 -1.356128e-001
<VARIANCE> 39
 9.638669e+000 2.635039e+001 4.691756e+001 3.872112e+001 5.064384e+001 6.003906e+001 6.119780e+001 4.809778e+001 8.078815e+001 5.631319e+001 5.722570e+001 4.235368e+001 1.179192e+001 7.691966e-001 2.294971e+000 2.152236e+000 2.364334e+000 3.218485e+000 4.304163e+000 3.307216e+000 2.975671e+000 3.527560e+000 4.023612e+000 3.150339e+000 2.890244e+000 1.228762e+000 4.178708e-001 5.064413e-001 4.694435e-001 5.723434e-001 4.978111e-001 7.227868e-001 8.642260e-001 7.191254e-001 8.514674e-001 7.189066e-001 8.097519e-001 7.243202e-001 2.465395e-001
<GCONST> 1.247981e+002
<STATE> 4
<MEAN> 39
 5.030907e+000 3.665761e+000 3.235163e+000 3.666729e+000 3.504855e+000 -5.823699e+000 -9.308538e-001 2.888201e+000 -3.907013e+000 -3.308172e+000 -5.458756e+000 -6.714282e+000 7.256935e+001 -6.127669e-001 -8.957204e-001 -1.861436e-001 1.144976e+000 1.611976e+000 2.162885e+000 6.244541e-001 -5.954627e-001 -1.887440e-001 -3.202775e-001 -4.633852e-002 7.618305e-001 -3.236236e-001 -4.421184e-001 -2.132808e-001 2.517855e-001 3.657157e-001 1.876674e-001 2.701811e-001 2.384491e-002 -2.106767e-001 -1.627973e-002 2.460807e-001 4.115487e-001 1.799863e-001 -2.139222e-001
<VARIANCE> 39
 1.222381e+001 2.448858e+001 4.983487e+001 4.094012e+001 4.689323e+001 7.111068e+001 5.187009e+001 5.763094e+001 8.886778e+001 5.929168e+001 5.126532e+001 4.222842e+001 1.637209e+001 1.485336e+000 3.328889e+000 3.137634e+000 3.398413e+000 3.772368e+000 5.011970e+000 5.112373e+000 4.056938e+000 5.443100e+000 5.374335e+000 4.164540e+000 4.436632e+000 1.921052e+000 3.843550e-001 6.025766e-001 4.613865e-001 5.432718e-001 5.256310e-001 9.356164e-001 8.204025e-001 7.626857e-001 9.993139e-001 8.348935e-001 8.021609e-001 6.959030e-001 3.295024e-001
<GCONST> 1.311426e+002
<TRANSP> 5
 0.000000e+000 1.000000e+000 0.000000e+000 0.000000e+000 0.000000e+000
 0.000000e+000 4.276137e-001 5.723863e-001 0.000000e+000 0.000000e+000
 0.000000e+000 0.000000e+000 5.833886e-001 4.166113e-001 0.000000e+000
 0.000000e+000 0.000000e+000 0.000000e+000 3.540397e-001 6.459603e-001
 0.000000e+000 0.000000e+000 0.000000e+000 0.000000e+000 0.000000e+000
<ENDHMM>
~h "w"
<BEGINHMM>
<NUMSTATES> 5
<STATE> 2
<MEAN> 39
 8.168104e-001 6.528570e+000 5.224282e+000 1.072556e-001 -2.166290e+000 -9.237679e+000 -8.073912e-001 3.211378e+000 -2.024343e+000 2.140311e-001 8.827178e-001 -2.324444e+000 6.859707e+001 2.319829e+000 1.155910e+000 -1.395690e-001 -5.652876e-002 -7.421154e-001 -1.926260e+000 -7.037931e-001 4.484015e-001 -5.710136e-001 -2.650361e-001 -6.860288e-001 -1.097089e+000 8.639125e-001 -8.383678e-002 -6.209514e-001 -4.937109e-001 1.656547e-001 4.922450e-001 5.210003e-001 3.383167e-001 1.058821e-001 -8.565753e-002 -7.639609e-002 -1.615931e-001 3.078015e-003 1.672308e-001
<VARIANCE> 39
